{"learner":{"attributes":{"best_iteration":"81","best_score":"2.3763092285901775"},"feature_names":["Elec_P_LVMDB_ETA_kW","Elec_P_LVMDB_ETA_kW_lag1","Elec_P_LVMDB_ETA_kW_lag10","Elec_P_LVMDB_ETA_kW_lag11","Elec_P_LVMDB_ETA_kW_lag12","Elec_P_LVMDB_ETA_kW_lag13","Elec_P_LVMDB_ETA_kW_lag14","Elec_P_LVMDB_ETA_kW_lag15","Elec_P_LVMDB_ETA_kW_lag16","Elec_P_LVMDB_ETA_kW_lag168","Elec_P_LVMDB_ETA_kW_lag17","Elec_P_LVMDB_ETA_kW_lag18","Elec_P_LVMDB_ETA_kW_lag19","Elec_P_LVMDB_ETA_kW_lag2","Elec_P_LVMDB_ETA_kW_lag20","Elec_P_LVMDB_ETA_kW_lag21","Elec_P_LVMDB_ETA_kW_lag22","Elec_P_LVMDB_ETA_kW_lag23","Elec_P_LVMDB_ETA_kW_lag24","Elec_P_LVMDB_ETA_kW_lag25","Elec_P_LVMDB_ETA_kW_lag26","Elec_P_LVMDB_ETA_kW_lag27","Elec_P_LVMDB_ETA_kW_lag28","Elec_P_LVMDB_ETA_kW_lag29","Elec_P_LVMDB_ETA_kW_lag3","Elec_P_LVMDB_ETA_kW_lag30","Elec_P_LVMDB_ETA_kW_lag31","Elec_P_LVMDB_ETA_kW_lag32","Elec_P_LVMDB_ETA_kW_lag33","Elec_P_LVMDB_ETA_kW_lag34","Elec_P_LVMDB_ETA_kW_lag35","Elec_P_LVMDB_ETA_kW_lag36","Elec_P_LVMDB_ETA_kW_lag37","Elec_P_LVMDB_ETA_kW_lag38","Elec_P_LVMDB_ETA_kW_lag39","Elec_P_LVMDB_ETA_kW_lag4","Elec_P_LVMDB_ETA_kW_lag40","Elec_P_LVMDB_ETA_kW_lag41","Elec_P_LVMDB_ETA_kW_lag42","Elec_P_LVMDB_ETA_kW_lag43","Elec_P_LVMDB_ETA_kW_lag44","Elec_P_LVMDB_ETA_kW_lag45","Elec_P_LVMDB_ETA_kW_lag46","Elec_P_LVMDB_ETA_kW_lag47","Elec_P_LVMDB_ETA_kW_lag48","Elec_P_LVMDB_ETA_kW_lag5","Elec_P_LVMDB_ETA_kW_lag6","Elec_P_LVMDB_ETA_kW_lag7","Elec_P_LVMDB_ETA_kW_lag8","Elec_P_LVMDB_ETA_kW_lag9","Elec_P_LVMDB_ETA_kW_rollmean168","Elec_P_LVMDB_ETA_kW_rollmean24","Elec_P_LVMDB_ETA_kW_rollmean6","Elec_P_LVMDB_ETA_kW_rollstd168","Elec_P_LVMDB_ETA_kW_rollstd24","Elec_P_LVMDB_ETA_kW_rollstd6","dow","dow_cos","dow_sin","hour","hour_cos","hour_sin","humidity_percent","is_weekend","month","precipitation_height_mm","temperature_air_mean_C","wind_speed_m_per_s"],"feature_types":[],"gradient_booster":{"model":{"cats":{"enc":[],"feature_segments":[],"sorted_idx":[]},"gbtree_model_param":{"num_parallel_tree":"1","num_trees":"132"},"iteration_indptr":[0,1,2,3,4,5,6,7,8,9,10,11,12,13,14,15,16,17,18,19,20,21,22,23,24,25,26,27,28,29,30,31,32,33,34,35,36,37,38,39,40,41,42,43,44,45,46,47,48,49,50,51,52,53,54,55,56,57,58,59,60,61,62,63,64,65,66,67,68,69,70,71,72,73,74,75,76,77,78,79,80,81,82,83,84,85,86,87,88,89,90,91,92,93,94,95,96,97,98,99,100,101,102,103,104,105,106,107,108,109,110,111,112,113,114,115,116,117,118,119,120,121,122,123,124,125,126,127,128,129,130,131,132],"tree_info":[0,0,0,0,0,0,0,0,0,0,0,0,0,0,0,0,0,0,0,0,0,0,0,0,0,0,0,0,0,0,0,0,0,0,0,0,0,0,0,0,0,0,0,0,0,0,0,0,0,0,0,0,0,0,0,0,0,0,0,0,0,0,0,0,0,0,0,0,0,0,0,0,0,0,0,0,0,0,0,0,0,0,0,0,0,0,0,0,0,0,0,0,0,0,0,0,0,0,0,0,0,0,0,0,0,0,0,0,0,0,0,0,0,0,0,0,0,0,0,0,0,0,0,0,0,0,0,0,0,0,0,0],"trees":[{"base_weights":[-8.376983E-3,-2.8615637E0,5.2725253E0,-5.927014E0,-9.147475E-1,3.0893965E0,8.153526E0,-6.3786883E0,-4.382847E0,-1.8727397E0,-8.154467E-2,2.4203084E0,4.3551564E0,5.6773024E0,9.54841E0,-6.6614203E0,-5.705917E0,1.26176E-1,-4.410912E0,-2.4318326E0,-1.4068135E0,-4.0113398E-1,9.4336015E-1,2.4626026E0,-9.171544E0,4.4074535E0,-4.1671038E-1,6.025555E0,-1.7521878E-1,7.39541E0,1.0785569E1,-6.62096E0,-1.30173645E1,-5.734099E0,9.901001E-2,-4.7200403E0,-3.526775E0,-2.684626E0,-1.4559524E0,-1.5991745E0,4.6709245E-3,-1.3555268E0,-1.21412106E-1,1.0879842E0,-1.3544254E1,2.1254332E0,4.389232E0,-8.5692894E-1,1.6906312E-1,4.071411E0,6.1185637E0,6.715437E0,3.9134943E0,-4.65573E0,3.506583E0,5.985071E0,8.156318E0,8.918108E0,1.1954673E1,-3.3212757E-1,-1.3408922E-1,-9.580576E-1,-2.2911921E-1,-2.87494E-1,-8.4231375E-3,-1.8127997E-1,-2.4543624E-1,-2.0628737E-1,-7.303229E-2,-1.6764699E-1,-1.18643515E-1,7.748889E-2,-7.80811E-2,-1.08266376E-1,-6.854298E-2,6.57169E-2,-7.488658E-2,-5.7326913E-2,-1.9415818E-1,-2.568378E-2,2.4459854E-2,8.527982E-3,8.8277176E-2,8.998747E-2,-1.1058066E0,8.255046E-2,1.340802E-1,2.4639364E-1,1.0336261E-1,2.0744959E-1,-3.0003187E-1,2.641001E-1,3.5690388E-1,3.681063E-1,1.8458186E-1,2.8209805E-1,9.9553436E-2,-5.1276934E-1,-1.3369249E-1,2.258065E-1,-1.6472214E-1,1.0469215E-1,3.0848032E-1,-1.24636605E-1,4.1279384E-1,5.237619E-1,3.5945436E-1,6.016529E-1,1.1891409E-1],"categories":[],"categories_nodes":[],"categories_segments":[],"categories_sizes":[],"default_left":[0,0,0,0,0,0,0,0,0,0,0,0,0,0,0,0,0,0,0,0,0,0,0,0,0,0,0,0,0,0,0,0,0,0,0,0,0,0,0,0,0,0,0,0,0,0,0,0,0,0,0,0,0,0,0,0,0,0,0,0,0,0,0,0,0,0,0,0,0,0,0,0,0,0,0,0,0,0,0,0,0,0,0,0,0,0,0,0,0,0,0,0,0,0,0,0,0,0,0,0,0,0,0,0,0,0,0,0,0],"id":0,"left_children":[1,3,5,7,9,11,13,15,17,19,21,23,25,27,29,31,33,-1,35,37,39,41,43,45,47,49,-1,51,53,55,57,59,61,63,-1,65,67,69,71,73,75,77,79,81,83,85,87,-1,-1,89,91,93,95,97,99,101,103,105,107,-1,-1,-1,-1,-1,-1,-1,-1,-1,-1,-1,-1,-1,-1,-1,-1,-1,-1,-1,-1,-1,-1,-1,-1,-1,-1,-1,-1,-1,-1,-1,-1,-1,-1,-1,-1,-1,-1,-1,-1,-1,-1,-1,-1,-1,-1,-1,-1,-1,-1],"loss_changes":[8.8144305E4,2.266054E4,1.2881066E4,1.0008008E3,1.8548682E3,9.794912E2,2.999168E3,1.7864453E2,7.645068E1,2.7817505E2,4.0784894E2,3.9862354E2,3.0417188E2,6.553037E2,1.4225078E3,1.18515625E2,8.5868164E1,0E0,7.518652E1,1.1697241E2,1.6074414E2,2.5318478E2,6.3493225E2,4.8761523E2,3.579759E2,2.0624072E2,0E0,4.152129E2,3.2975644E2,1.7546973E2,6.706289E2,4.9632812E1,1.1948718E2,2.9157227E1,0E0,3.300244E1,1.0659119E2,7.288403E1,3.513446E1,6.437659E1,1.4363911E2,1.0912097E2,1.7629825E2,1.8245209E2,4.3438422E2,1.6787354E2,1.3114331E2,0E0,0E0,2.8979053E2,1.6881592E1,4.1670996E2,2.4462585E2,7.245929E1,9.0403625E1,4.2373047E1,1.6158691E2,3.043086E2,1.3352148E2,0E0,0E0,0E0,0E0,0E0,0E0,0E0,0E0,0E0,0E0,0E0,0E0,0E0,0E0,0E0,0E0,0E0,0E0,0E0,0E0,0E0,0E0,0E0,0E0,0E0,0E0,0E0,0E0,0E0,0E0,0E0,0E0,0E0,0E0,0E0,0E0,0E0,0E0,0E0,0E0,0E0,0E0,0E0,0E0,0E0,0E0,0E0,0E0,0E0,0E0],"parents":[2147483647,0,0,1,1,2,2,3,3,4,4,5,5,6,6,7,7,8,8,9,9,10,10,11,11,12,12,13,13,14,14,15,15,16,16,18,18,19,19,20,20,21,21,22,22,23,23,24,24,25,25,27,27,28,28,29,29,30,30,31,31,32,32,33,33,35,35,36,36,37,37,38,38,39,39,40,40,41,41,42,42,43,43,44,44,45,45,46,46,49,49,50,50,51,51,52,52,53,53,54,54,55,55,56,56,57,57,58,58],"right_children":[2,4,6,8,10,12,14,16,18,20,22,24,26,28,30,32,34,-1,36,38,40,42,44,46,48,50,-1,52,54,56,58,60,62,64,-1,66,68,70,72,74,76,78,80,82,84,86,88,-1,-1,90,92,94,96,98,100,102,104,106,108,-1,-1,-1,-1,-1,-1,-1,-1,-1,-1,-1,-1,-1,-1,-1,-1,-1,-1,-1,-1,-1,-1,-1,-1,-1,-1,-1,-1,-1,-1,-1,-1,-1,-1,-1,-1,-1,-1,-1,-1,-1,-1,-1,-1,-1,-1,-1,-1,-1,-1],"split_conditions":[8.583692E0,3.1464684E0,1.3437316E1,1.2628876E0,5.8445196E0,1.1209246E1,9.295275E0,1.6399291E-1,2.4738519E-1,4.7949576E0,8.660254E-1,1E2,4.656573E1,4E0,1.7617918E1,4.656573E1,1.14289465E1,1.26176E-1,6.6710258E0,8.407433E0,9.659258E-1,4.4956555E0,3.533359E0,9.659258E-1,1.0193727E1,1.7395555E1,-4.1671038E-1,-5E-1,7.4306736E0,-5E-1,1.5238508E1,4.2873283E1,7.218126E-2,9.244039E0,9.901001E-2,1E0,7.818315E-1,4.0141416E0,7.61685E-1,4.2827625E0,5E0,1.267582E1,7.2972884E0,6.952144E0,8.231734E0,9.020883E0,1E1,-8.5692894E-1,1.6906312E-1,3.7401615E1,-5E-1,7.5691648E0,5.252131E0,1.5238508E1,1.4225575E1,4.1655846E0,1.9928793E0,1.0731859E1,4.656573E1,-3.3212757E-1,-1.3408922E-1,-9.580576E-1,-2.2911921E-1,-2.87494E-1,-8.4231375E-3,-1.8127997E-1,-2.4543624E-1,-2.0628737E-1,-7.303229E-2,-1.6764699E-1,-1.18643515E-1,7.748889E-2,-7.80811E-2,-1.08266376E-1,-6.854298E-2,6.57169E-2,-7.488658E-2,-5.7326913E-2,-1.9415818E-1,-2.568378E-2,2.4459854E-2,8.527982E-3,8.8277176E-2,8.998747E-2,-1.1058066E0,8.255046E-2,1.340802E-1,2.4639364E-1,1.0336261E-1,2.0744959E-1,-3.0003187E-1,2.641001E-1,3.5690388E-1,3.681063E-1,1.8458186E-1,2.8209805E-1,9.9553436E-2,-5.1276934E-1,-1.3369249E-1,2.258065E-1,-1.6472214E-1,1.0469215E-1,3.0848032E-1,-1.24636605E-1,4.1279384E-1,5.237619E-1,3.5945436E-1,6.016529E-1,1.1891409E-1],"split_indices":[0,0,0,0,0,0,50,0,52,0,61,62,13,56,0,42,50,0,16,15,61,16,55,61,0,16,0,60,38,61,16,38,2,53,0,56,58,0,37,34,56,13,0,0,0,15,64,0,0,12,60,53,55,0,11,32,36,20,27,0,0,0,0,0,0,0,0,0,0,0,0,0,0,0,0,0,0,0,0,0,0,0,0,0,0,0,0,0,0,0,0,0,0,0,0,0,0,0,0,0,0,0,0,0,0,0,0,0,0],"split_type":[0,0,0,0,0,0,0,0,0,0,0,0,0,0,0,0,0,0,0,0,0,0,0,0,0,0,0,0,0,0,0,0,0,0,0,0,0,0,0,0,0,0,0,0,0,0,0,0,0,0,0,0,0,0,0,0,0,0,0,0,0,0,0,0,0,0,0,0,0,0,0,0,0,0,0,0,0,0,0,0,0,0,0,0,0,0,0,0,0,0,0,0,0,0,0,0,0,0,0,0,0,0,0,0,0,0,0,0,0],"sum_hessian":[5.848E3,3.797E3,2.051E3,1.474E3,2.323E3,1.168E3,8.83E2,1.138E3,3.36E2,1.08E3,1.243E3,7.66E2,4.02E2,3.2E2,5.63E2,7.95E2,3.43E2,1E0,3.35E2,4.89E2,5.91E2,9.48E2,2.95E2,7.64E2,2E0,4.01E2,1E0,3.02E2,1.8E1,2.08E2,3.55E2,7.92E2,3E0,3.42E2,1E0,2.45E2,9E1,3.87E2,1.02E2,5.2E2,7.1E1,2.14E2,7.34E2,2.93E2,2E0,6.52E2,1.12E2,1E0,1E0,3.38E2,6.3E1,2.26E2,7.6E1,8E0,1E1,7.6E1,1.32E2,1.4E2,2.15E2,7.87E2,5E0,1E0,2E0,3.41E2,1E0,3.9E1,2.06E2,6.9E1,2.1E1,1.2E2,2.67E2,3E0,9.9E1,1.47E2,3.73E2,3.8E1,3.3E1,1.99E2,1.5E1,4.47E2,2.87E2,1.25E2,1.68E2,1E0,1E0,3.54E2,2.98E2,9E1,2.2E1,3.36E2,2E0,3.8E1,2.5E1,1.85E2,4.1E1,3.9E1,3.7E1,1E0,7E0,9E0,1E0,4E0,7.2E1,1E0,1.31E2,7.1E1,6.9E1,2.13E2,2E0],"tree_param":{"num_deleted":"0","num_feature":"68","num_nodes":"109","size_leaf_vector":"1"}},{"base_weights":[-1.0315666E-2,-2.6724417E0,5.0770745E0,-5.4855933E0,-6.85801E-1,3.0231733E0,7.8850217E0,-6.083577E0,-4.0261884E0,-1.5831125E0,-4.4345908E-2,2.3286765E0,4.2441206E0,4.359459E0,9.154469E0,-6.359303E0,-5.424533E0,-3.5557477E0,-4.6072545E0,-1.7469877E0,-2.9690346E-1,-2.6146096E-1,1.1905828E0,1.944313E0,3.7985957E0,3.8716092E0,6.0991554E0,4.8108153E0,-8.5866374E-1,1.0187308E1,6.962907E0,-6.319989E0,-9.870837E0,-5.4701285E0,-2.4675174E0,-3.963095E0,-2.608273E0,-4.8896823E0,-3.2299511E0,-2.0751772E0,-1.3700932E0,6.0254395E-1,-1.7246671E0,-7.7132547E-1,1.5291691E-1,-6.84283E0,1.4341574E0,1.3774287E0,2.3539367E0,2.9746404E0,5.1485786E0,3.4761631E0,4.8316793E0,2.1036355E-1,6.55593E0,2.713163E0,5.537639E0,-2.9084992E0,2.731288E-1,8.204396E0,1.1220883E1,4.4424343E0,7.5505686E0,-3.162577E-1,-5.6525625E-2,-2.6443017E-1,-9.3410605E-1,-1.7758477E-1,-2.7621493E-1,-1.7611678E-1,9.6534766E-2,5.150021E-2,-2.0262662E-1,-9.2001095E-2,-1.5706128E-1,-1.6290355E-1,-2.5137246E-1,-1.6858266E-1,-2.2643797E-2,2.5561023E-1,-1.0514084E-1,2.726605E-2,-7.3174365E-2,-3.5770588E-2,6.5386735E-2,-9.869995E-2,5.016184E-3,-8.049945E-2,-3.0127997E-2,-3.977867E-2,2.0749664E-2,2.0694772E-2,-1.0781615E0,3.2191515E-2,1.13852434E-1,2.2665221E-2,8.226164E-2,1.2050294E-1,-1.5094797E-1,9.125418E-2,1.9021086E-1,1.6873617E-1,2.7979872E-1,1.7842765E-1,-1.6067182E-1,5.6326717E-2,2.5064605E-1,-1.2049736E-1,1.0615029E-1,3.7154076E-1,2.0463696E-1,1.846139E-1,-1.8115313E-1,3.4353977E-1,2.3116611E-1,-2.2466166E-1,1.2864135E-1,4.140168E-1,8.742469E-2,3.3632302E-1,5.8406085E-1,1.7082635E-1,3.6405474E-1,3.0192417E-1,4.5313883E-1],"categories":[],"categories_nodes":[],"categories_segments":[],"categories_sizes":[],"default_left":[0,0,0,0,0,0,0,0,0,0,0,0,0,0,0,0,0,0,0,0,0,0,0,0,0,0,0,0,0,0,0,0,0,0,0,0,0,0,0,0,0,0,0,0,0,0,0,0,0,0,0,0,0,0,0,0,0,0,0,0,0,0,0,0,0,0,0,0,0,0,0,0,0,0,0,0,0,0,0,0,0,0,0,0,0,0,0,0,0,0,0,0,0,0,0,0,0,0,0,0,0,0,0,0,0,0,0,0,0,0,0,0,0,0,0,0,0,0,0,0,0,0,0,0,0],"id":1,"left_children":[1,3,5,7,9,11,13,15,17,19,21,23,25,27,29,31,33,35,37,39,41,43,45,47,49,51,53,55,57,59,61,63,65,67,69,71,73,75,77,79,81,83,85,87,89,91,93,95,97,99,101,103,105,107,109,111,113,115,-1,117,119,121,123,-1,-1,-1,-1,-1,-1,-1,-1,-1,-1,-1,-1,-1,-1,-1,-1,-1,-1,-1,-1,-1,-1,-1,-1,-1,-1,-1,-1,-1,-1,-1,-1,-1,-1,-1,-1,-1,-1,-1,-1,-1,-1,-1,-1,-1,-1,-1,-1,-1,-1,-1,-1,-1,-1,-1,-1,-1,-1,-1,-1,-1,-1],"loss_changes":[7.975637E4,2.1602232E4,1.1643301E4,1.371832E3,1.3047811E3,9.8221094E2,3.7821797E3,1.7138672E2,1.1154883E2,1.9866602E2,3.550362E2,4.1522192E2,2.6868896E2,5.41124E2,1.3483008E3,4.708789E1,3.2478516E1,9.116821E1,6.433838E1,1.0081177E2,1.397326E2,2.3801537E2,3.9724728E2,1.3492212E2,1.5598291E2,1.1798242E2,1.842207E2,3.0514648E2,2.620804E2,7.769258E2,2.6861816E2,1.3941406E1,1.838252E2,1.5192383E1,3.9275753E1,8.544971E1,2.779425E1,2.1608154E1,1.3426727E1,9.9350464E1,7.11012E1,6.3206055E1,1.9309235E1,7.050632E1,1.5494498E2,6.498563E2,1.2710278E2,6.162021E1,1.1100513E2,8.651416E1,2.6351196E1,1.6907031E2,6.2177002E1,3.518663E1,1.0750806E2,3.6079538E2,1.5716797E2,1.4185695E2,0E0,5.857129E1,4.9244922E2,9.452435E1,3.202754E2,0E0,0E0,0E0,0E0,0E0,0E0,0E0,0E0,0E0,0E0,0E0,0E0,0E0,0E0,0E0,0E0,0E0,0E0,0E0,0E0,0E0,0E0,0E0,0E0,0E0,0E0,0E0,0E0,0E0,0E0,0E0,0E0,0E0,0E0,0E0,0E0,0E0,0E0,0E0,0E0,0E0,0E0,0E0,0E0,0E0,0E0,0E0,0E0,0E0,0E0,0E0,0E0,0E0,0E0,0E0,0E0,0E0,0E0,0E0,0E0,0E0,0E0],"parents":[2147483647,0,0,1,1,2,2,3,3,4,4,5,5,6,6,7,7,8,8,9,9,10,10,11,11,12,12,13,13,14,14,15,15,16,16,17,17,18,18,19,19,20,20,21,21,22,22,23,23,24,24,25,25,26,26,27,27,28,28,29,29,30,30,31,31,32,32,33,33,34,34,35,35,36,36,37,37,38,38,39,39,40,40,41,41,42,42,43,43,44,44,45,45,46,46,47,47,48,48,49,49,50,50,51,51,52,52,53,53,54,54,55,55,56,56,57,57,59,59,60,60,61,61,62,62],"right_children":[2,4,6,8,10,12,14,16,18,20,22,24,26,28,30,32,34,36,38,40,42,44,46,48,50,52,54,56,58,60,62,64,66,68,70,72,74,76,78,80,82,84,86,88,90,92,94,96,98,100,102,104,106,108,110,112,114,116,-1,118,120,122,124,-1,-1,-1,-1,-1,-1,-1,-1,-1,-1,-1,-1,-1,-1,-1,-1,-1,-1,-1,-1,-1,-1,-1,-1,-1,-1,-1,-1,-1,-1,-1,-1,-1,-1,-1,-1,-1,-1,-1,-1,-1,-1,-1,-1,-1,-1,-1,-1,-1,-1,-1,-1,-1,-1,-1,-1,-1,-1,-1,-1,-1,-1],"split_conditions":[8.663358E0,3.7998166E0,1.3899293E1,1.2628876E0,5.7665057E0,1.1340588E1,1.49E1,1.6399291E-1,2.5881904E-1,9.659258E-1,1.2112449E1,8.660254E-1,8.660254E-1,4E0,1.5E1,2.0929043E1,1.8862566E1,3.0161276E0,1.0034981E1,5.022832E0,5E0,6.817366E0,8E-1,8.736239E0,1.1046111E1,1.3222956E1,5.8E0,4.17912E0,3.2E0,1.7617918E1,5.286834E0,1.6028906E1,4.5664005E0,1.0780771E-1,8.530951E0,2.4738519E-1,4E0,3.7917393E-1,1.7099327E1,2.4E1,-8.660254E-1,3.4507117E0,1.3171271E1,3.6466625E0,3.1464684E0,7.9880996E0,4.3388373E-1,3.8954966E0,4.2873283E1,8.3871E0,1.2570183E1,3.384557E1,4.4305944E0,6.252255E0,9.442657E0,3.585262E1,5.4303303E0,1.3318135E1,2.731288E-1,4.656573E1,9.814209E0,2.56E1,1.8608679E1,-3.162577E-1,-5.6525625E-2,-2.6443017E-1,-9.3410605E-1,-1.7758477E-1,-2.7621493E-1,-1.7611678E-1,9.6534766E-2,5.150021E-2,-2.0262662E-1,-9.2001095E-2,-1.5706128E-1,-1.6290355E-1,-2.5137246E-1,-1.6858266E-1,-2.2643797E-2,2.5561023E-1,-1.0514084E-1,2.726605E-2,-7.3174365E-2,-3.5770588E-2,6.5386735E-2,-9.869995E-2,5.016184E-3,-8.049945E-2,-3.0127997E-2,-3.977867E-2,2.0749664E-2,2.0694772E-2,-1.0781615E0,3.2191515E-2,1.13852434E-1,2.2665221E-2,8.226164E-2,1.2050294E-1,-1.5094797E-1,9.125418E-2,1.9021086E-1,1.6873617E-1,2.7979872E-1,1.7842765E-1,-1.6067182E-1,5.6326717E-2,2.5064605E-1,-1.2049736E-1,1.0615029E-1,3.7154076E-1,2.0463696E-1,1.846139E-1,-1.8115313E-1,3.4353977E-1,2.3116611E-1,-2.2466166E-1,1.2864135E-1,4.140168E-1,8.742469E-2,3.3632302E-1,5.8406085E-1,1.7082635E-1,3.6405474E-1,3.0192417E-1,4.5313883E-1],"split_indices":[0,0,0,0,0,0,66,0,60,61,15,61,61,56,59,15,14,0,10,0,56,0,67,17,17,43,66,43,67,0,4,54,9,52,2,52,56,55,39,62,60,20,15,9,12,0,58,39,17,9,12,12,53,9,53,0,50,19,0,15,51,66,0,0,0,0,0,0,0,0,0,0,0,0,0,0,0,0,0,0,0,0,0,0,0,0,0,0,0,0,0,0,0,0,0,0,0,0,0,0,0,0,0,0,0,0,0,0,0,0,0,0,0,0,0,0,0,0,0,0,0,0,0,0,0],"split_type":[0,0,0,0,0,0,0,0,0,0,0,0,0,0,0,0,0,0,0,0,0,0,0,0,0,0,0,0,0,0,0,0,0,0,0,0,0,0,0,0,0,0,0,0,0,0,0,0,0,0,0,0,0,0,0,0,0,0,0,0,0,0,0,0,0,0,0,0,0,0,0,0,0,0,0,0,0,0,0,0,0,0,0,0,0,0,0,0,0,0,0,0,0,0,0,0,0,0,0,0,0,0,0,0,0,0,0,0,0,0,0,0,0,0,0,0,0,0,0,0,0,0,0,0,0],"sum_hessian":[5.887E3,3.865E3,2.022E3,1.599E3,2.266E3,1.169E3,8.53E2,1.132E3,4.67E2,9.44E2,1.322E3,7.47E2,4.22E2,2.27E2,6.26E2,7.92E2,3.4E2,2.62E2,2.05E2,8.37E2,1.07E2,1.125E3,1.97E2,5.94E2,1.53E2,3.54E2,6.8E1,2.09E2,1.8E1,4.23E2,2.03E2,7.86E2,6E0,3.34E2,6E0,1.81E2,8.1E1,1.68E2,3.7E1,4.45E2,3.92E2,6.6E1,4.1E1,5.04E2,6.21E2,5E0,1.92E2,2.51E2,3.43E2,9.7E1,5.6E1,2.54E2,1E2,5E0,6.3E1,5.5E1,1.54E2,1.4E1,4E0,1.48E2,2.75E2,4E1,1.63E2,7.85E2,1E0,5E0,1E0,1.1E1,3.23E2,5E0,1E0,3E0,1.78E2,3.5E1,4.6E1,1.5E1,1.53E2,3.5E1,2E0,1E0,4.44E2,1.8E1,3.74E2,2.3E1,4.3E1,3.6E1,5E0,8.3E1,4.21E2,1.34E2,4.87E2,4E0,1E0,1E2,9.2E1,5.7E1,1.94E2,3.4E2,3E0,4.2E1,5.5E1,1.3E1,4.3E1,2.51E2,3E0,5E0,9.5E1,2E0,3E0,4.5E1,1.8E1,4.8E1,7E0,6E1,9.4E1,1.1E1,3E0,1.46E2,2E0,2.7E1,2.48E2,3.1E1,9E0,8.4E1,7.9E1],"tree_param":{"num_deleted":"0","num_feature":"68","num_nodes":"125","size_leaf_vector":"1"}},{"base_weights":[1.0117055E-2,-2.7427752E0,4.5328093E0,-5.1659527E0,-8.579265E-1,2.6358063E0,7.584031E0,-5.641323E0,-3.590026E0,-1.603883E0,-2.7370128E-1,1.9889634E0,4.039926E0,4.4397864E0,8.728979E0,-5.940693E0,-4.9721284E0,-3.821794E0,-2.4908674E0,-1.826068E0,-1.0111946E0,-6.975202E-1,2.6157352E-1,1.6993307E0,3.176037E0,4.1315756E0,-2.1278257E0,4.811899E0,7.0290816E-1,6.0204277E0,9.564176E0,-5.983559E0,-4.226775E0,-5.0129876E0,1.8319333E-1,-3.5809934E0,-5.216918E0,-1.3817579E0,-3.4383605E0,-2.1820307E0,-1.4710381E0,-3.1171176E-1,-1.5190694E0,-5.908028E-1,-3.2195964E0,8.145132E-1,-3.3963165E-1,1.7686859E0,-7.322649E0,2.1583228E0,4.3884563E0,3.6717067E0,5.407673E0,2.408102E0,-6.131797E0,3.674355E-1,5.2035055E0,-1.3185725E0,2.2038236E0,7.20221E0,4.0217004E0,7.300528E0,1.0583337E1,-3.0349308E-1,-2.675474E-1,1.2879731E-1,-2.4811463E-1,1.1486216E-1,-2.5190693E-1,9.41214E-2,-5.0534707E-2,-1.981298E-1,-1.4223234E-1,-1.982882E-1,-3.0210873E-1,-1.5515866E-2,-1.1286926E-1,-2.1952474E-1,-1.22856416E-1,-1.0309229E-1,-1.670896E-1,-8.7865755E-2,-5.703733E-2,-2.655988E-2,2.7089888E-1,7.729321E-2,-7.86562E-2,-5.240189E-2,-1.3254779E-2,-4.5944858E-1,-1.0207309E-1,1.2941383E-1,3.0209018E-2,-6.0562193E-2,-2.2843967E-3,6.2498868E-2,1.2338574E-1,9.1516495E-2,-8.5428685E-1,1.1548835E-1,-3.248726E-2,2.4671371E-1,1.0716611E-1,1.895825E-1,-7.175299E-2,2.1937118E-1,3.1321624E-1,1.3909122E-1,3.2173384E-2,-4.107533E-1,-1.3495094E-1,-4.9697146E-2,2.0529039E-1,2.9810238E-1,1.5508156E-1,4.661468E-2,-1.8779488E-1,2.3492346E-2,1.4611374E-1,3.047541E-1,4.777324E-1,-2.1689795E-1,2.1988617E-1,3.930369E-1,2.7450818E-1,5.382412E-1,2.69282E-1],"categories":[],"categories_nodes":[],"categories_segments":[],"categories_sizes":[],"default_left":[0,0,0,0,0,0,0,0,0,0,0,0,0,0,0,0,0,0,0,0,0,0,0,0,0,0,0,0,0,0,0,0,0,0,0,0,0,0,0,0,0,0,0,0,0,0,0,0,0,0,0,0,0,0,0,0,0,0,0,0,0,0,0,0,0,0,0,0,0,0,0,0,0,0,0,0,0,0,0,0,0,0,0,0,0,0,0,0,0,0,0,0,0,0,0,0,0,0,0,0,0,0,0,0,0,0,0,0,0,0,0,0,0,0,0,0,0,0,0,0,0,0,0,0,0,0,0],"id":2,"left_children":[1,3,5,7,9,11,13,15,17,19,21,23,25,27,29,31,33,35,37,39,41,43,45,47,49,51,53,55,57,59,61,63,65,67,69,71,73,75,77,79,81,83,85,87,89,91,93,95,97,99,101,103,105,107,109,111,113,115,117,119,121,123,125,-1,-1,-1,-1,-1,-1,-1,-1,-1,-1,-1,-1,-1,-1,-1,-1,-1,-1,-1,-1,-1,-1,-1,-1,-1,-1,-1,-1,-1,-1,-1,-1,-1,-1,-1,-1,-1,-1,-1,-1,-1,-1,-1,-1,-1,-1,-1,-1,-1,-1,-1,-1,-1,-1,-1,-1,-1,-1,-1,-1,-1,-1,-1,-1],"loss_changes":[7.334579E4,1.6721102E4,1.2881855E4,1.1798828E3,8.977584E2,1.24171E3,3.0356406E3,2.1667969E2,8.575635E1,1.17329834E2,2.62659E2,3.191648E2,2.5355322E2,3.164419E2,1.3562773E3,3.6716797E1,8.222656E1,8.44541E1,6.6708405E1,7.982007E1,8.79837E1,1.7196835E2,1.704809E2,4.8912524E2,2.175653E2,2.3072461E2,1.4189806E2,3.6184863E2,6.965547E1,3.2534375E2,1.0208789E3,1.2345703E1,1.3286713E2,8.1990234E1,1.0017339E1,6.319043E1,2.0436646E1,3.0259521E1,2.284555E1,3.854956E1,2.9387573E1,1.3618211E2,2.6288757E1,9.220444E1,1.6409198E2,9.804878E1,6.2971077E1,2.7103516E2,5.674407E2,4.487784E1,9.113513E1,1.9961084E2,6.9529785E1,8.4791946E-1,6.4329987E0,9.568905E1,2.87625E2,5.836252E1,1.48220825E1,1.8397754E2,2.0139557E2,1.09984375E2,2.4953906E2,0E0,0E0,0E0,0E0,0E0,0E0,0E0,0E0,0E0,0E0,0E0,0E0,0E0,0E0,0E0,0E0,0E0,0E0,0E0,0E0,0E0,0E0,0E0,0E0,0E0,0E0,0E0,0E0,0E0,0E0,0E0,0E0,0E0,0E0,0E0,0E0,0E0,0E0,0E0,0E0,0E0,0E0,0E0,0E0,0E0,0E0,0E0,0E0,0E0,0E0,0E0,0E0,0E0,0E0,0E0,0E0,0E0,0E0,0E0,0E0,0E0,0E0,0E0,0E0],"parents":[2147483647,0,0,1,1,2,2,3,3,4,4,5,5,6,6,7,7,8,8,9,9,10,10,11,11,12,12,13,13,14,14,15,15,16,16,17,17,18,18,19,19,20,20,21,21,22,22,23,23,24,24,25,25,26,26,27,27,28,28,29,29,30,30,31,31,32,32,33,33,34,34,35,35,36,36,37,37,38,38,39,39,40,40,41,41,42,42,43,43,44,44,45,45,46,46,47,47,48,48,49,49,50,50,51,51,52,52,53,53,54,54,55,55,56,56,57,57,58,58,59,59,60,60,61,61,62,62],"right_children":[2,4,6,8,10,12,14,16,18,20,22,24,26,28,30,32,34,36,38,40,42,44,46,48,50,52,54,56,58,60,62,64,66,68,70,72,74,76,78,80,82,84,86,88,90,92,94,96,98,100,102,104,106,108,110,112,114,116,118,120,122,124,126,-1,-1,-1,-1,-1,-1,-1,-1,-1,-1,-1,-1,-1,-1,-1,-1,-1,-1,-1,-1,-1,-1,-1,-1,-1,-1,-1,-1,-1,-1,-1,-1,-1,-1,-1,-1,-1,-1,-1,-1,-1,-1,-1,-1,-1,-1,-1,-1,-1,-1,-1,-1,-1,-1,-1,-1,-1,-1,-1,-1,-1,-1,-1,-1],"split_conditions":[8.162777E0,3.7998166E0,1.3899293E1,1.5963581E0,5.6832957E0,1.1340588E1,1.49E1,3.5680002E-1,8.495422E0,7.6186895E0,6.912695E0,1.2911363E1,4.2873283E1,-2.5881904E-1,8.792398E0,1.2570183E1,1.0346711E1,5.022832E0,4E0,4.895143E0,4E0,1.2430003E1,1.3E1,2.2410357E1,1.5629645E1,1.4225575E1,6.8742313E0,1.8926375E0,9.228382E0,8.751947E0,1.7617918E1,7.7E0,4.45625E0,-4.2E0,1.049308E0,3.0161276E0,5E-1,7.761936E0,6.2720265E0,8.231734E0,5.3709636E0,1.381299E1,4.376923E1,5.849816E0,1.1440817E0,4.282709E0,4.429473E0,9.683046E0,6.6226454E0,1.2E1,5E0,1.792916E1,8.17788E0,3.1647978E1,1.267582E1,3.4507117E0,7.3785744E0,6.6960273E0,1.093533E1,6.284041E0,6.1728554E0,1.2022963E1,8.5E0,-3.0349308E-1,-2.675474E-1,1.2879731E-1,-2.4811463E-1,1.1486216E-1,-2.5190693E-1,9.41214E-2,-5.0534707E-2,-1.981298E-1,-1.4223234E-1,-1.982882E-1,-3.0210873E-1,-1.5515866E-2,-1.1286926E-1,-2.1952474E-1,-1.22856416E-1,-1.0309229E-1,-1.670896E-1,-8.7865755E-2,-5.703733E-2,-2.655988E-2,2.7089888E-1,7.729321E-2,-7.86562E-2,-5.240189E-2,-1.3254779E-2,-4.5944858E-1,-1.0207309E-1,1.2941383E-1,3.0209018E-2,-6.0562193E-2,-2.2843967E-3,6.2498868E-2,1.2338574E-1,9.1516495E-2,-8.5428685E-1,1.1548835E-1,-3.248726E-2,2.4671371E-1,1.0716611E-1,1.895825E-1,-7.175299E-2,2.1937118E-1,3.1321624E-1,1.3909122E-1,3.2173384E-2,-4.107533E-1,-1.3495094E-1,-4.9697146E-2,2.0529039E-1,2.9810238E-1,1.5508156E-1,4.661468E-2,-1.8779488E-1,2.3492346E-2,1.4611374E-1,3.047541E-1,4.777324E-1,-2.1689795E-1,2.1988617E-1,3.930369E-1,2.7450818E-1,5.382412E-1,2.69282E-1],"split_indices":[0,0,0,0,0,0,66,0,15,15,0,11,13,60,14,16,50,1,56,0,56,13,59,14,15,16,2,13,47,27,0,66,11,66,0,0,60,5,32,24,40,42,62,14,44,13,42,0,5,64,56,11,5,1,0,26,53,14,35,6,48,26,67,0,0,0,0,0,0,0,0,0,0,0,0,0,0,0,0,0,0,0,0,0,0,0,0,0,0,0,0,0,0,0,0,0,0,0,0,0,0,0,0,0,0,0,0,0,0,0,0,0,0,0,0,0,0,0,0,0,0,0,0,0,0,0,0],"split_type":[0,0,0,0,0,0,0,0,0,0,0,0,0,0,0,0,0,0,0,0,0,0,0,0,0,0,0,0,0,0,0,0,0,0,0,0,0,0,0,0,0,0,0,0,0,0,0,0,0,0,0,0,0,0,0,0,0,0,0,0,0,0,0,0,0,0,0,0,0,0,0,0,0,0,0,0,0,0,0,0,0,0,0,0,0,0,0,0,0,0,0,0,0,0,0,0,0,0,0,0,0,0,0,0,0,0,0,0,0,0,0,0,0,0,0,0,0,0,0,0,0,0,0,0,0,0,0],"sum_hessian":[5.889E3,3.661E3,2.228E3,1.601E3,2.06E3,1.375E3,8.53E2,1.228E3,3.73E2,9.04E2,1.156E3,9.43E2,4.32E2,2.29E2,6.24E2,8.43E2,3.85E2,3.06E2,6.7E1,6.56E2,2.48E2,6.45E2,5.11E2,7.6E2,1.83E2,4.26E2,6E0,2.08E2,2.1E1,1.49E2,4.75E2,8.2E2,2.3E1,3.82E2,3E0,2.64E2,4.2E1,3.2E1,3.5E1,3.25E2,3.31E2,1.05E2,1.43E2,6.2E2,2.5E1,2.66E2,2.45E2,7.55E2,5E0,1.01E2,8.2E1,3.16E2,1.1E2,3E0,3E0,1.7E1,1.91E2,9E0,1.2E1,9.2E1,5.7E1,1.5E2,3.25E2,7.14E2,1.06E2,2E0,2.1E1,1E0,3.81E2,1E0,2E0,1.71E2,9.3E1,1.9E1,2.3E1,1.5E1,1.7E1,1.6E1,1.9E1,2.97E2,2.8E1,1.75E2,1.56E2,1.02E2,3E0,2E0,1.41E2,2.57E2,3.63E2,3E0,2.2E1,2.7E1,2.39E2,6.1E1,1.84E2,4.35E2,3.2E2,3E0,2E0,9.6E1,5E0,6.5E1,1.7E1,3.09E2,7E0,5.3E1,5.7E1,2E0,1E0,1E0,2E0,1.3E1,4E0,1.39E2,5.2E1,5E0,4E0,4E0,8E0,6.5E1,2.7E1,2E0,5.5E1,1.12E2,3.8E1,3.13E2,1.2E1],"tree_param":{"num_deleted":"0","num_feature":"68","num_nodes":"127","size_leaf_vector":"1"}},{"base_weights":[-8.757952E-3,-2.470179E0,4.605209E0,-5.1031775E0,-7.9602903E-1,2.7863455E0,7.254828E0,-5.7407985E0,-4.270643E0,-1.3628037E0,2.2687383E-1,2.222004E0,3.9320474E0,4.267202E0,8.293823E0,-5.7042503E0,-1.0718101E1,-4.714285E0,-3.6231136E0,-2.1297448E0,-9.9375886E-1,2.775198E-1,-1.0540947E0,1.9416271E0,3.7732906E0,3.5890362E0,5.709916E0,4.65538E0,-5.7344514E-1,6.33436E0,9.426017E0,-5.708751E0,-4.8423793E-2,-9.0455055E-1,-2.17606E-1,-4.768445E0,-5.16498E-1,-3.8291674E0,-2.0862966E0,2.49884E-1,-2.1545405E0,-1.4157956E0,-5.7389414E-1,-7.007525E-2,1.3289974E0,1.3612565E0,2.3475366E0,4.2971387E0,1.8237702E0,3.6716475E0,-4.226929E0,3.0523545E-1,6.273475E0,3.1515198E0,5.752601E0,-3.241918E0,2.4295373E-1,5.010749E0,6.9980574E0,5.5132127E0,1.012284E1,-2.8575215E-1,-1.0273212E-1,1.1199061E-1,-2.396488E-1,-6.769723E-2,9.176836E-2,-1.9327566E-1,1.4109867E-2,-1.7678748E-1,-1.17339045E-2,-1.2505643E-1,-8.331305E-2,-6.671793E-2,-1.5789317E-1,-3.958564E-2,1.6789602E-2,-9.040339E-2,4.965599E-3,4.496894E-2,1.0907133E-1,7.82174E-2,-7.575024E-3,-2.8703302E-1,1.2008264E-1,1.681765E-1,2.6726347E-1,-1.0166693E-1,1.2756722E-1,1.5314901E-1,2.1119542E-1,2.8843269E-2,-4.6595785E-1,1.6381544E-1,-1.3710734E-1,3.241643E-1,-1.3689856E-1,1.2499475E-1,2.9434314E-1,3.2043535E-1,7.966811E-2,-2.3457079E-1,1.3351898E-1,2.5911963E-1,-5.61122E-2,5.353408E-2,3.535461E-1,2.9911354E-1,-1.3332187E-1,5.138474E-1,2.5977114E-1],"categories":[],"categories_nodes":[],"categories_segments":[],"categories_sizes":[],"default_left":[0,0,0,0,0,0,0,0,0,0,0,0,0,0,0,0,0,0,0,0,0,0,0,0,0,0,0,0,0,0,0,0,0,0,0,0,0,0,0,0,0,0,0,0,0,0,0,0,0,0,0,0,0,0,0,0,0,0,0,0,0,0,0,0,0,0,0,0,0,0,0,0,0,0,0,0,0,0,0,0,0,0,0,0,0,0,0,0,0,0,0,0,0,0,0,0,0,0,0,0,0,0,0,0,0,0,0,0,0,0,0],"id":3,"left_children":[1,3,5,7,9,11,13,15,17,19,21,23,25,27,29,31,33,35,37,39,41,43,-1,45,47,49,51,53,55,57,59,61,-1,-1,-1,63,65,67,69,-1,71,73,75,77,79,81,83,85,87,89,91,93,95,97,99,101,-1,103,105,107,109,-1,-1,-1,-1,-1,-1,-1,-1,-1,-1,-1,-1,-1,-1,-1,-1,-1,-1,-1,-1,-1,-1,-1,-1,-1,-1,-1,-1,-1,-1,-1,-1,-1,-1,-1,-1,-1,-1,-1,-1,-1,-1,-1,-1,-1,-1,-1,-1,-1,-1],"loss_changes":[6.685817E4,1.6918383E4,9.849699E3,7.675E2,1.361575E3,7.7748926E2,2.5503516E3,9.20293E1,1.699336E2,4.2555054E2,9.102225E2,3.4802393E2,2.2343799E2,4.1041992E2,1.3091016E3,1.2333984E1,1.5594476E2,8.4612305E1,7.719458E1,9.736548E1,1.8028424E2,3.060069E2,0E0,1.6029541E2,1.1879834E2,2.337627E2,1.8997388E2,3.135337E2,2.621938E2,1.6610547E2,1.0048125E3,7.5E0,0E0,0E0,0E0,7.57207E1,1.4302353E1,3.6356445E1,9.042056E1,0E0,7.8586914E1,6.79975E1,1.0211319E2,1.856476E2,7.421176E1,8.871869E1,1.9193188E2,7.69397E1,8.3765045E1,9.966992E1,1.0322395E2,7.236209E1,1.25520996E2,1.4035382E2,3.0361206E2,1.1536618E2,0E0,9.003125E1,5.7213867E1,2.4999194E2,1.964375E2,0E0,0E0,0E0,0E0,0E0,0E0,0E0,0E0,0E0,0E0,0E0,0E0,0E0,0E0,0E0,0E0,0E0,0E0,0E0,0E0,0E0,0E0,0E0,0E0,0E0,0E0,0E0,0E0,0E0,0E0,0E0,0E0,0E0,0E0,0E0,0E0,0E0,0E0,0E0,0E0,0E0,0E0,0E0,0E0,0E0,0E0,0E0,0E0,0E0,0E0],"parents":[2147483647,0,0,1,1,2,2,3,3,4,4,5,5,6,6,7,7,8,8,9,9,10,10,11,11,12,12,13,13,14,14,15,15,16,16,17,17,18,18,19,19,20,20,21,21,23,23,24,24,25,25,26,26,27,27,28,28,29,29,30,30,31,31,35,35,36,36,37,37,38,38,40,40,41,41,42,42,43,43,44,44,45,45,46,46,47,47,48,48,49,49,50,50,51,51,52,52,53,53,54,54,55,55,57,57,58,58,59,59,60,60],"right_children":[2,4,6,8,10,12,14,16,18,20,22,24,26,28,30,32,34,36,38,40,42,44,-1,46,48,50,52,54,56,58,60,62,-1,-1,-1,64,66,68,70,-1,72,74,76,78,80,82,84,86,88,90,92,94,96,98,100,102,-1,104,106,108,110,-1,-1,-1,-1,-1,-1,-1,-1,-1,-1,-1,-1,-1,-1,-1,-1,-1,-1,-1,-1,-1,-1,-1,-1,-1,-1,-1,-1,-1,-1,-1,-1,-1,-1,-1,-1,-1,-1,-1,-1,-1,-1,-1,-1,-1,-1,-1,-1,-1,-1],"split_conditions":[8.663358E0,3.1464684E0,1.3899293E1,3.5680002E-1,6.6071076E0,1.1537178E1,1.49E1,4.656573E1,1.5963581E0,4.7949576E0,4.656573E1,9.659258E-1,8.660254E-1,4E0,1.7617918E1,1.6028906E1,1.2628876E0,1.35E1,9.618771E0,2.4E1,5.8896213E0,8.660254E-1,-1.0540947E0,8.544722E0,1E1,3.7401615E1,4.8436055E0,4.7723637E0,3.2E0,-5E-1,8.792398E0,4.656573E1,-4.8423793E-2,-9.0455055E-1,-2.17606E-1,-4.2E0,6.6960273E0,1.8862566E1,5.6324587E0,2.49884E-1,6.206992E0,1.093533E1,9.659258E-1,2.2E0,1.4124631E0,8.250749E0,7.218126E-2,7E0,2.3755984E0,1.0120704E1,6.588681E-1,5.0549564E0,3.9870403E1,5.442133E0,7.5691648E0,1.3318135E1,2.4295373E-1,3.1647978E1,4.4571934E0,1.1853894E1,8.5E0,-2.8575215E-1,-1.0273212E-1,1.1199061E-1,-2.396488E-1,-6.769723E-2,9.176836E-2,-1.9327566E-1,1.4109867E-2,-1.7678748E-1,-1.17339045E-2,-1.2505643E-1,-8.331305E-2,-6.671793E-2,-1.5789317E-1,-3.958564E-2,1.6789602E-2,-9.040339E-2,4.965599E-3,4.496894E-2,1.0907133E-1,7.82174E-2,-7.575024E-3,-2.8703302E-1,1.2008264E-1,1.681765E-1,2.6726347E-1,-1.0166693E-1,1.2756722E-1,1.5314901E-1,2.1119542E-1,2.8843269E-2,-4.6595785E-1,1.6381544E-1,-1.3710734E-1,3.241643E-1,-1.3689856E-1,1.2499475E-1,2.9434314E-1,3.2043535E-1,7.966811E-2,-2.3457079E-1,1.3351898E-1,2.5911963E-1,-5.61122E-2,5.353408E-2,3.535461E-1,2.9911354E-1,-1.3332187E-1,5.138474E-1,2.5977114E-1],"split_indices":[0,0,0,0,0,0,66,42,0,0,42,61,61,56,0,54,4,66,16,62,14,61,0,17,64,11,32,37,67,61,14,4,0,0,0,66,2,19,32,0,14,24,61,66,55,16,20,59,21,16,2,34,17,5,53,19,0,44,34,32,67,0,0,0,0,0,0,0,0,0,0,0,0,0,0,0,0,0,0,0,0,0,0,0,0,0,0,0,0,0,0,0,0,0,0,0,0,0,0,0,0,0,0,0,0,0,0,0,0,0,0],"split_type":[0,0,0,0,0,0,0,0,0,0,0,0,0,0,0,0,0,0,0,0,0,0,0,0,0,0,0,0,0,0,0,0,0,0,0,0,0,0,0,0,0,0,0,0,0,0,0,0,0,0,0,0,0,0,0,0,0,0,0,0,0,0,0,0,0,0,0,0,0,0,0,0,0,0,0,0,0,0,0,0,0,0,0,0,0,0,0,0,0,0,0,0,0,0,0,0,0,0,0,0,0,0,0,0,0,0,0,0,0,0,0],"sum_hessian":[5.885E3,3.838E3,2.047E3,1.491E3,2.347E3,1.215E3,8.32E2,8.41E2,6.5E2,1.51E3,8.37E2,8.16E2,3.99E2,2.16E2,6.16E2,8.37E2,4E0,3.82E2,2.68E2,4.89E2,1.021E3,8.36E2,1E0,6.93E2,1.23E2,3.37E2,6.2E1,2E2,1.6E1,2.28E2,3.88E2,8.36E2,1E0,1E0,3E0,3.77E2,5E0,2.35E2,3.3E1,1E0,4.88E2,5.08E2,5.13E2,6.29E2,2.07E2,2.87E2,4.06E2,9.6E1,2.7E1,3.34E2,3E0,6E0,5.6E1,8.6E1,1.14E2,1.1E1,5E0,7.9E1,1.49E2,6E1,3.28E2,8.34E2,2E0,1E0,3.76E2,4E0,1E0,2.33E2,2E0,1.8E1,1.5E1,2.83E2,2.05E2,4.87E2,2.1E1,4.14E2,9.9E1,5.5E1,5.74E2,1.39E2,6.8E1,2.53E2,3.4E1,2E0,4.04E2,5.3E1,4.3E1,4E0,2.3E1,1.62E2,1.72E2,2E0,1E0,3E0,3E0,5.5E1,1E0,7.1E1,1.5E1,9.8E1,1.6E1,9E0,2E0,7.7E1,2E0,2E0,1.47E2,5.7E1,3E0,3.17E2,1.1E1],"tree_param":{"num_deleted":"0","num_feature":"68","num_nodes":"111","size_leaf_vector":"1"}},{"base_weights":[-1.2731854E-2,-2.3748295E0,4.3969073E0,-4.7411385E0,-6.671249E-1,2.648735E0,7.000016E0,-5.2230268E0,-3.4937565E0,-1.1382991E0,2.8315017E-1,2.0220847E0,3.87596E0,4.85719E0,8.219883E0,-5.49432E0,-4.620791E0,-3.0111983E0,-4.035792E0,-1.5138148E0,-7.081951E-1,3.337004E-1,-1.22128935E1,1.6779565E0,3.115001E0,3.9710956E0,-2.2227812E0,5.074695E0,-2.7634835E0,6.8277946E0,9.539203E0,-5.4545608E0,-1.1953359E1,-4.7319674E0,-3.7250464E0,-1.6563189E0,-3.37329E0,-4.2669926E0,-2.9522924E0,-1.920986E0,-1.1943467E0,-1.0941999E0,-2.8285187E-1,-1.5730596E-1,9.79606E-1,1.117752E-1,-1.0277423E0,1.7316327E0,-7.047941E0,2.5217886E0,4.1298084E0,3.541882E0,5.160535E0,2.20114E0,-6.091007E0,5.788594E0,2.5802221E0,2.1524642E0,-6.656434E-1,4.7022066E0,7.2912517E0,1.0099817E1,5.6769495E0,-2.7368847E-1,-1.0193845E-1,-7.7146834E-1,-3.8133383E-2,-5.6577194E-2,-2.3754966E-1,-8.0348454E-2,-2.1049638E-1,6.65712E-3,-1.2168693E-1,-1.9088946E-1,-1.3430445E-1,-2.1804069E-1,-1.05205335E-1,-1.6705583E-1,-6.2088717E-2,-9.0550885E-2,-3.17726E-1,-7.78935E-2,-3.9918315E-2,2.4363689E-1,-5.6203067E-2,-8.580217E-3,-1.0048666E-1,-5.8223344E-2,6.8789474E-3,3.5972435E-2,8.537638E-2,1.5262892E-2,9.668548E-2,-8.215561E-1,7.7841304E-2,8.872286E-2,1.446021E-1,1.041294E-1,2.3022123E-1,1.8210803E-1,-1.0144593E-1,2.6908633E-1,1.3804983E-1,1.2838243E-1,2.7540326E-2,-4.057644E-1,-1.3555755E-1,6.7100756E-2,3.082566E-1,2.226864E-1,2.5749093E-2,1.9572414E-1,-7.508608E-2,2.4439783E-1,-1.05345E-1,3.1309953E-1,4.0356627E-1,5.130144E-1,1.1860663E-1,1.3788539E-1,3.704649E-1],"categories":[],"categories_nodes":[],"categories_segments":[],"categories_sizes":[],"default_left":[0,0,0,0,0,0,0,0,0,0,0,0,0,0,0,0,0,0,0,0,0,0,0,0,0,0,0,0,0,0,0,0,0,0,0,0,0,0,0,0,0,0,0,0,0,0,0,0,0,0,0,0,0,0,0,0,0,0,0,0,0,0,0,0,0,0,0,0,0,0,0,0,0,0,0,0,0,0,0,0,0,0,0,0,0,0,0,0,0,0,0,0,0,0,0,0,0,0,0,0,0,0,0,0,0,0,0,0,0,0,0,0,0,0,0,0,0,0,0,0,0],"id":4,"left_children":[1,3,5,7,9,11,13,15,17,19,21,23,25,27,29,31,33,35,37,39,41,43,45,47,49,51,53,55,57,59,61,63,65,67,69,71,73,75,77,79,81,83,85,87,89,-1,-1,91,93,95,97,99,101,103,105,107,109,111,-1,113,115,117,119,-1,-1,-1,-1,-1,-1,-1,-1,-1,-1,-1,-1,-1,-1,-1,-1,-1,-1,-1,-1,-1,-1,-1,-1,-1,-1,-1,-1,-1,-1,-1,-1,-1,-1,-1,-1,-1,-1,-1,-1,-1,-1,-1,-1,-1,-1,-1,-1,-1,-1,-1,-1,-1,-1,-1,-1,-1,-1],"loss_changes":[6.1214844E4,1.546158E4,9.310359E3,9.4591016E2,9.961074E2,9.3654395E2,2.1113633E3,1.6331836E2,1.0555127E2,2.3909436E2,4.702538E2,3.012976E2,2.4903223E2,5.129404E2,8.9541406E2,1.379375E2,1.8722656E1,1.131355E2,3.9758545E1,1.00857666E2,1.1379874E2,2.335719E2,4.075339E2,3.0353308E2,1.0637268E2,1.9001611E2,1.3319623E2,5.0683936E2,4.953974E2,2.19875E2,5.186172E2,4.054297E1,1.4382825E2,1.6612793E1,3.945044E1,7.405563E1,4.7782715E1,2.532129E1,2.2454712E1,1.5767114E2,6.3101074E1,7.033511E1,6.3436066E1,1.24601776E2,5.8992462E1,0E0,0E0,1.7782849E2,3.485407E2,2.9455933E1,5.8425903E1,1.766543E2,4.140161E1,1.0051689E0,5.365341E0,3.7179346E2,2.5694547E2,5.0949665E1,0E0,7.227319E1,1.1806641E2,2.621172E2,1.6162451E2,0E0,0E0,0E0,0E0,0E0,0E0,0E0,0E0,0E0,0E0,0E0,0E0,0E0,0E0,0E0,0E0,0E0,0E0,0E0,0E0,0E0,0E0,0E0,0E0,0E0,0E0,0E0,0E0,0E0,0E0,0E0,0E0,0E0,0E0,0E0,0E0,0E0,0E0,0E0,0E0,0E0,0E0,0E0,0E0,0E0,0E0,0E0,0E0,0E0,0E0,0E0,0E0,0E0,0E0,0E0,0E0,0E0,0E0],"parents":[2147483647,0,0,1,1,2,2,3,3,4,4,5,5,6,6,7,7,8,8,9,9,10,10,11,11,12,12,13,13,14,14,15,15,16,16,17,17,18,18,19,19,20,20,21,21,22,22,23,23,24,24,25,25,26,26,27,27,28,28,29,29,30,30,31,31,32,32,33,33,34,34,35,35,36,36,37,37,38,38,39,39,40,40,41,41,42,42,43,43,44,44,47,47,48,48,49,49,50,50,51,51,52,52,53,53,54,54,55,55,56,56,57,57,59,59,60,60,61,61,62,62],"right_children":[2,4,6,8,10,12,14,16,18,20,22,24,26,28,30,32,34,36,38,40,42,44,46,48,50,52,54,56,58,60,62,64,66,68,70,72,74,76,78,80,82,84,86,88,90,-1,-1,92,94,96,98,100,102,104,106,108,110,112,-1,114,116,118,120,-1,-1,-1,-1,-1,-1,-1,-1,-1,-1,-1,-1,-1,-1,-1,-1,-1,-1,-1,-1,-1,-1,-1,-1,-1,-1,-1,-1,-1,-1,-1,-1,-1,-1,-1,-1,-1,-1,-1,-1,-1,-1,-1,-1,-1,-1,-1,-1,-1,-1,-1,-1,-1,-1,-1,-1,-1,-1],"split_conditions":[8.583692E0,3.7998166E0,1.4041287E1,1.2628876E0,6.817366E0,1.1537178E1,9.77801E0,7.218126E-2,2.5881904E-1,5.9401145E0,4.656573E1,1.2520479E1,4.2873283E1,1.3502304E1,1.9786867E1,2.645264E1,1.0209352E1,8E0,1.0120704E1,5.6964617E0,5.723655E0,7.3109064E0,7.7964706E0,4.656573E1,1.5629645E1,1.4711288E1,6.8742313E0,-5E-1,8.076386E0,6.3471737E0,1.6E1,4.2873283E1,1.3458513E0,2.0841067E0,5.1069007E0,1.049308E0,2.7479796E0,8.250749E0,7.3991175E0,8.349791E0,5.3430257E0,2.4E1,1.1796637E1,1.711754E0,1.4522105E1,1.117752E-1,-1.0277423E0,2.1371763E0,7.2972884E0,1.195552E1,1.5072727E1,1.8576899E1,1.2915244E1,3.1647978E1,1.267582E1,2.2716105E0,5.8403144E0,4.2873283E1,-6.656434E-1,1.4325248E1,1.6364786E1,1.7764236E1,1.0120704E1,-2.7368847E-1,-1.0193845E-1,-7.7146834E-1,-3.8133383E-2,-5.6577194E-2,-2.3754966E-1,-8.0348454E-2,-2.1049638E-1,6.65712E-3,-1.2168693E-1,-1.9088946E-1,-1.3430445E-1,-2.1804069E-1,-1.05205335E-1,-1.6705583E-1,-6.2088717E-2,-9.0550885E-2,-3.17726E-1,-7.78935E-2,-3.9918315E-2,2.4363689E-1,-5.6203067E-2,-8.580217E-3,-1.0048666E-1,-5.8223344E-2,6.8789474E-3,3.5972435E-2,8.537638E-2,1.5262892E-2,9.668548E-2,-8.215561E-1,7.7841304E-2,8.872286E-2,1.446021E-1,1.041294E-1,2.3022123E-1,1.8210803E-1,-1.0144593E-1,2.6908633E-1,1.3804983E-1,1.2838243E-1,2.7540326E-2,-4.057644E-1,-1.3555755E-1,6.7100756E-2,3.082566E-1,2.226864E-1,2.5749093E-2,1.9572414E-1,-7.508608E-2,2.4439783E-1,-1.05345E-1,3.1309953E-1,4.0356627E-1,5.130144E-1,1.1860663E-1,1.3788539E-1,3.704649E-1],"split_indices":[0,0,0,0,0,0,50,0,60,17,42,40,13,51,0,16,10,59,10,50,0,16,0,16,15,16,2,60,5,37,59,38,3,53,50,2,0,19,17,1,0,62,24,38,15,0,0,40,1,43,12,11,54,1,0,42,55,0,0,6,0,50,14,0,0,0,0,0,0,0,0,0,0,0,0,0,0,0,0,0,0,0,0,0,0,0,0,0,0,0,0,0,0,0,0,0,0,0,0,0,0,0,0,0,0,0,0,0,0,0,0,0,0,0,0,0,0,0,0,0,0],"split_type":[0,0,0,0,0,0,0,0,0,0,0,0,0,0,0,0,0,0,0,0,0,0,0,0,0,0,0,0,0,0,0,0,0,0,0,0,0,0,0,0,0,0,0,0,0,0,0,0,0,0,0,0,0,0,0,0,0,0,0,0,0,0,0,0,0,0,0,0,0,0,0,0,0,0,0,0,0,0,0,0,0,0,0,0,0,0,0,0,0,0,0,0,0,0,0,0,0,0,0,0,0,0,0,0,0,0,0,0,0,0,0,0,0,0,0,0,0,0,0,0,0],"sum_hessian":[5.875E3,3.826E3,2.049E3,1.603E3,2.223E3,1.227E3,8.22E2,1.154E3,4.49E2,1.486E3,7.37E2,8.14E2,4.13E2,3E2,5.22E2,7.9E2,3.64E2,2.41E2,2.08E2,7.92E2,6.94E2,7.35E2,2E0,6.21E2,1.93E2,4.07E2,6E0,2.92E2,8E0,2.57E2,2.65E2,7.87E2,3E0,3.2E2,4.4E1,5.2E1,1.89E2,1.69E2,3.9E1,3.46E2,4.46E2,3.63E2,3.31E2,4.18E2,3.17E2,1E0,1E0,6.18E2,3E0,1.24E2,6.9E1,3.02E2,1.05E2,3E0,3E0,2.26E2,6.6E1,6E0,2E0,4.8E1,2.09E2,2.3E2,3.5E1,7.82E2,5E0,2E0,1E0,2E0,3.18E2,9E0,3.5E1,1.6E1,3.6E1,1.12E2,7.7E1,1.61E2,8E0,3.1E1,8E0,3.39E2,7E0,2.31E2,2.15E2,1E0,3.62E2,3.12E2,1.9E1,9.4E1,3.24E2,2.35E2,8.2E1,7.7E1,5.41E2,1E0,2E0,4.3E1,8.1E1,1.4E1,5.5E1,2.97E2,5E0,9.5E1,1E1,2E0,1E0,1E0,2E0,1.8E1,2.08E2,3.4E1,3.2E1,4E0,2E0,4.7E1,1E0,9.4E1,1.15E2,2.25E2,5E0,1.4E1,2.1E1],"tree_param":{"num_deleted":"0","num_feature":"68","num_nodes":"121","size_leaf_vector":"1"}},{"base_weights":[-3.358263E-3,-2.2118835E0,4.112922E0,-4.526945E0,-6.645244E-1,2.4276638E0,6.4351444E0,-4.873278E0,-3.1370502E0,-1.129862E0,3.0894947E-1,1.8678116E0,3.5246172E0,4.274911E0,7.612128E0,-5.178531E0,-4.327132E0,-3.3822696E0,-2.0406578E0,-1.7732526E0,-7.8289133E-1,3.5896774E-2,1.1706191E0,1.6201957E0,3.2825167E0,3.590636E0,-6.4527736E0,4.8833747E0,-3.1540945E-2,5.9753256E0,8.560397E0,-5.14153E0,-9.107086E0,-4.372547E0,-1.636148E0,-3.1425173E0,-4.4689193E0,-7.095311E-1,-2.5625534E0,-1.7944204E0,2.4302088E-1,-9.392047E-1,4.093406E-1,-1.91252E-1,7.55494E-1,1.3707944E0,-6.069641E0,1.6478378E0,-4.2595443E-1,3.5628455E0,-5.5274873E0,3.3074234E0,5.6982417E0,-3.9562026E-1,-8.833777E-2,6.117405E-1,5.2055717E0,8.5428107E-1,-7.9960537E0,4.8211455E0,6.6447754E0,9.241604E0,6.5422015E0,-2.586611E-1,-1.6554342E-1,-7.457527E-1,-1.2371697E-1,-2.1632507E-1,-4.1434512E-1,6.328078E-2,-1.6489828E-1,-1.6305794E-1,-6.285363E-2,-1.5465346E-1,-2.450865E-1,-8.477077E-2,2.323663E-2,-9.706931E-2,-1.8331088E-1,-9.076311E-2,2.3754597E-1,-4.4190746E-2,-1.281391E-1,6.9654696E-2,-2.990123E-2,-2.8629636E-2,1.1597305E-2,1.5341358E-1,2.7379444E-2,5.1831044E-2,1.2945774E-1,1.2167177E-1,-1.0020487E0,6.7829035E-2,1.17891066E-1,1.2544148E-1,2.3856552E-1,-8.010172E-1,1.6551231E-1,1.6911505E-1,-2.0543256E-1,4.7023352E-2,3.1277603E-1,-7.1453854E-2,1.6324298E-1,2.8461072E-1,1.491289E-1,-2.6311234E-2,1.6685966E-1,-6.4345527E-1,1.6557752E-1,2.4661997E-1,-9.919744E-2,-1.0271138E-1,3.3643925E-1,4.692652E-1,7.970586E-2,3.3995602E-1,-1.6730474E-1],"categories":[],"categories_nodes":[],"categories_segments":[],"categories_sizes":[],"default_left":[0,0,0,0,0,0,0,0,0,0,0,0,0,0,0,0,0,0,0,0,0,0,0,0,0,0,0,0,0,0,0,0,0,0,0,0,0,0,0,0,0,0,0,0,0,0,0,0,0,0,0,0,0,0,0,0,0,0,0,0,0,0,0,0,0,0,0,0,0,0,0,0,0,0,0,0,0,0,0,0,0,0,0,0,0,0,0,0,0,0,0,0,0,0,0,0,0,0,0,0,0,0,0,0,0,0,0,0,0,0,0,0,0,0,0,0,0,0,0],"id":5,"left_children":[1,3,5,7,9,11,13,15,17,19,21,23,25,27,29,31,33,35,37,39,41,43,45,47,49,51,53,55,57,59,61,63,65,67,69,71,73,75,77,79,-1,81,83,85,87,89,91,93,-1,95,97,99,101,-1,-1,103,105,107,109,111,113,115,117,-1,-1,-1,-1,-1,-1,-1,-1,-1,-1,-1,-1,-1,-1,-1,-1,-1,-1,-1,-1,-1,-1,-1,-1,-1,-1,-1,-1,-1,-1,-1,-1,-1,-1,-1,-1,-1,-1,-1,-1,-1,-1,-1,-1,-1,-1,-1,-1,-1,-1,-1,-1,-1,-1,-1,-1],"loss_changes":[5.3527277E4,1.3724102E4,8.030633E3,7.236133E2,1.0413292E3,7.260762E2,2.1642305E3,1.8214648E2,7.6174805E1,3.4574634E2,1.750072E2,2.7212158E2,2.8796533E2,8.045918E2,8.1493555E2,6.684766E1,4.7351562E1,5.1348633E1,3.9169617E1,8.5109985E1,1.8898254E2,9.266038E1,2.6774878E2,2.0350098E2,3.0864856E2,2.1991406E2,6.5402985E0,3.6704248E2,2.8198138E2,1.2867871E2,4.2209766E2,2.7951172E1,1.9423175E2,4.3091797E1,4.7573776E1,4.2651855E1,1.0444397E1,2.16263E1,2.1675995E1,8.269849E1,0E0,7.8222046E1,1.17770966E2,6.968875E1,6.371386E1,6.856616E1,6.427649E2,1.3638306E2,0E0,1.3323608E2,4.2396356E2,2.1102686E2,1.16081665E2,0E0,0E0,1.1295637E2,2.5347266E2,1.2515239E2,2.630268E2,7.035303E1,1.080957E2,2.7076367E2,2.5647583E2,0E0,0E0,0E0,0E0,0E0,0E0,0E0,0E0,0E0,0E0,0E0,0E0,0E0,0E0,0E0,0E0,0E0,0E0,0E0,0E0,0E0,0E0,0E0,0E0,0E0,0E0,0E0,0E0,0E0,0E0,0E0,0E0,0E0,0E0,0E0,0E0,0E0,0E0,0E0,0E0,0E0,0E0,0E0,0E0,0E0,0E0,0E0,0E0,0E0,0E0,0E0,0E0,0E0,0E0,0E0,0E0],"parents":[2147483647,0,0,1,1,2,2,3,3,4,4,5,5,6,6,7,7,8,8,9,9,10,10,11,11,12,12,13,13,14,14,15,15,16,16,17,17,18,18,19,19,20,20,21,21,22,22,23,23,24,24,25,25,26,26,27,27,28,28,29,29,30,30,31,31,32,32,33,33,34,34,35,35,36,36,37,37,38,38,39,39,41,41,42,42,43,43,44,44,45,45,46,46,47,47,49,49,50,50,51,51,52,52,55,55,56,56,57,57,58,58,59,59,60,60,61,61,62,62],"right_children":[2,4,6,8,10,12,14,16,18,20,22,24,26,28,30,32,34,36,38,40,42,44,46,48,50,52,54,56,58,60,62,64,66,68,70,72,74,76,78,80,-1,82,84,86,88,90,92,94,-1,96,98,100,102,-1,-1,104,106,108,110,112,114,116,118,-1,-1,-1,-1,-1,-1,-1,-1,-1,-1,-1,-1,-1,-1,-1,-1,-1,-1,-1,-1,-1,-1,-1,-1,-1,-1,-1,-1,-1,-1,-1,-1,-1,-1,-1,-1,-1,-1,-1,-1,-1,-1,-1,-1,-1,-1,-1,-1,-1,-1,-1,-1,-1,-1,-1,-1],"split_conditions":[8.663358E0,3.3308594E0,1.3744706E1,1.5963581E0,6.817366E0,1.1537178E1,9.504317E0,7.218126E-2,8.685502E0,4.9425316E0,8.660254E-1,9.659258E-1,4.656573E1,2.645264E1,1.7617918E1,2.645264E1,8.2E0,4.422355E0,6.588681E-1,3.7401615E1,9.659258E-1,9.292823E0,2.1443552E1,4.2873283E1,4.656573E1,8.660254E-1,1.267582E1,2.2468383E0,8.076386E0,-5E-1,1.5E1,8.755368E0,7.714082E0,2.1910446E1,7.218126E-2,9.303179E0,-8.660254E-1,1.127815E0,6.1508594E0,3.7828686E1,2.4302088E-1,1.1630319E1,5E0,8.568223E0,1.049308E0,1.1046111E1,8.292587E0,1.2179344E1,-4.2595443E-1,7E0,1.0193727E1,3.7401615E1,4.8436055E0,-3.9562026E-1,-8.833777E-2,1E1,7.045647E0,1.5629645E1,5.2255006E0,3.585262E1,1.9928793E0,1.7764236E1,4.2873283E1,-2.586611E-1,-1.6554342E-1,-7.457527E-1,-1.2371697E-1,-2.1632507E-1,-4.1434512E-1,6.328078E-2,-1.6489828E-1,-1.6305794E-1,-6.285363E-2,-1.5465346E-1,-2.450865E-1,-8.477077E-2,2.323663E-2,-9.706931E-2,-1.8331088E-1,-9.076311E-2,2.3754597E-1,-4.4190746E-2,-1.281391E-1,6.9654696E-2,-2.990123E-2,-2.8629636E-2,1.1597305E-2,1.5341358E-1,2.7379444E-2,5.1831044E-2,1.2945774E-1,1.2167177E-1,-1.0020487E0,6.7829035E-2,1.17891066E-1,1.2544148E-1,2.3856552E-1,-8.010172E-1,1.6551231E-1,1.6911505E-1,-2.0543256E-1,4.7023352E-2,3.1277603E-1,-7.1453854E-2,1.6324298E-1,2.8461072E-1,1.491289E-1,-2.6311234E-2,1.6685966E-1,-6.4345527E-1,1.6557752E-1,2.4661997E-1,-9.919744E-2,-1.0271138E-1,3.3643925E-1,4.692652E-1,7.970586E-2,3.3995602E-1,-1.6730474E-1],"split_indices":[0,0,0,0,0,0,50,0,14,0,61,61,13,1,0,16,67,1,47,26,61,18,17,17,16,61,0,13,5,61,59,50,7,14,3,9,61,52,21,9,0,13,56,50,46,17,0,43,0,59,0,11,32,0,0,64,53,19,3,44,36,50,0,0,0,0,0,0,0,0,0,0,0,0,0,0,0,0,0,0,0,0,0,0,0,0,0,0,0,0,0,0,0,0,0,0,0,0,0,0,0,0,0,0,0,0,0,0,0,0,0,0,0,0,0,0,0,0,0],"split_type":[0,0,0,0,0,0,0,0,0,0,0,0,0,0,0,0,0,0,0,0,0,0,0,0,0,0,0,0,0,0,0,0,0,0,0,0,0,0,0,0,0,0,0,0,0,0,0,0,0,0,0,0,0,0,0,0,0,0,0,0,0,0,0,0,0,0,0,0,0,0,0,0,0,0,0,0,0,0,0,0,0,0,0,0,0,0,0,0,0,0,0,0,0,0,0,0,0,0,0,0,0,0,0,0,0,0,0,0,0,0,0,0,0,0,0,0,0,0,0],"sum_hessian":[5.886E3,3.831E3,2.055E3,1.534E3,2.297E3,1.192E3,8.63E2,1.226E3,3.08E2,1.554E3,7.43E2,7.91E2,4.01E2,3.06E2,5.57E2,7.81E2,4.45E2,2.5E2,5.8E1,5.43E2,1.011E3,5.65E2,1.78E2,6.75E2,1.16E2,3.99E2,2E0,2.68E2,3.8E1,2.07E2,3.5E2,7.76E2,5E0,4.37E2,8E0,2.08E2,4.2E1,1.7E1,4.1E1,5.42E2,1E0,8.94E2,1.17E2,4.3E2,1.35E2,1.74E2,4E0,6.74E2,1E0,1.13E2,3E0,3.54E2,4.5E1,1E0,1E0,1.9E1,2.49E2,3.5E1,3E0,7.9E1,1.28E2,2.59E2,9.1E1,7.61E2,1.5E1,2E0,3E0,4.34E2,3E0,3E0,5E0,1.95E2,1.3E1,1.2E1,3E1,9E0,8E0,2.8E1,1.3E1,5.41E2,1E0,8.66E2,2.8E1,5.9E1,5.8E1,2.26E2,2.04E2,1E1,1.25E2,1.38E2,3.6E1,3E0,1E0,4.8E2,1.94E2,6.2E1,5.1E1,1E0,2E0,3.51E2,3E0,5E0,4E1,1.1E1,8E0,2.03E2,4.6E1,2.3E1,1.2E1,2E0,1E0,7.8E1,1E0,1E0,1.27E2,2.54E2,5E0,8.9E1,2E0],"tree_param":{"num_deleted":"0","num_feature":"68","num_nodes":"119","size_leaf_vector":"1"}},{"base_weights":[-4.869843E-3,-2.093513E0,3.8929095E0,-4.422982E0,-6.728927E-1,2.3953323E0,6.1827545E0,-4.787259E0,-3.5933971E0,-1.36149E0,-6.2220898E-2,1.7324445E0,3.3861568E0,3.4320543E0,7.139981E0,-4.8021045E0,1.0601151E-1,-3.528727E0,-7.726185E0,-1.8196135E0,-9.516118E-1,-2.4188928E-1,1.0333972E0,1.7676299E0,-5.2011666E0,2.9305787E0,4.5519295E0,3.8066792E0,-1.6918483E0,7.750075E0,4.675891E0,-4.9232817E0,-4.2888584E0,1.7265402E-1,-2.1607049E0,-3.7411137E0,-2.1769395E0,-4.680121E-1,-1.4860237E-1,-1.8412147E0,2.3694535E-1,-1.0496813E0,7.882123E-1,-1.0186622E0,-5.189188E-2,3.5518983E-1,1.8896452E0,1.3874902E0,2.4794269E0,-7.809918E-1,1.7391676E-1,3.0343595E0,-1.4309615E0,1.8917383E0,4.9130254E0,2.3302789E0,4.6831E0,-4.119841E0,3.9881055E0,6.652975E0,8.679107E0,1.9639486E0,5.1307554E0,-2.4513994E-1,-4.361926E-1,-2.241218E-1,-1.629636E-1,-1.3661984E-1,-2.543304E-2,1.1937121E-1,-1.8818513E-1,-1.5230733E-1,-3.3688623E-2,-1.033914E-1,-5.397066E-2,-3.120176E-2,-6.312717E-2,9.600622E-2,-9.941868E-3,-3.494231E-2,-1.2813975E-1,-1.5680147E-2,2.6135808E-2,-8.13851E-2,3.7613045E-2,-5.4201264E-2,1.0540855E-1,7.123783E-2,-4.1530558E-1,1.0221147E-1,1.7322856E-1,1.15556195E-1,1.6454475E-1,1.5940854E-2,-3.8572976E-1,1.4886354E-1,-1.3259712E-1,2.5049394E-1,-2.6710987E-2,1.632812E-1,-1.704302E-1,5.1459968E-2,2.760795E-1,-1.339524E-1,-4.6319437E-1,2.3318394E-1,3.2145333E-2,3.0146137E-1,4.1617385E-1,2.1113308E-1,4.499877E-1,1.3476837E-1,-1.4177033E-1,2.6340663E-1,-6.022684E-2],"categories":[],"categories_nodes":[],"categories_segments":[],"categories_sizes":[],"default_left":[0,0,0,0,0,0,0,0,0,0,0,0,0,0,0,0,0,0,0,0,0,0,0,0,0,0,0,0,0,0,0,0,0,0,0,0,0,0,0,0,0,0,0,0,0,0,0,0,0,0,0,0,0,0,0,0,0,0,0,0,0,0,0,0,0,0,0,0,0,0,0,0,0,0,0,0,0,0,0,0,0,0,0,0,0,0,0,0,0,0,0,0,0,0,0,0,0,0,0,0,0,0,0,0,0,0,0,0,0,0,0,0,0,0,0],"id":6,"left_children":[1,3,5,7,9,11,13,15,17,19,21,23,25,27,29,31,33,35,37,39,41,43,45,47,49,51,53,55,57,59,61,63,65,-1,67,69,71,-1,-1,73,-1,75,77,79,81,83,85,87,89,-1,-1,91,93,95,97,99,101,103,105,107,109,111,113,-1,-1,-1,-1,-1,-1,-1,-1,-1,-1,-1,-1,-1,-1,-1,-1,-1,-1,-1,-1,-1,-1,-1,-1,-1,-1,-1,-1,-1,-1,-1,-1,-1,-1,-1,-1,-1,-1,-1,-1,-1,-1,-1,-1,-1,-1,-1,-1,-1,-1,-1,-1],"loss_changes":[4.7600848E4,1.2595498E4,6.980799E3,4.185664E2,9.948346E2,8.0528906E2,2.0977266E3,7.3078125E1,9.140332E1,2.0707422E2,2.4729413E2,1.9021313E2,2.4902344E2,4.0954395E2,8.6125E2,4.0828125E1,3.7808514E1,1.17893555E2,1.8792114E1,8.2961426E1,1.0132477E2,1.591912E2,1.0211516E2,1.9652026E2,4.1604648E2,1.6638892E2,1.2230591E2,2.4270093E2,2.2329369E2,4.284336E2,1.3918457E2,1.9429688E1,2.4853027E1,0E0,1.4435167E0,6.1313965E1,7.895453E1,0E0,0E0,8.8055786E1,0E0,4.9769043E1,3.6133904E1,1.02902725E2,1.3069487E2,7.9959366E1,5.2971558E1,1.8667755E2,1.02673096E2,0E0,0E0,5.7331787E1,1.01414246E2,9.667717E1,6.598657E1,4.137189E2,3.6809595E2,5.670819E1,8.301323E0,1.8217578E2,3.263789E2,7.433888E1,9.598926E1,0E0,0E0,0E0,0E0,0E0,0E0,0E0,0E0,0E0,0E0,0E0,0E0,0E0,0E0,0E0,0E0,0E0,0E0,0E0,0E0,0E0,0E0,0E0,0E0,0E0,0E0,0E0,0E0,0E0,0E0,0E0,0E0,0E0,0E0,0E0,0E0,0E0,0E0,0E0,0E0,0E0,0E0,0E0,0E0,0E0,0E0,0E0,0E0,0E0,0E0,0E0,0E0],"parents":[2147483647,0,0,1,1,2,2,3,3,4,4,5,5,6,6,7,7,8,8,9,9,10,10,11,11,12,12,13,13,14,14,15,15,16,16,17,17,18,18,19,19,20,20,21,21,22,22,23,23,24,24,25,25,26,26,27,27,28,28,29,29,30,30,31,31,32,32,34,34,35,35,36,36,39,39,41,41,42,42,43,43,44,44,45,45,46,46,47,47,48,48,51,51,52,52,53,53,54,54,55,55,56,56,57,57,58,58,59,59,60,60,61,61,62,62],"right_children":[2,4,6,8,10,12,14,16,18,20,22,24,26,28,30,32,34,36,38,40,42,44,46,48,50,52,54,56,58,60,62,64,66,-1,68,70,72,-1,-1,74,-1,76,78,80,82,84,86,88,90,-1,-1,92,94,96,98,100,102,104,106,108,110,112,114,-1,-1,-1,-1,-1,-1,-1,-1,-1,-1,-1,-1,-1,-1,-1,-1,-1,-1,-1,-1,-1,-1,-1,-1,-1,-1,-1,-1,-1,-1,-1,-1,-1,-1,-1,-1,-1,-1,-1,-1,-1,-1,-1,-1,-1,-1,-1,-1,-1,-1,-1,-1],"split_conditions":[8.663358E0,3.0161276E0,1.4202905E1,8.0007684E-1,5.8445196E0,1.1340588E1,1.49E1,4.2873283E1,1.9266275E1,4.7949576E0,1.2112449E1,1E2,1.1726506E1,4E0,1.6E1,1.6399291E-1,1.1118168E1,8.37079E0,2.2468383E0,3.585262E1,1.3452631E1,1.9132394E0,4.3388373E-1,9.765918E0,1.0193727E1,3.9870403E1,1.7071335E0,4.2844677E0,6.8789287E0,1.9786867E1,2.06E1,1.9266275E1,5.7153378E0,1.7265402E-1,7.5084352E0,-4.2E0,8.250749E0,-4.680121E-1,-1.4860237E-1,7.997419E0,2.3694535E-1,5E-1,4E0,1.1265937E1,7.6178994E0,7.008446E0,4.29214E-1,4.2873283E1,1.483316E1,-7.809918E-1,1.7391676E-1,3.3308594E0,7.3114014E0,4.2813286E-1,4.656573E1,5.281577E0,2.858874E0,3.1647978E1,8.076386E0,1.8210726E1,9.814209E0,1.8210726E1,3.1647978E1,-2.4513994E-1,-4.361926E-1,-2.241218E-1,-1.629636E-1,-1.3661984E-1,-2.543304E-2,1.1937121E-1,-1.8818513E-1,-1.5230733E-1,-3.3688623E-2,-1.033914E-1,-5.397066E-2,-3.120176E-2,-6.312717E-2,9.600622E-2,-9.941868E-3,-3.494231E-2,-1.2813975E-1,-1.5680147E-2,2.6135808E-2,-8.13851E-2,3.7613045E-2,-5.4201264E-2,1.0540855E-1,7.123783E-2,-4.1530558E-1,1.0221147E-1,1.7322856E-1,1.15556195E-1,1.6454475E-1,1.5940854E-2,-3.8572976E-1,1.4886354E-1,-1.3259712E-1,2.5049394E-1,-2.6710987E-2,1.632812E-1,-1.704302E-1,5.1459968E-2,2.760795E-1,-1.339524E-1,-4.6319437E-1,2.3318394E-1,3.2145333E-2,3.0146137E-1,4.1617385E-1,2.1113308E-1,4.499877E-1,1.3476837E-1,-1.4177033E-1,2.6340663E-1,-6.022684E-2],"split_indices":[0,0,0,0,0,0,66,38,17,0,15,62,11,56,59,0,4,16,2,26,15,38,58,10,0,13,22,37,23,0,66,17,50,0,2,66,6,0,0,15,0,60,56,52,0,6,40,17,15,0,0,33,6,26,18,38,24,16,4,40,51,27,44,0,0,0,0,0,0,0,0,0,0,0,0,0,0,0,0,0,0,0,0,0,0,0,0,0,0,0,0,0,0,0,0,0,0,0,0,0,0,0,0,0,0,0,0,0,0,0,0,0,0,0,0],"split_type":[0,0,0,0,0,0,0,0,0,0,0,0,0,0,0,0,0,0,0,0,0,0,0,0,0,0,0,0,0,0,0,0,0,0,0,0,0,0,0,0,0,0,0,0,0,0,0,0,0,0,0,0,0,0,0,0,0,0,0,0,0,0,0,0,0,0,0,0,0,0,0,0,0,0,0,0,0,0,0,0,0,0,0,0,0,0,0,0,0,0,0,0,0,0,0,0,0,0,0,0,0,0,0,0,0,0,0,0,0,0,0,0,0,0,0],"sum_hessian":[5.845E3,3.806E3,2.039E3,1.441E3,2.365E3,1.234E3,8.05E2,9.98E2,4.43E2,1.111E3,1.254E3,7.41E2,4.93E2,2.09E2,5.96E2,9.95E2,3E0,4.38E2,5E0,5.23E2,5.88E2,1.078E3,1.76E2,7.38E2,3E0,3.57E2,1.36E2,1.95E2,1.4E1,4.76E2,1.2E2,7.98E2,1.97E2,1E0,2E0,3.77E2,6.1E1,3E0,2E0,5.22E2,1E0,5.57E2,3.1E1,2.11E2,8.67E2,9.9E1,7.7E1,4.83E2,2.55E2,1E0,2E0,3.49E2,8E0,1.7E1,1.19E2,7.4E1,1.21E2,1E1,4E0,2.22E2,2.54E2,1.8E1,1.02E2,7.96E2,2E0,1.63E2,3.4E1,1E0,1E0,1E0,3.76E2,3.8E1,2.3E1,4.01E2,1.21E2,1.87E2,3.7E2,1.4E1,1.7E1,1.76E2,3.5E1,5.96E2,2.71E2,1.6E1,8.3E1,5E0,7.2E1,4.82E2,1E0,1.79E2,7.6E1,9.4E1,2.55E2,7E0,1E0,1.4E1,3E0,1.17E2,2E0,6.4E1,1E1,2.3E1,9.8E1,9E0,1E0,3E0,1E0,1.65E2,5.7E1,1.8E1,2.36E2,1.6E1,2E0,1E2,2E0],"tree_param":{"num_deleted":"0","num_feature":"68","num_nodes":"115","size_leaf_vector":"1"}},{"base_weights":[-1.1437332E-2,-1.9750384E0,3.6746097E0,-3.9886162E0,-5.3538316E-1,2.2372375E0,5.7387166E0,-4.3923764E0,-2.9679112E0,-9.0330225E-1,2.9056093E-1,1.7501204E0,3.237738E0,4.60039E0,7.139609E0,-4.594499E0,-3.9487338E0,-2.505011E0,-3.5118487E0,-1.0325468E0,1.6029613E-1,3.4736073E-1,-9.796327E-1,1.5069215E0,3.029353E0,3.3252633E0,-2.113702E0,3.4966471E0,5.6939063E0,8.6153376E-1,7.3973703E0,-4.6307945E0,-2.6802628E0,-4.08327E0,-2.6348221E0,1.6891073E-1,-2.5655897E0,-3.2761614E0,-4.425723E0,-1.4810753E0,-8.095809E-1,1.0072656E0,-8.28077E-1,1.21547766E-1,1.5343268E0,3.7660244E-1,1.6563958E0,-1.7535695E0,3.442543E0,3.034404E0,4.849019E0,2.055635E0,-5.754614E0,4.003698E0,3.664134E-1,6.0099397E0,6.79154E-1,3.7619321E0,-1.8123242E0,5.4374914E0,8.242427E0,-2.304956E-1,-4.2165285E-1,9.953228E-2,-1.9116804E-1,-1.4445888E-1,-2.085549E-1,-1.6119513E-1,-2.2195846E-2,-1.23423554E-1,-3.4153542E-1,-1.8546306E-1,-1.365161E-1,-2.3686281E-1,-6.487705E-2,2.3419209E-1,-7.5232975E-2,-3.7434552E-2,-1.2493564E-1,-1.5458943E-2,8.5726105E-2,-1.3962854E-1,-2.6780272E-2,-3.0019814E-2,1.9620758E-2,3.38185E-2,1.4126945E-1,2.8349696E-2,-2.4130185E-1,8.423242E-2,-2.3108025E-1,5.5847075E-2,-7.61467E-1,1.21646345E-1,2.2225736E-1,1.5530317E-1,-3.6306005E-2,-1.1280577E-2,2.65307E-1,1.222254E-1,2.2225428E-2,-3.760865E-1,-1.329166E-1,2.1829584E-1,4.895591E-2,4.7091294E-2,-4.6555495E-1,2.307554E-1,3.5262957E-1,-3.7447E-1,1.6727045E-1,2.2556813E-1,9.423305E-2,-1.6323505E-1,1.2588978E-4,2.8097156E-1,2.1004936E-2,7.664569E-1,4.018037E-1],"categories":[],"categories_nodes":[],"categories_segments":[],"categories_sizes":[],"default_left":[0,0,0,0,0,0,0,0,0,0,0,0,0,0,0,0,0,0,0,0,0,0,0,0,0,0,0,0,0,0,0,0,0,0,0,0,0,0,0,0,0,0,0,0,0,0,0,0,0,0,0,0,0,0,0,0,0,0,0,0,0,0,0,0,0,0,0,0,0,0,0,0,0,0,0,0,0,0,0,0,0,0,0,0,0,0,0,0,0,0,0,0,0,0,0,0,0,0,0,0,0,0,0,0,0,0,0,0,0,0,0,0,0,0,0,0,0,0,0],"id":7,"left_children":[1,3,5,7,9,11,13,15,17,19,21,23,25,27,29,31,33,35,37,39,41,43,-1,45,47,49,51,53,55,57,59,61,63,65,67,-1,69,71,73,75,77,79,81,83,85,87,89,91,93,95,97,99,101,103,105,107,109,111,113,115,117,-1,-1,-1,-1,-1,-1,-1,-1,-1,-1,-1,-1,-1,-1,-1,-1,-1,-1,-1,-1,-1,-1,-1,-1,-1,-1,-1,-1,-1,-1,-1,-1,-1,-1,-1,-1,-1,-1,-1,-1,-1,-1,-1,-1,-1,-1,-1,-1,-1,-1,-1,-1,-1,-1,-1,-1,-1,-1],"loss_changes":[4.289921E4,1.1207749E4,6.098953E3,6.513008E2,6.8581714E2,5.8696436E2,1.3146543E3,8.524609E1,1.0702588E2,2.147472E2,7.928422E2,2.5054321E2,1.9297754E2,5.461553E2,6.037031E2,4.219922E1,5.429248E1,9.847937E1,3.0516846E1,1.3801013E2,1.431448E2,1.8609598E2,0E0,1.1612317E2,2.6295007E2,1.5857666E2,1.1809071E2,3.7310938E2,3.6676904E2,1.309019E2,5.5473047E2,2.2261719E1,9.8379135E1,2.276709E1,4.6321747E1,0E0,8.6694214E1,3.0061035E1,3.2834473E1,7.4074646E1,9.398639E1,8.6187996E1,4.389442E1,1.14632996E2,1.21040955E2,8.396045E1,1.1598132E2,4.4251608E2,1.1065466E2,9.145215E1,1.4270007E2,1.4194889E0,1.8907013E0,2.1812402E2,1.9810051E2,2.8740283E2,3.517468E2,2.7526855E0,2.3730732E1,9.987988E1,2.4386523E2,0E0,0E0,0E0,0E0,0E0,0E0,0E0,0E0,0E0,0E0,0E0,0E0,0E0,0E0,0E0,0E0,0E0,0E0,0E0,0E0,0E0,0E0,0E0,0E0,0E0,0E0,0E0,0E0,0E0,0E0,0E0,0E0,0E0,0E0,0E0,0E0,0E0,0E0,0E0,0E0,0E0,0E0,0E0,0E0,0E0,0E0,0E0,0E0,0E0,0E0,0E0,0E0,0E0,0E0,0E0,0E0,0E0,0E0],"parents":[2147483647,0,0,1,1,2,2,3,3,4,4,5,5,6,6,7,7,8,8,9,9,10,10,11,11,12,12,13,13,14,14,15,15,16,16,17,17,18,18,19,19,20,20,21,21,23,23,24,24,25,25,26,26,27,27,28,28,29,29,30,30,31,31,32,32,33,33,34,34,36,36,37,37,38,38,39,39,40,40,41,41,42,42,43,43,44,44,45,45,46,46,47,47,48,48,49,49,50,50,51,51,52,52,53,53,54,54,55,55,56,56,57,57,58,58,59,59,60,60],"right_children":[2,4,6,8,10,12,14,16,18,20,22,24,26,28,30,32,34,36,38,40,42,44,-1,46,48,50,52,54,56,58,60,62,64,66,68,-1,70,72,74,76,78,80,82,84,86,88,90,92,94,96,98,100,102,104,106,108,110,112,114,116,118,-1,-1,-1,-1,-1,-1,-1,-1,-1,-1,-1,-1,-1,-1,-1,-1,-1,-1,-1,-1,-1,-1,-1,-1,-1,-1,-1,-1,-1,-1,-1,-1,-1,-1,-1,-1,-1,-1,-1,-1,-1,-1,-1,-1,-1,-1,-1,-1,-1,-1,-1,-1,-1,-1,-1,-1,-1,-1],"split_conditions":[8.663358E0,3.7998166E0,1.3899293E1,1.2628876E0,6.912695E0,1.1537178E1,1.483316E1,7.218126E-2,2.5881904E-1,9.659258E-1,4.656573E1,9.659258E-1,4.2873283E1,9.612038E0,2.858874E0,2.645264E1,9.50519E0,2.4738519E-1,4.690824E0,5.022832E0,5E0,9.659258E-1,-9.796327E-1,3.0400257E0,1.7071335E0,8.660254E-1,6.8742313E0,1.3181047E1,2.3236883E1,4.8956203E0,1.7617918E1,2.0256498E1,8.2E1,1.9260535E-1,8.685502E0,1.6891073E-1,2.1910446E1,2.3755984E0,1.2327147E1,2.4E1,1.1981247E1,6.7162786E0,1.8010305E0,4.8298993E0,7.141181E0,1.8210726E1,4.2873283E1,1.0494721E1,7E0,3.7401615E1,4.803806E0,3.1647978E1,1.267582E1,-2.5881904E-1,2.9586288E1,8.397217E0,6.2234883E0,7.61685E-1,1.5238508E1,2.645264E1,5.0486803E0,-2.304956E-1,-4.2165285E-1,9.953228E-2,-1.9116804E-1,-1.4445888E-1,-2.085549E-1,-1.6119513E-1,-2.2195846E-2,-1.23423554E-1,-3.4153542E-1,-1.8546306E-1,-1.365161E-1,-2.3686281E-1,-6.487705E-2,2.3419209E-1,-7.5232975E-2,-3.7434552E-2,-1.2493564E-1,-1.5458943E-2,8.5726105E-2,-1.3962854E-1,-2.6780272E-2,-3.0019814E-2,1.9620758E-2,3.38185E-2,1.4126945E-1,2.8349696E-2,-2.4130185E-1,8.423242E-2,-2.3108025E-1,5.5847075E-2,-7.61467E-1,1.21646345E-1,2.2225736E-1,1.5530317E-1,-3.6306005E-2,-1.1280577E-2,2.65307E-1,1.222254E-1,2.2225428E-2,-3.760865E-1,-1.329166E-1,2.1829584E-1,4.895591E-2,4.7091294E-2,-4.6555495E-1,2.307554E-1,3.5262957E-1,-3.7447E-1,1.6727045E-1,2.2556813E-1,9.423305E-2,-1.6323505E-1,1.2588978E-4,2.8097156E-1,2.1004936E-2,7.664569E-1,4.018037E-1],"split_indices":[0,0,0,0,0,0,16,0,60,61,42,61,13,50,35,37,12,52,1,0,56,61,0,40,29,61,2,55,18,8,0,18,62,52,17,0,16,0,13,62,13,50,19,14,1,18,17,9,59,12,32,1,0,60,12,39,36,46,12,25,50,0,0,0,0,0,0,0,0,0,0,0,0,0,0,0,0,0,0,0,0,0,0,0,0,0,0,0,0,0,0,0,0,0,0,0,0,0,0,0,0,0,0,0,0,0,0,0,0,0,0,0,0,0,0,0,0,0,0],"split_type":[0,0,0,0,0,0,0,0,0,0,0,0,0,0,0,0,0,0,0,0,0,0,0,0,0,0,0,0,0,0,0,0,0,0,0,0,0,0,0,0,0,0,0,0,0,0,0,0,0,0,0,0,0,0,0,0,0,0,0,0,0,0,0,0,0,0,0,0,0,0,0,0,0,0,0,0,0,0,0,0,0,0,0,0,0,0,0,0,0,0,0,0,0,0,0,0,0,0,0,0,0,0,0,0,0,0,0,0,0,0,0,0,0,0,0,0,0,0,0],"sum_hessian":[5.925E3,3.866E3,2.059E3,1.611E3,2.255E3,1.215E3,8.44E2,1.152E3,4.59E2,1.56E3,6.95E2,8.19E2,3.96E2,4.68E2,3.76E2,7.85E2,3.67E2,2.51E2,2.08E2,1.391E3,1.69E2,6.94E2,1E0,6.9E2,1.29E2,3.9E2,6E0,2.35E2,2.33E2,1.5E1,3.61E2,7.69E2,1.6E1,3.31E2,3.6E1,2E0,2.49E2,1.69E2,3.9E1,4.6E2,9.31E2,9.1E1,7.8E1,5.84E2,1.1E2,8.1E1,6.09E2,1E1,1.19E2,3.3E2,6E1,3E0,3E0,2.02E2,3.3E1,2.19E2,1.4E1,7E0,8E0,1.11E2,2.5E2,7.67E2,2E0,3E0,1.3E1,2.5E1,3.06E2,2.8E1,8E0,2.45E2,4E0,9.1E1,7.8E1,3.5E1,4E0,1E0,4.59E2,9E2,3.1E1,3.2E1,5.9E1,9E0,6.9E1,1.59E2,4.25E2,6.7E1,4.3E1,7.9E1,2E0,6.07E2,2E0,9E0,1E0,6.1E1,5.8E1,3.24E2,6E0,5E0,5.5E1,2E0,1E0,1E0,2E0,1.8E2,2.2E1,3.2E1,1E0,9.6E1,1.23E2,3E0,1.1E1,4E0,3E0,4E0,4E0,1.07E2,4E0,5E0,2.45E2],"tree_param":{"num_deleted":"0","num_feature":"68","num_nodes":"119","size_leaf_vector":"1"}},{"base_weights":[1.2396281E-3,-1.6957715E0,3.2470763E0,-3.575434E0,-5.5637515E-1,2.1882637E0,5.570006E0,-3.9222896E0,-2.4736438E0,-1.2640567E0,6.900259E-2,1.5157698E0,3.4415736E0,3.0642445E0,6.3001394E0,-4.646725E0,-3.6102402E0,-3.1336906E0,-1.5163604E0,-2.6004822E0,-1.0957495E0,-3.9609507E-1,8.743653E-1,2.3147795E0,7.9366356E-1,1.8406142E0,4.5265164E0,8.670555E-1,3.781967E0,5.044842E0,7.391192E0,-4.5614586E0,-1.2448734E1,-3.840705E0,-2.3087568E0,-1.9237014E0,-3.474969E0,2.3940337E0,-2.0160553E0,-9.84992E-1,-3.3404198E0,-1.357244E0,-5.687211E-1,-3.5905412E-1,-7.807124E0,1.4510087E0,-7.974061E-2,3.5684652E0,1.9496944E0,-1.3623821E-3,1.565793E0,2.2122848E0,-2.246718E0,6.0381384E0,3.252623E0,-1.6649628E-1,1.8549727E0,4.2561665E0,-4.7210548E-2,2.6670954E0,5.686942E0,7.6104064E0,4.3194538E-1,-2.3112488E-1,-1.07603155E-1,-1.01539634E-1,-8.321155E-1,-1.6113405E-1,-2.0298035E-1,-1.01696074E-1,-2.7361998E-1,-1.3699768E-1,3.7669238E-2,-1.7625843E-1,1.13924816E-1,4.179253E-2,2.9832515E-1,-2.0286082E-1,-8.0402575E-2,9.810952E-3,-1.007024E-1,-1.9339158E-1,-4.8611432E-2,-6.945294E-2,7.304976E-2,-1.1824459E-3,-5.735441E-2,-3.502456E-2,1.6005946E-2,1.1628629E-1,-9.5514184E-1,4.641503E-2,1.3390075E-1,-1.22324815E-2,3.0051026E-2,2.3247097E-2,2.0916791E-1,-3.486025E-4,1.063798E-1,-5.0039526E-2,1.4597773E-2,4.8710607E-2,1.2082171E-1,1.7402582E-1,3.116077E-2,-4.0267426E-1,4.2194616E-2,1.653033E-1,3.391246E-1,9.022441E-2,1.8955004E-1,-5.9329223E-2,5.493889E-2,2.4196697E-2,9.521282E-2,-1.7678115E-1,2.2287105E-1,1.3736343E-1,-7.972267E-2,1.7171305E-1,-1.829512E-1,2.244437E-1,3.31697E-1,4.0417767E-1,2.4503191E-1,-1.5710996E-1,1.9598506E-1],"categories":[],"categories_nodes":[],"categories_segments":[],"categories_sizes":[],"default_left":[0,0,0,0,0,0,0,0,0,0,0,0,0,0,0,0,0,0,0,0,0,0,0,0,0,0,0,0,0,0,0,0,0,0,0,0,0,0,0,0,0,0,0,0,0,0,0,0,0,0,0,0,0,0,0,0,0,0,0,0,0,0,0,0,0,0,0,0,0,0,0,0,0,0,0,0,0,0,0,0,0,0,0,0,0,0,0,0,0,0,0,0,0,0,0,0,0,0,0,0,0,0,0,0,0,0,0,0,0,0,0,0,0,0,0,0,0,0,0,0,0,0,0,0,0,0,0],"id":8,"left_children":[1,3,5,7,9,11,13,15,17,19,21,23,25,27,29,31,33,35,37,39,41,43,45,47,49,51,53,55,57,59,61,63,65,67,69,71,73,75,77,79,81,83,85,87,89,91,93,95,97,99,101,103,105,107,109,111,113,115,117,119,121,123,125,-1,-1,-1,-1,-1,-1,-1,-1,-1,-1,-1,-1,-1,-1,-1,-1,-1,-1,-1,-1,-1,-1,-1,-1,-1,-1,-1,-1,-1,-1,-1,-1,-1,-1,-1,-1,-1,-1,-1,-1,-1,-1,-1,-1,-1,-1,-1,-1,-1,-1,-1,-1,-1,-1,-1,-1,-1,-1,-1,-1,-1,-1,-1,-1],"loss_changes":[3.2520531E4,8.301305E3,4.9733125E3,5.494004E2,1.0688896E3,1.1697065E3,1.140623E3,2.3437695E2,2.1829199E2,2.5199634E2,4.8092264E2,5.226284E2,8.358262E2,2.2538171E2,6.338125E2,1.6341406E2,2.2539062E2,7.920715E1,2.9011108E2,1.4732532E2,1.3814563E2,2.2064923E2,2.586998E2,1.9031201E2,2.9404254E2,3.057602E2,5.368711E2,3.8088203E1,1.9812244E2,3.375122E2,3.9336133E2,3.84375E1,9.726819E1,7.647754E1,9.3207214E1,1.0695274E2,5.453235E1,8.964444E1,1.0174005E2,5.0232006E1,1.036546E2,6.2371826E1,1.058975E2,1.8829095E2,5.0225897E2,1.8543427E2,2.0129969E1,1.8125513E2,1.16974365E2,6.9768745E1,1.19929016E2,3.6461707E2,3.11886E2,2.4398242E2,1.1712244E2,2.5826927E1,3.6228943E-1,1.6786865E2,6.058899E1,2.6007828E2,1.7557764E2,2.834795E2,1.2450817E2,0E0,0E0,0E0,0E0,0E0,0E0,0E0,0E0,0E0,0E0,0E0,0E0,0E0,0E0,0E0,0E0,0E0,0E0,0E0,0E0,0E0,0E0,0E0,0E0,0E0,0E0,0E0,0E0,0E0,0E0,0E0,0E0,0E0,0E0,0E0,0E0,0E0,0E0,0E0,0E0,0E0,0E0,0E0,0E0,0E0,0E0,0E0,0E0,0E0,0E0,0E0,0E0,0E0,0E0,0E0,0E0,0E0,0E0,0E0,0E0,0E0,0E0,0E0,0E0],"parents":[2147483647,0,0,1,1,2,2,3,3,4,4,5,5,6,6,7,7,8,8,9,9,10,10,11,11,12,12,13,13,14,14,15,15,16,16,17,17,18,18,19,19,20,20,21,21,22,22,23,23,24,24,25,25,26,26,27,27,28,28,29,29,30,30,31,31,32,32,33,33,34,34,35,35,36,36,37,37,38,38,39,39,40,40,41,41,42,42,43,43,44,44,45,45,46,46,47,47,48,48,49,49,50,50,51,51,52,52,53,53,54,54,55,55,56,56,57,57,58,58,59,59,60,60,61,61,62,62],"right_children":[2,4,6,8,10,12,14,16,18,20,22,24,26,28,30,32,34,36,38,40,42,44,46,48,50,52,54,56,58,60,62,64,66,68,70,72,74,76,78,80,82,84,86,88,90,92,94,96,98,100,102,104,106,108,110,112,114,116,118,120,122,124,126,-1,-1,-1,-1,-1,-1,-1,-1,-1,-1,-1,-1,-1,-1,-1,-1,-1,-1,-1,-1,-1,-1,-1,-1,-1,-1,-1,-1,-1,-1,-1,-1,-1,-1,-1,-1,-1,-1,-1,-1,-1,-1,-1,-1,-1,-1,-1,-1,-1,-1,-1,-1,-1,-1,-1,-1,-1,-1,-1,-1,-1,-1,-1,-1],"split_conditions":[8.663358E0,3.1464684E0,1.4225575E1,1.2628876E0,6.045366E0,1.3129089E1,1.0614374E1,7.378747E-2,5.849816E0,2E0,6.772547E0,1.6E1,1.49E1,4.3388373E-1,1.7617918E1,4.2873283E1,6.829574E0,1.6399291E-1,7.218126E-2,5.284941E0,6.4918575E0,4.656573E1,5E-1,1E0,1.72E1,1.1882898E1,1.6E1,6.717469E0,7.993244E0,8.343477E0,1E1,1.6613928E1,7.218126E-2,-1.8369701E-16,1.1112262E1,7.6E0,2.1910446E1,1.2403033E1,2.6373491E0,9.994295E-1,6.083635E0,1.3437316E1,4.107035E0,8.792398E0,6.0402303E0,9.498754E0,1.89E1,6.6252553E-1,6.481894E0,6.1E0,1.093533E1,-5E-1,5.5262513E0,4.9472284E0,5.831483E0,1.42372E1,6.672628E0,4.0860095E0,1.1430903E1,4.2873283E1,4.3388373E-1,1.6E1,2.3755984E0,-2.3112488E-1,-1.07603155E-1,-1.01539634E-1,-8.321155E-1,-1.6113405E-1,-2.0298035E-1,-1.01696074E-1,-2.7361998E-1,-1.3699768E-1,3.7669238E-2,-1.7625843E-1,1.13924816E-1,4.179253E-2,2.9832515E-1,-2.0286082E-1,-8.0402575E-2,9.810952E-3,-1.007024E-1,-1.9339158E-1,-4.8611432E-2,-6.945294E-2,7.304976E-2,-1.1824459E-3,-5.735441E-2,-3.502456E-2,1.6005946E-2,1.1628629E-1,-9.5514184E-1,4.641503E-2,1.3390075E-1,-1.22324815E-2,3.0051026E-2,2.3247097E-2,2.0916791E-1,-3.486025E-4,1.063798E-1,-5.0039526E-2,1.4597773E-2,4.8710607E-2,1.2082171E-1,1.7402582E-1,3.116077E-2,-4.0267426E-1,4.2194616E-2,1.653033E-1,3.391246E-1,9.022441E-2,1.8955004E-1,-5.9329223E-2,5.493889E-2,2.4196697E-2,9.521282E-2,-1.7678115E-1,2.2287105E-1,1.3736343E-1,-7.972267E-2,1.7171305E-1,-1.829512E-1,2.244437E-1,3.31697E-1,4.0417767E-1,2.4503191E-1,-1.5710996E-1,1.9598506E-1],"split_indices":[1,1,17,1,14,1,51,52,8,66,1,59,66,58,1,42,17,33,3,24,1,42,60,56,66,54,59,33,53,37,64,37,3,60,35,66,22,38,31,44,17,13,54,17,1,5,66,40,52,66,1,60,48,6,33,43,11,50,1,17,58,59,31,0,0,0,0,0,0,0,0,0,0,0,0,0,0,0,0,0,0,0,0,0,0,0,0,0,0,0,0,0,0,0,0,0,0,0,0,0,0,0,0,0,0,0,0,0,0,0,0,0,0,0,0,0,0,0,0,0,0,0,0,0,0,0,0],"split_type":[0,0,0,0,0,0,0,0,0,0,0,0,0,0,0,0,0,0,0,0,0,0,0,0,0,0,0,0,0,0,0,0,0,0,0,0,0,0,0,0,0,0,0,0,0,0,0,0,0,0,0,0,0,0,0,0,0,0,0,0,0,0,0,0,0,0,0,0,0,0,0,0,0,0,0,0,0,0,0,0,0,0,0,0,0,0,0,0,0,0,0,0,0,0,0,0,0,0,0,0,0,0,0,0,0,0,0,0,0,0,0,0,0,0,0,0,0,0,0,0,0,0,0,0,0,0,0],"sum_hessian":[5.902E3,3.876E3,2.026E3,1.462E3,2.414E3,1.393E3,6.33E2,1.11E3,3.52E2,1.132E3,1.282E3,9.08E2,4.85E2,1.44E2,4.89E2,3.3E2,7.8E2,2.07E2,1.45E2,1.25E2,1.007E3,8.13E2,4.69E2,4.3E2,4.78E2,1.97E2,2.88E2,3.6E1,1.08E2,2.3E2,2.59E2,3.28E2,2E0,6.61E2,1.19E2,4.7E1,1.6E2,1.6E1,1.29E2,4E1,8.5E1,6.72E2,3.35E2,8.1E2,3E0,2.92E2,1.77E2,9.5E1,3.35E2,2.36E2,2.42E2,1.81E2,1.6E1,1.3E2,1.58E2,1.8E1,1.8E1,9.6E1,1.2E1,5E1,1.8E2,2.51E2,8E0,3.19E2,9E0,1E0,1E0,1.77E2,4.84E2,1.11E2,8E0,3.6E1,1.1E1,1.59E2,1E0,1.2E1,4E0,2E1,1.09E2,1.9E1,2.1E1,6.9E1,1.6E1,6.65E2,7E0,1.73E2,1.62E2,5.39E2,2.71E2,2E0,1E0,2.06E2,8.6E1,1.43E2,3.4E1,1.6E1,7.9E1,2.8E1,3.07E2,5.3E1,1.83E2,1.44E2,9.8E1,1E2,8.1E1,5E0,1.1E1,2.9E1,1.01E2,4.4E1,1.14E2,1E1,8E0,1E0,1.7E1,2E0,9.4E1,4E0,8E0,4.5E1,5E0,8.2E1,9.8E1,2.12E2,3.9E1,4E0,4E0],"tree_param":{"num_deleted":"0","num_feature":"68","num_nodes":"127","size_leaf_vector":"1"}},{"base_weights":[-1.47321625E-2,-1.821381E0,3.4122288E0,-3.6650217E0,-4.9324742E-1,2.038255E0,5.330802E0,-4.0281205E0,-2.5162044E0,-1.1267575E0,-9.1128066E-2,1.678761E0,3.1558447E0,3.1769042E0,6.107053E0,-3.9872303E0,-7.2861657E0,-2.3125498E0,-3.6689775E0,-1.2500025E0,-1.7357111E-1,-2.8339183E-1,5.6212276E-1,1.4918127E0,2.8830514E0,2.7975202E0,5.132402E0,3.4469867E0,-1.1784213E0,4.684736E0,6.974135E0,-4.2071857E0,-3.5256956E0,-2.0176971E-1,-8.930265E-1,-2.8423302E0,-1.9080362E0,-3.9246342E0,-2.2521934E-1,-1.3043348E0,7.551342E-1,5.092756E-1,-1.0010895E0,-5.439641E-1,1.6222493E-1,6.746256E-1,-1.1288038E1,8.9923257E-1,1.8587729E0,3.4192622E0,1.2333088E0,2.0386457E0,3.504078E0,5.623609E0,2.7450505E-1,-3.1285775E-1,3.7730284E0,4.0844717E0,-7.0248103E0,3.4387107E0,5.3501477E0,3.5401855E0,7.487881E0,-2.1387033E-1,-1.6333912E-1,-1.8175636E-1,-9.749048E-2,-1.5655993E-1,-7.994038E-2,-1.06392816E-1,-6.093047E-2,-2.004106E-1,1.0535538E-2,-7.0248514E-2,1.12344615E-1,-3.099271E-3,-6.797321E-2,-4.4719204E-2,3.106235E-1,-3.7918355E-2,7.078826E-2,-6.0088057E-2,5.1160427E-3,-5.7192154E-2,-1.6906463E-2,-3.1526126E-2,2.2113096E-2,5.403557E-2,-1.371624E-2,8.466045E-2,-9.312634E-1,9.713227E-3,6.435269E-2,9.8980926E-2,-1.2550982E-2,-1.5496059E-1,1.763663E-1,-1.5225957E-1,8.166922E-2,1.09961905E-1,-7.029571E-2,1.8390729E-1,1.3817397E-1,2.0875077E-1,3.395511E-1,1.4052534E-1,-2.4673755E-1,9.3426175E-2,-1.6365749E-1,3.8730927E-2,2.025954E-1,5.696043E-2,6.175329E-1,-5.505759E-1,-6.409496E-2,1.7861266E-1,-7.2335675E-2,2.7091813E-1,5.5272896E-3,2.0845452E-1,-2.5244728E-1,3.796595E-1,1.6582738E-1],"categories":[],"categories_nodes":[],"categories_segments":[],"categories_sizes":[],"default_left":[0,0,0,0,0,0,0,0,0,0,0,0,0,0,0,0,0,0,0,0,0,0,0,0,0,0,0,0,0,0,0,0,0,0,0,0,0,0,0,0,0,0,0,0,0,0,0,0,0,0,0,0,0,0,0,0,0,0,0,0,0,0,0,0,0,0,0,0,0,0,0,0,0,0,0,0,0,0,0,0,0,0,0,0,0,0,0,0,0,0,0,0,0,0,0,0,0,0,0,0,0,0,0,0,0,0,0,0,0,0,0,0,0,0,0,0,0,0,0,0,0,0,0],"id":9,"left_children":[1,3,5,7,9,11,13,15,17,19,21,23,25,27,29,31,33,35,37,39,41,43,45,47,49,51,53,55,57,59,61,63,65,-1,-1,67,69,71,73,75,77,79,81,83,85,87,89,91,93,95,97,99,101,103,105,107,109,111,113,115,117,119,121,-1,-1,-1,-1,-1,-1,-1,-1,-1,-1,-1,-1,-1,-1,-1,-1,-1,-1,-1,-1,-1,-1,-1,-1,-1,-1,-1,-1,-1,-1,-1,-1,-1,-1,-1,-1,-1,-1,-1,-1,-1,-1,-1,-1,-1,-1,-1,-1,-1,-1,-1,-1,-1,-1,-1,-1,-1,-1,-1,-1],"loss_changes":[3.65164E4,9.454689E3,5.356172E3,6.643672E2,5.720584E2,4.7200098E2,1.4000957E3,1.3441211E2,8.330957E1,1.0222156E2,1.7285445E2,1.9855005E2,1.8961792E2,2.710813E2,7.3565234E2,1.084082E2,4.0917352E2,6.636841E1,4.9299988E1,8.5089355E1,5.7581722E1,1.2351889E2,4.2489926E2,1.6837708E2,1.0193622E2,1.2475879E2,1.0106421E2,2.6351587E2,4.5945755E2,1.797622E2,6.526992E2,3.9979492E1,6.154785E1,0E0,0E0,4.636145E1,2.6656067E1,1.916272E1,1.7739199E1,5.1420288E1,1.9459782E2,6.542353E1,1.030843E1,8.246564E1,8.75243E1,1.2014197E2,3.172756E2,8.204384E1,1.2338721E2,7.432886E1,5.8037388E1,7.002548E1,6.0788574E0,3.7600464E1,7.992257E1,1.2235141E2,1.615918E2,1.8069876E2,1.4615152E2,6.127539E1,5.444336E1,3.019403E2,1.2153516E2,0E0,0E0,0E0,0E0,0E0,0E0,0E0,0E0,0E0,0E0,0E0,0E0,0E0,0E0,0E0,0E0,0E0,0E0,0E0,0E0,0E0,0E0,0E0,0E0,0E0,0E0,0E0,0E0,0E0,0E0,0E0,0E0,0E0,0E0,0E0,0E0,0E0,0E0,0E0,0E0,0E0,0E0,0E0,0E0,0E0,0E0,0E0,0E0,0E0,0E0,0E0,0E0,0E0,0E0,0E0,0E0,0E0,0E0,0E0,0E0],"parents":[2147483647,0,0,1,1,2,2,3,3,4,4,5,5,6,6,7,7,8,8,9,9,10,10,11,11,12,12,13,13,14,14,15,15,16,16,17,17,18,18,19,19,20,20,21,21,22,22,23,23,24,24,25,25,26,26,27,27,28,28,29,29,30,30,31,31,32,32,35,35,36,36,37,37,38,38,39,39,40,40,41,41,42,42,43,43,44,44,45,45,46,46,47,47,48,48,49,49,50,50,51,51,52,52,53,53,54,54,55,55,56,56,57,57,58,58,59,59,60,60,61,61,62,62],"right_children":[2,4,6,8,10,12,14,16,18,20,22,24,26,28,30,32,34,36,38,40,42,44,46,48,50,52,54,56,58,60,62,64,66,-1,-1,68,70,72,74,76,78,80,82,84,86,88,90,92,94,96,98,100,102,104,106,108,110,112,114,116,118,120,122,-1,-1,-1,-1,-1,-1,-1,-1,-1,-1,-1,-1,-1,-1,-1,-1,-1,-1,-1,-1,-1,-1,-1,-1,-1,-1,-1,-1,-1,-1,-1,-1,-1,-1,-1,-1,-1,-1,-1,-1,-1,-1,-1,-1,-1,-1,-1,-1,-1,-1,-1,-1,-1,-1,-1,-1,-1,-1,-1,-1],"split_conditions":[8.663358E0,3.7998166E0,1.3899293E1,1.5963581E0,5.604379E0,1.1981247E1,1.54E1,2.1443552E1,5.022832E0,9.659258E-1,8.660254E-1,9.659258E-1,8.660254E-1,2.8027971E1,1.7617918E1,2.7609867E-1,5.8498516E0,2.4966679E0,1.8576899E1,1.5267606E1,5E0,7.2972884E0,3.533359E0,9.683046E0,1E1,1.1046111E1,1.3797206E1,9.431536E-1,1.22936E1,-5E-1,8.685502E0,9.207762E0,1.1251379E1,-2.0176971E-1,-8.930265E-1,1.0209352E1,7.765507E0,1.9783825E1,3.2161992E0,1.8926375E0,7.796733E0,4.6948E0,1.3036196E1,4.951731E0,4.4956555E0,5E0,8.231734E0,7.6186895E0,1.506537E1,2.8140283E-1,7.218126E-2,1.2403033E1,5.027746E0,8.3921E0,1.2989885E1,6.4193983E0,2.2468383E0,2.9586288E1,7.0755696E0,3.1647978E1,4.656573E1,9.432157E0,1E-1,-2.1387033E-1,-1.6333912E-1,-1.8175636E-1,-9.749048E-2,-1.5655993E-1,-7.994038E-2,-1.06392816E-1,-6.093047E-2,-2.004106E-1,1.0535538E-2,-7.0248514E-2,1.12344615E-1,-3.099271E-3,-6.797321E-2,-4.4719204E-2,3.106235E-1,-3.7918355E-2,7.078826E-2,-6.0088057E-2,5.1160427E-3,-5.7192154E-2,-1.6906463E-2,-3.1526126E-2,2.2113096E-2,5.403557E-2,-1.371624E-2,8.466045E-2,-9.312634E-1,9.713227E-3,6.435269E-2,9.8980926E-2,-1.2550982E-2,-1.5496059E-1,1.763663E-1,-1.5225957E-1,8.166922E-2,1.09961905E-1,-7.029571E-2,1.8390729E-1,1.3817397E-1,2.0875077E-1,3.395511E-1,1.4052534E-1,-2.4673755E-1,9.3426175E-2,-1.6365749E-1,3.8730927E-2,2.025954E-1,5.696043E-2,6.175329E-1,-5.505759E-1,-6.409496E-2,1.7861266E-1,-7.2335675E-2,2.7091813E-1,5.5272896E-3,2.0845452E-1,-2.5244728E-1,3.796595E-1,1.6582738E-1],"split_indices":[0,0,0,0,0,0,66,15,1,61,61,61,61,15,0,0,9,0,12,9,56,0,55,0,64,17,31,43,51,61,15,15,12,0,0,8,11,14,0,1,45,18,15,9,12,56,0,17,1,40,18,38,55,31,0,51,13,0,8,44,15,36,65,0,0,0,0,0,0,0,0,0,0,0,0,0,0,0,0,0,0,0,0,0,0,0,0,0,0,0,0,0,0,0,0,0,0,0,0,0,0,0,0,0,0,0,0,0,0,0,0,0,0,0,0,0,0,0,0,0,0,0,0],"split_type":[0,0,0,0,0,0,0,0,0,0,0,0,0,0,0,0,0,0,0,0,0,0,0,0,0,0,0,0,0,0,0,0,0,0,0,0,0,0,0,0,0,0,0,0,0,0,0,0,0,0,0,0,0,0,0,0,0,0,0,0,0,0,0,0,0,0,0,0,0,0,0,0,0,0,0,0,0,0,0,0,0,0,0,0,0,0,0,0,0,0,0,0,0,0,0,0,0,0,0,0,0,0,0,0,0,0,0,0,0,0,0,0,0,0,0,0,0,0,0,0,0,0,0],"sum_hessian":[5.896E3,3.861E3,2.035E3,1.616E3,2.245E3,1.187E3,8.48E2,1.226E3,3.9E2,8.71E2,1.374E3,9E2,2.87E2,2.26E2,6.22E2,1.213E3,1.3E1,3.34E2,5.6E1,7.71E2,1E2,1.062E3,3.12E2,7.81E2,1.19E2,2.45E2,4.2E1,2.13E2,1.3E1,2.38E2,3.84E2,8.16E2,3.97E2,1.1E1,2E0,1.42E2,1.92E2,5.2E1,4E0,7.51E2,2E1,5.5E1,4.5E1,6.7E2,3.92E2,3.1E2,2E0,3E2,4.81E2,8.9E1,3E1,1.2E2,1.25E2,3.8E1,4E0,1.7E1,1.96E2,7E0,6E0,8.5E1,1.53E2,5.1E1,3.33E2,7.56E2,6E1,3.7E2,2.7E1,1.14E2,2.8E1,1.44E2,4.8E1,5.1E1,1E0,3E0,1E0,3.2E1,7.19E2,1.6E1,4E0,2.3E1,3.2E1,3.8E1,7E0,1.7E2,5E2,1.02E2,2.9E2,2.17E2,9.3E1,1E0,1E0,1.07E2,1.93E2,4.55E2,2.6E1,1E0,8.8E1,2E0,2.8E1,1.15E2,5E0,9.8E1,2.7E1,1.9E1,1.9E1,3E0,1E0,1E1,7E0,1.7E1,1.79E2,6E0,1E0,3E0,3E0,8.3E1,2E0,1.51E2,2E0,4.8E1,3E0,3.24E2,9E0],"tree_param":{"num_deleted":"0","num_feature":"68","num_nodes":"123","size_leaf_vector":"1"}},{"base_weights":[3.4644127E-2,-1.6062398E0,3.4241765E0,-3.52445E0,-4.3137535E-1,2.0831032E0,5.0830784E0,-3.8968513E0,-2.737655E0,-8.604792E-1,3.9244512E-1,1.6404198E0,2.8175032E0,4.0943685E0,6.2951827E0,-3.8689315E0,-9.958434E0,-3.0707588E0,-2.2862616E0,-1.4360433E0,-5.7671165E-1,9.326582E-1,-9.121237E-2,-3.2112718E-1,1.674688E0,2.394955E0,3.7110484E0,3.3072493E0,5.2513013E0,9.056246E-1,6.529598E0,-4.115657E0,-3.5636594E0,-7.8898686E-1,-1.3790436E-1,-3.4134603E0,-2.5568256E0,-1.8184754E0,-3.0178356E0,-1.2708707E0,-2.2838755E0,-6.8868864E-1,2.7302507E-1,1.757875E0,4.876482E-1,-1.1012161E0,1.558706E-1,1.7134899E0,-5.097802E0,2.4718618E0,-4.5924884E-1,-1.0935183E-1,3.776251E0,3.7433991E0,8.5308474E-1,-6.865574E-1,5.552008E0,3.1849484E0,-1.0083969E0,4.6487565E0,7.224429E0,-2.0049778E-1,-2.908836E-1,-1.8585946E-1,-1.4846866E-1,1.5884876E-2,-1.7310427E-1,-1.3049491E-1,8.6009204E-2,-9.217793E-3,-1.0231042E-1,-1.5997352E-1,-7.938149E-2,2.2017156E-1,-6.467842E-2,-2.378331E-1,-9.82594E-2,-5.667431E-2,-2.680558E-2,5.3417277E-2,-2.6962666E-2,5.557076E-2,1.2131705E-1,2.7176997E-2,-1.598681E-1,-1.3013008E-1,-3.3591576E-2,3.4110327E-3,1.071949E-1,7.10937E-2,1.2557259E-1,-7.456324E-1,1.5723477E-1,1.970834E-1,1.1217041E-1,1.9310401E-1,-4.8644114E-2,2.4403325E-1,1.5383051E-1,6.365014E-2,-4.300848E-1,-1.1813301E-1,1.2091309E-1,2.8763562E-1,-1.3115884E-1,1.900534E-1,8.092808E-2,-1.5272067E-1,4.3234162E-2,-3.1066967E-2,2.4648564E-1,-1.0814933E-1,3.6521724E-1],"categories":[],"categories_nodes":[],"categories_segments":[],"categories_sizes":[],"default_left":[0,0,0,0,0,0,0,0,0,0,0,0,0,0,0,0,0,0,0,0,0,0,0,0,0,0,0,0,0,0,0,0,0,0,0,0,0,0,0,0,0,0,0,0,0,0,0,0,0,0,0,0,0,0,0,0,0,0,0,0,0,0,0,0,0,0,0,0,0,0,0,0,0,0,0,0,0,0,0,0,0,0,0,0,0,0,0,0,0,0,0,0,0,0,0,0,0,0,0,0,0,0,0,0,0,0,0,0,0,0,0,0,0],"id":10,"left_children":[1,3,5,7,9,11,13,15,17,19,21,23,25,27,29,31,33,35,37,39,41,43,45,-1,47,49,51,53,55,57,59,61,63,-1,-1,65,67,69,71,73,75,77,79,81,83,85,87,89,91,93,-1,-1,95,97,99,101,103,105,107,109,111,-1,-1,-1,-1,-1,-1,-1,-1,-1,-1,-1,-1,-1,-1,-1,-1,-1,-1,-1,-1,-1,-1,-1,-1,-1,-1,-1,-1,-1,-1,-1,-1,-1,-1,-1,-1,-1,-1,-1,-1,-1,-1,-1,-1,-1,-1,-1,-1,-1,-1,-1,-1],"loss_changes":[3.2447648E4,8.857526E3,4.223033E3,4.2678516E2,8.625353E2,3.3804053E2,9.928828E2,1.3257227E2,6.560376E1,2.6114734E2,2.1851355E2,1.9311584E2,1.4025098E2,4.115459E2,4.7417773E2,6.1254883E1,1.2413971E2,3.970703E1,6.603613E1,7.117786E1,1.02570465E2,1.4419855E2,1.1047484E2,0E0,1.8164795E2,2.6405078E2,5.63302E1,2.997251E2,3.4128174E2,7.737716E1,4.4211426E2,7.579883E1,3.075E1,0E0,0E0,3.0490967E1,3.0366577E1,4.8001343E1,1.5702454E1,6.3009033E1,5.76362E1,6.393277E1,8.197484E1,5.693814E1,5.487599E1,5.4337936E1,6.188692E1,1.4884631E2,3.7049112E2,8.181848E1,0E0,0E0,5.430139E1,1.6697998E2,1.8564026E2,5.7753487E1,3.104331E2,1.5683899E0,4.096463E1,1.5261035E2,2.1385156E2,0E0,0E0,0E0,0E0,0E0,0E0,0E0,0E0,0E0,0E0,0E0,0E0,0E0,0E0,0E0,0E0,0E0,0E0,0E0,0E0,0E0,0E0,0E0,0E0,0E0,0E0,0E0,0E0,0E0,0E0,0E0,0E0,0E0,0E0,0E0,0E0,0E0,0E0,0E0,0E0,0E0,0E0,0E0,0E0,0E0,0E0,0E0,0E0,0E0,0E0,0E0,0E0],"parents":[2147483647,0,0,1,1,2,2,3,3,4,4,5,5,6,6,7,7,8,8,9,9,10,10,11,11,12,12,13,13,14,14,15,15,16,16,17,17,18,18,19,19,20,20,21,21,22,22,24,24,25,25,26,26,27,27,28,28,29,29,30,30,31,31,32,32,35,35,36,36,37,37,38,38,39,39,40,40,41,41,42,42,43,43,44,44,45,45,46,46,47,47,48,48,49,49,52,52,53,53,54,54,55,55,56,56,57,57,58,58,59,59,60,60],"right_children":[2,4,6,8,10,12,14,16,18,20,22,24,26,28,30,32,34,36,38,40,42,44,46,-1,48,50,52,54,56,58,60,62,64,-1,-1,66,68,70,72,74,76,78,80,82,84,86,88,90,92,94,-1,-1,96,98,100,102,104,106,108,110,112,-1,-1,-1,-1,-1,-1,-1,-1,-1,-1,-1,-1,-1,-1,-1,-1,-1,-1,-1,-1,-1,-1,-1,-1,-1,-1,-1,-1,-1,-1,-1,-1,-1,-1,-1,-1,-1,-1,-1,-1,-1,-1,-1,-1,-1,-1,-1,-1,-1,-1,-1,-1],"split_conditions":[9.055292E0,3.3308594E0,1.3899293E1,8.5274285E-1,6.912695E0,1.1537178E1,1.483316E1,4.656573E1,5.320908E0,4.895143E0,2.5881904E-1,2.8503947E0,9.568222E0,7.7158666E0,2.858874E0,1.5963581E0,1.2628876E0,2.1059222E0,7.0710677E-1,7.0472927E0,9.659258E-1,9E0,6.712868E0,-3.2112718E-1,1E2,3.585262E1,7.218126E-2,1.2208272E1,2.1059222E0,4.8956203E0,1.7617918E1,3.7998166E0,2.7609867E-1,-7.8898686E-1,-1.3790436E-1,2.0841067E0,2.9586288E1,7.218126E-2,5E0,2.4E1,1.1936569E0,3.8126206E0,5E0,1.4229963E0,1.216498E1,1.505058E0,1.0955359E1,7.0710677E-1,1.0193727E1,2.1059222E0,-4.5924884E-1,-1.0935183E-1,4.656573E1,1E0,6.7791753E0,7.218126E-2,1.8576899E1,7.61685E-1,1.5238508E1,1.0870618E1,-7.818315E-1,-2.0049778E-1,-2.908836E-1,-1.8585946E-1,-1.4846866E-1,1.5884876E-2,-1.7310427E-1,-1.3049491E-1,8.6009204E-2,-9.217793E-3,-1.0231042E-1,-1.5997352E-1,-7.938149E-2,2.2017156E-1,-6.467842E-2,-2.378331E-1,-9.82594E-2,-5.667431E-2,-2.680558E-2,5.3417277E-2,-2.6962666E-2,5.557076E-2,1.2131705E-1,2.7176997E-2,-1.598681E-1,-1.3013008E-1,-3.3591576E-2,3.4110327E-3,1.071949E-1,7.10937E-2,1.2557259E-1,-7.456324E-1,1.5723477E-1,1.970834E-1,1.1217041E-1,1.9310401E-1,-4.8644114E-2,2.4403325E-1,1.5383051E-1,6.365014E-2,-4.300848E-1,-1.1813301E-1,1.2091309E-1,2.8763562E-1,-1.3115884E-1,1.900534E-1,8.092808E-2,-1.5272067E-1,4.3234162E-2,-3.1066967E-2,2.4648564E-1,-1.0814933E-1,3.6521724E-1],"split_indices":[0,0,0,0,0,0,16,42,6,0,60,52,8,10,35,14,4,0,60,35,61,59,29,0,62,11,1,55,24,8,0,16,0,0,0,53,45,40,56,62,20,39,56,55,54,15,16,61,0,46,0,0,18,56,5,2,17,46,12,18,58,0,0,0,0,0,0,0,0,0,0,0,0,0,0,0,0,0,0,0,0,0,0,0,0,0,0,0,0,0,0,0,0,0,0,0,0,0,0,0,0,0,0,0,0,0,0,0,0,0,0,0,0],"split_type":[0,0,0,0,0,0,0,0,0,0,0,0,0,0,0,0,0,0,0,0,0,0,0,0,0,0,0,0,0,0,0,0,0,0,0,0,0,0,0,0,0,0,0,0,0,0,0,0,0,0,0,0,0,0,0,0,0,0,0,0,0,0,0,0,0,0,0,0,0,0,0,0,0,0,0,0,0,0,0,0,0,0,0,0,0,0,0,0,0,0,0,0,0,0,0,0,0,0,0,0,0,0,0,0,0,0,0,0,0,0,0,0,0],"sum_hessian":[5.832E3,3.93E3,1.902E3,1.492E3,2.438E3,1.053E3,8.49E2,1.01E3,4.82E2,1.603E3,8.35E2,6.59E2,3.94E2,4.7E2,3.79E2,1.007E3,3E0,2.74E2,2.08E2,5.28E2,1.075E3,3.94E2,4.41E2,2E0,6.57E2,2.7E2,1.24E2,2.82E2,1.88E2,1.6E1,3.63E2,5.5E2,4.57E2,1E0,2E0,1.61E2,1.13E2,1.29E2,7.9E1,4.44E2,8.4E1,9.5E2,1.25E2,1.37E2,2.57E2,8.6E1,3.55E2,6.54E2,3E0,2.69E2,1E0,1E0,1.23E2,2.39E2,4.3E1,9E0,1.79E2,7E0,9E0,1E2,2.63E2,5.21E2,2.9E1,3.59E2,9.8E1,2E0,1.59E2,1.12E2,1E0,1.6E1,1.13E2,6.9E1,1E1,1E0,4.43E2,8E0,7.6E1,2.41E2,7.09E2,6.3E1,6.2E1,7.1E1,6.6E1,2.54E2,3E0,1.8E1,6.8E1,3.41E2,1.4E1,4.81E2,1.73E2,1E0,2E0,3.4E1,2.35E2,1.21E2,2E0,8.6E1,1.53E2,4.2E1,1E0,6E0,3E0,1.75E2,4E0,4E0,3E0,4E0,5E0,5E0,9.5E1,2E0,2.61E2],"tree_param":{"num_deleted":"0","num_feature":"68","num_nodes":"113","size_leaf_vector":"1"}},{"base_weights":[-3.757144E-3,-1.6231636E0,3.052454E0,-3.3864825E0,-5.4588693E-1,1.8911551E0,4.8057575E0,-3.6933765E0,-2.7526853E0,-1.1191306E0,-9.448356E-2,1.5362338E0,2.8220782E0,2.8695595E0,5.5154266E0,-3.7281098E0,-2.592079E0,-1.804272E0,-2.9117608E0,-1.4681958E0,-7.868323E-1,-7.086402E-2,-1.0494951E1,1.951237E0,1.0055599E0,2.9040716E0,-4.6888814E0,3.167413E0,7.19836E-2,4.1055837E0,6.167789E0,-3.6942692E0,-4.916709E0,1.2293472E0,-3.1615634E0,-2.6089263E-1,-2.3235161E0,-3.025634E0,-1.8242161E0,-1.4886739E0,2.2285472E-1,-8.976886E-1,1.2650676E-1,-2.4599166E-1,9.7018695E-1,1.2389332E-1,-9.110147E-1,2.1689703E0,9.993219E-1,2.734864E-1,1.5468578E0,2.387837E0,3.5779924E0,-3.228171E-1,1.5337467E-2,-1.38721345E-2,3.4873962E0,-7.4988073E-1,3.0162985E0,5.062669E0,2.8222866E0,4.3922963E0,6.9871664E0,-1.8561575E-1,-9.344133E-2,-1.7849681E-1,-3.4978336E-1,1.11804865E-1,-6.994133E-2,-1.6774832E-1,-1.8354138E-2,-7.701521E-2,8.454182E-2,-1.300797E-1,4.331745E-2,-1.5705347E-1,-1.14232264E-1,1.1349738E-1,-9.9165946E-2,-6.658266E-2,-1.2094227E-1,1.247502E-1,-4.6575565E-2,6.370541E-2,-5.1265568E-2,-2.2958923E-2,1.49201695E-2,2.5369728E-2,1.1886543E-1,7.857235E-2,1.2629895E-1,6.0160965E-2,-2.79332E-1,1.3697855E-1,9.023088E-3,6.195428E-2,1.08325444E-1,1.2435388E-1,-1.4367189E-1,-1.0661805E-1,1.8168072E-1,1.4595154E-1,-9.839923E-2,1.8931031E-1,1.0331584E-2,1.5472974E-2,-1.4600688E-1,1.6610084E-1,4.483564E-2,1.988091E-1,2.9395986E-1,3.6378697E-2,2.1672617E-1,-1.5655906E-1,2.237768E-1,-1.0454434E-1,3.5310778E-1],"categories":[],"categories_nodes":[],"categories_segments":[],"categories_sizes":[],"default_left":[0,0,0,0,0,0,0,0,0,0,0,0,0,0,0,0,0,0,0,0,0,0,0,0,0,0,0,0,0,0,0,0,0,0,0,0,0,0,0,0,0,0,0,0,0,0,0,0,0,0,0,0,0,0,0,0,0,0,0,0,0,0,0,0,0,0,0,0,0,0,0,0,0,0,0,0,0,0,0,0,0,0,0,0,0,0,0,0,0,0,0,0,0,0,0,0,0,0,0,0,0,0,0,0,0,0,0,0,0,0,0,0,0,0,0,0,0],"id":11,"left_children":[1,3,5,7,9,11,13,15,17,19,21,23,25,27,29,31,33,35,37,39,41,43,45,47,49,51,53,55,57,59,61,63,65,67,69,71,73,75,77,79,-1,81,83,85,87,-1,-1,89,91,93,95,97,99,-1,-1,101,103,105,107,109,111,113,115,-1,-1,-1,-1,-1,-1,-1,-1,-1,-1,-1,-1,-1,-1,-1,-1,-1,-1,-1,-1,-1,-1,-1,-1,-1,-1,-1,-1,-1,-1,-1,-1,-1,-1,-1,-1,-1,-1,-1,-1,-1,-1,-1,-1,-1,-1,-1,-1,-1,-1,-1,-1,-1,-1],"loss_changes":[2.8893715E4,7.246958E3,4.107924E3,2.712871E2,6.131653E2,3.9809717E2,1.090291E3,2.7517578E1,6.65603E1,1.1994226E2,3.2523944E2,1.9272241E2,2.1992603E2,1.8142444E2,5.1547656E2,1.9645508E1,7.570271E1,5.6292587E1,4.4760254E1,6.8275024E1,5.4484497E1,2.4180841E2,3.4580582E2,1.004281E2,1.5412222E2,1.0695947E2,3.729879E1,2.0058594E2,5.549807E1,2.1784595E2,5.5123047E2,2.330371E1,3.9423218E1,1.6357481E1,1.4441772E1,5.004863E1,4.926651E1,2.4129883E1,3.1209152E1,7.0829346E1,0E0,5.7289368E1,7.9294205E1,1.3186267E2,1.23173965E2,0E0,0E0,8.178552E1,1.3295087E2,3.781652E1,4.003485E1,1.0687378E2,5.2850464E1,0E0,0E0,1.14637825E2,1.7469604E2,4.2286392E1,2.610855E-1,7.154785E1,2.597655E2,9.480005E1,1.9993066E2,0E0,0E0,0E0,0E0,0E0,0E0,0E0,0E0,0E0,0E0,0E0,0E0,0E0,0E0,0E0,0E0,0E0,0E0,0E0,0E0,0E0,0E0,0E0,0E0,0E0,0E0,0E0,0E0,0E0,0E0,0E0,0E0,0E0,0E0,0E0,0E0,0E0,0E0,0E0,0E0,0E0,0E0,0E0,0E0,0E0,0E0,0E0,0E0,0E0,0E0,0E0,0E0,0E0,0E0],"parents":[2147483647,0,0,1,1,2,2,3,3,4,4,5,5,6,6,7,7,8,8,9,9,10,10,11,11,12,12,13,13,14,14,15,15,16,16,17,17,18,18,19,19,20,20,21,21,22,22,23,23,24,24,25,25,26,26,27,27,28,28,29,29,30,30,31,31,32,32,33,33,34,34,35,35,36,36,37,37,38,38,39,39,41,41,42,42,43,43,44,44,47,47,48,48,49,49,50,50,51,51,52,52,55,55,56,56,57,57,58,58,59,59,60,60,61,61,62,62],"right_children":[2,4,6,8,10,12,14,16,18,20,22,24,26,28,30,32,34,36,38,40,42,44,46,48,50,52,54,56,58,60,62,64,66,68,70,72,74,76,78,80,-1,82,84,86,88,-1,-1,90,92,94,96,98,100,-1,-1,102,104,106,108,110,112,114,116,-1,-1,-1,-1,-1,-1,-1,-1,-1,-1,-1,-1,-1,-1,-1,-1,-1,-1,-1,-1,-1,-1,-1,-1,-1,-1,-1,-1,-1,-1,-1,-1,-1,-1,-1,-1,-1,-1,-1,-1,-1,-1,-1,-1,-1,-1,-1,-1,-1,-1,-1,-1,-1,-1],"split_conditions":[8.663358E0,3.1464684E0,1.4041287E1,8.0007684E-1,5.6832957E0,1.1981247E1,1.56E1,1.3665085E1,7.218126E-2,4.7949576E0,4.656573E1,1.5E1,4.2873283E1,-2.5881904E-1,8.736239E0,1.4064053E1,-2.2252093E-1,7.218126E-2,1.13E1,3.585262E1,9.659258E-1,9.659258E-1,7.7964706E0,9.2E1,1.73E1,1.2691523E1,1.3437316E1,1.8926375E0,5.442133E0,8.862895E0,1.7617918E1,1.2570183E1,1.3036196E1,7.218126E-2,7.272609E0,5.089838E0,1.7609127E1,9.659258E-1,1.049308E0,5.646796E0,2.2285472E-1,3.9E1,5E0,7.667042E0,1.4124631E0,1.2389332E-1,-9.110147E-1,9.683046E0,1.2327147E1,6.180995E0,1.0792861E1,2.9586288E1,7.218126E-2,-3.228171E-1,1.5337467E-2,4.8956203E0,2.645264E1,6.827069E0,9.496343E0,5.650825E0,1.0535019E1,8.004142E0,-7.818315E-1,-1.8561575E-1,-9.344133E-2,-1.7849681E-1,-3.4978336E-1,1.11804865E-1,-6.994133E-2,-1.6774832E-1,-1.8354138E-2,-7.701521E-2,8.454182E-2,-1.300797E-1,4.331745E-2,-1.5705347E-1,-1.14232264E-1,1.1349738E-1,-9.9165946E-2,-6.658266E-2,-1.2094227E-1,1.247502E-1,-4.6575565E-2,6.370541E-2,-5.1265568E-2,-2.2958923E-2,1.49201695E-2,2.5369728E-2,1.1886543E-1,7.857235E-2,1.2629895E-1,6.0160965E-2,-2.79332E-1,1.3697855E-1,9.023088E-3,6.195428E-2,1.08325444E-1,1.2435388E-1,-1.4367189E-1,-1.0661805E-1,1.8168072E-1,1.4595154E-1,-9.839923E-2,1.8931031E-1,1.0331584E-2,1.5472974E-2,-1.4600688E-1,1.6610084E-1,4.483564E-2,1.988091E-1,2.9395986E-1,3.6378697E-2,2.1672617E-1,-1.5655906E-1,2.237768E-1,-1.0454434E-1,3.5310778E-1],"split_indices":[0,0,0,0,0,0,66,42,48,0,42,59,13,60,11,14,57,30,66,26,61,61,0,62,66,17,0,13,8,27,0,16,16,1,27,10,11,61,0,1,0,62,56,0,55,0,0,0,1,52,0,12,1,0,0,8,15,14,2,4,16,50,58,0,0,0,0,0,0,0,0,0,0,0,0,0,0,0,0,0,0,0,0,0,0,0,0,0,0,0,0,0,0,0,0,0,0,0,0,0,0,0,0,0,0,0,0,0,0,0,0,0,0,0,0,0,0],"split_type":[0,0,0,0,0,0,0,0,0,0,0,0,0,0,0,0,0,0,0,0,0,0,0,0,0,0,0,0,0,0,0,0,0,0,0,0,0,0,0,0,0,0,0,0,0,0,0,0,0,0,0,0,0,0,0,0,0,0,0,0,0,0,0,0,0,0,0,0,0,0,0,0,0,0,0,0,0,0,0,0,0,0,0,0,0,0,0,0,0,0,0,0,0,0,0,0,0,0,0,0,0,0,0,0,0,0,0,0,0,0,0,0,0,0,0,0,0],"sum_hessian":[5.836E3,3.815E3,2.021E3,1.446E3,2.369E3,1.217E3,8.04E2,9.71E2,4.75E2,1.043E3,1.326E3,8.83E2,3.34E2,2.17E2,5.87E2,9.39E2,3.2E1,7E1,4.05E2,5.07E2,5.36E2,1.324E3,2E0,4.94E2,3.89E2,3.31E2,3E0,1.96E2,2.1E1,1.88E2,3.99E2,9.17E2,2.2E1,4E0,2.8E1,1.8E1,5.2E1,3.65E2,4E1,5.06E2,1E0,4.78E2,5.8E1,1.134E3,1.9E2,1E0,1E0,4.01E2,9.3E1,1.66E2,2.23E2,1.9E2,1.41E2,2E0,1E0,1.8E1,1.78E2,1.7E1,4E0,1.06E2,8.2E1,1.28E2,2.71E2,9.07E2,1E1,1.5E1,7E0,3E0,1E0,2.6E1,2E0,1.1E1,7E0,4.8E1,4E0,3.13E2,5.2E1,1E0,3.9E1,4.35E2,7.1E1,4E0,4.74E2,2.9E1,2.9E1,8.15E2,3.19E2,1.44E2,4.6E1,1.52E2,2.49E2,9.1E1,2E0,5E0,1.61E2,1.51E2,7.2E1,1.87E2,3E0,1E0,1.4E2,7E0,1.1E1,1.63E2,1.5E1,1.2E1,5E0,3E0,1E0,4.8E1,5.8E1,3.5E1,4.7E1,1E0,1.27E2,2E0,2.69E2],"tree_param":{"num_deleted":"0","num_feature":"68","num_nodes":"117","size_leaf_vector":"1"}},{"base_weights":[-2.6121803E-2,-1.5188872E0,2.8144145E0,-3.119573E0,-3.7648976E-1,1.7345479E0,4.4129257E0,-3.4774554E0,-2.2490175E0,-6.9145775E-1,2.6713118E-1,9.676786E-1,2.134108E0,2.5870116E0,5.0648565E0,-3.453003E0,-7.5112514E0,-1.8414228E0,-2.7382894E0,-9.5084846E-1,-3.951861E-1,3.093937E-1,-1.0232577E1,-3.693366E0,1.0103755E0,2.1675797E0,-5.0351324E0,2.9660273E0,-1.7679955E0,4.127518E0,5.9670343E0,-3.6640637E0,-3.214832E0,-1.446477E-1,-7.650685E-1,-5.4518473E-1,-2.1945803E0,-2.3982787E0,-3.4081917E0,-1.3268371E0,-7.536287E-1,1.8662933E0,-4.335542E-1,-7.4089244E-2,9.3829644E-1,1.2079599E-1,-8.882393E-1,1.002264E-1,-3.13042E-1,5.3810686E-1,1.3713593E0,1.902481E0,3.0408456E0,-7.2849566E-1,1.4998826E-1,4.26082E0,2.266734E0,1.3741554E0,-6.9019694E0,4.2640715E0,-7.3114395E-1,4.823095E0,6.864372E0,-1.7865695E-1,-2.5269407E-1,-1.633082E-1,-8.953356E-2,-9.759819E-2,4.4019684E-2,-1.1755711E-1,-4.3014117E-2,-1.3384776E-1,-6.0043674E-2,-1.8510659E-1,-8.517329E-2,-6.286947E-2,-2.4197121E-1,-4.143051E-2,6.5526806E-2,1.4937023E-2,1.692028E-1,-3.3816542E-2,-2.3551274E-3,-5.8821913E-2,7.1854875E-3,7.471264E-2,2.2672232E-2,7.787024E-2,1.706948E-2,1.0667741E-1,5.2639764E-2,8.536358E-2,1.3058114E-1,1.56837E-1,-3.6029872E-1,1.7258641E-1,6.090498E-1,-6.264911E-2,1.2985317E-1,1.3060893E-1,-4.4075634E-2,-5.291176E-1,-7.4804716E-2,2.5797513E-1,1.7198992E-1,1.4474337E-1,-4.474061E-1,1.9626333E-1,3.0258226E-1,3.1280228E-1,3.9696255E-1],"categories":[],"categories_nodes":[],"categories_segments":[],"categories_sizes":[],"default_left":[0,0,0,0,0,0,0,0,0,0,0,0,0,0,0,0,0,0,0,0,0,0,0,0,0,0,0,0,0,0,0,0,0,0,0,0,0,0,0,0,0,0,0,0,0,0,0,0,0,0,0,0,0,0,0,0,0,0,0,0,0,0,0,0,0,0,0,0,0,0,0,0,0,0,0,0,0,0,0,0,0,0,0,0,0,0,0,0,0,0,0,0,0,0,0,0,0,0,0,0,0,0,0,0,0,0,0,0,0,0,0],"id":12,"left_children":[1,3,5,7,9,11,13,15,17,19,21,23,25,27,29,31,33,35,37,39,41,43,45,47,49,51,53,55,57,59,61,63,65,-1,-1,67,69,71,73,75,77,79,81,83,85,-1,-1,-1,-1,87,89,91,93,-1,-1,95,97,99,101,103,105,107,109,-1,-1,-1,-1,-1,-1,-1,-1,-1,-1,-1,-1,-1,-1,-1,-1,-1,-1,-1,-1,-1,-1,-1,-1,-1,-1,-1,-1,-1,-1,-1,-1,-1,-1,-1,-1,-1,-1,-1,-1,-1,-1,-1,-1,-1,-1,-1,-1],"loss_changes":[2.496241E4,7.055467E3,3.493037E3,4.928506E2,4.5691287E2,3.693042E2,9.594287E2,8.621387E1,8.888672E1,1.1589844E2,3.3198022E2,8.6719696E1,2.0192603E2,3.6342737E2,4.836045E2,4.5124023E1,1.7159634E2,1.1782532E2,4.0114258E1,5.8766968E1,6.224137E1,1.7829672E2,3.2873166E2,7.10668E1,6.984137E1,1.777959E2,3.5015024E2,1.7142993E2,2.9985535E2,2.0083057E2,2.7894824E2,5.6878906E1,3.362793E1,0E0,0E0,1.1603049E2,4.059308E1,4.4836426E1,2.8268494E1,6.1242676E1,8.3270996E1,2.7539116E1,6.536168E1,1.106107E2,7.479822E1,0E0,0E0,0E0,0E0,3.5761265E1,5.4570374E1,8.012256E1,2.0242151E2,0E0,0E0,4.0011694E2,1.5672595E2,3.58135E1,1.2343762E2,1.9629541E2,2.9405728E2,1.2736035E2,6.0183105E1,0E0,0E0,0E0,0E0,0E0,0E0,0E0,0E0,0E0,0E0,0E0,0E0,0E0,0E0,0E0,0E0,0E0,0E0,0E0,0E0,0E0,0E0,0E0,0E0,0E0,0E0,0E0,0E0,0E0,0E0,0E0,0E0,0E0,0E0,0E0,0E0,0E0,0E0,0E0,0E0,0E0,0E0,0E0,0E0,0E0,0E0,0E0,0E0],"parents":[2147483647,0,0,1,1,2,2,3,3,4,4,5,5,6,6,7,7,8,8,9,9,10,10,11,11,12,12,13,13,14,14,15,15,16,16,17,17,18,18,19,19,20,20,21,21,22,22,23,23,24,24,25,25,26,26,27,27,28,28,29,29,30,30,31,31,32,32,35,35,36,36,37,37,38,38,39,39,40,40,41,41,42,42,43,43,44,44,49,49,50,50,51,51,52,52,55,55,56,56,57,57,58,58,59,59,60,60,61,61,62,62],"right_children":[2,4,6,8,10,12,14,16,18,20,22,24,26,28,30,32,34,36,38,40,42,44,46,48,50,52,54,56,58,60,62,64,66,-1,-1,68,70,72,74,76,78,80,82,84,86,-1,-1,-1,-1,88,90,92,94,-1,-1,96,98,100,102,104,106,108,110,-1,-1,-1,-1,-1,-1,-1,-1,-1,-1,-1,-1,-1,-1,-1,-1,-1,-1,-1,-1,-1,-1,-1,-1,-1,-1,-1,-1,-1,-1,-1,-1,-1,-1,-1,-1,-1,-1,-1,-1,-1,-1,-1,-1,-1,-1,-1,-1],"split_conditions":[8.70948E0,3.7998166E0,1.3899293E1,1.2628876E0,6.8671646E0,9.878723E0,1.48E1,4.2873283E1,2.5881904E-1,5.9401145E0,4.656573E1,2.8503947E0,1E2,1.2457448E1,1.5238508E1,1.5963581E0,6.4203444E0,8E0,3.682233E0,4.9425316E0,5.9451216E-1,8.076386E0,7.7964706E0,8.9597225E0,8.685502E0,1.4225575E1,1.0193727E1,7.5656147E0,2.4872072E1,4.2873283E1,1.9786867E1,3.7998166E0,2.1910446E1,-1.446477E-1,-7.650685E-1,7E0,7.255754E0,9.5E0,1.1112262E1,1.0494721E1,1.1947879E1,7.218126E-2,9.69644E0,6.588681E-1,7.070929E0,1.2079599E-1,-8.882393E-1,1.002264E-1,-3.13042E-1,6.0001516E0,7.070929E0,1.267582E1,4.656573E1,-7.2849566E-1,1.4998826E-1,2.1910446E1,2.8754458E0,7.5656147E0,2.3236883E1,1.5E1,1.0749992E1,1.8210726E1,2.69E1,-1.7865695E-1,-2.5269407E-1,-1.633082E-1,-8.953356E-2,-9.759819E-2,4.4019684E-2,-1.1755711E-1,-4.3014117E-2,-1.3384776E-1,-6.0043674E-2,-1.8510659E-1,-8.517329E-2,-6.286947E-2,-2.4197121E-1,-4.143051E-2,6.5526806E-2,1.4937023E-2,1.692028E-1,-3.3816542E-2,-2.3551274E-3,-5.8821913E-2,7.1854875E-3,7.471264E-2,2.2672232E-2,7.787024E-2,1.706948E-2,1.0667741E-1,5.2639764E-2,8.536358E-2,1.3058114E-1,1.56837E-1,-3.6029872E-1,1.7258641E-1,6.090498E-1,-6.264911E-2,1.2985317E-1,1.3060893E-1,-4.4075634E-2,-5.291176E-1,-7.4804716E-2,2.5797513E-1,1.7198992E-1,1.4474337E-1,-4.474061E-1,1.9626333E-1,3.0258226E-1,3.1280228E-1,3.9696255E-1],"split_indices":[0,0,0,0,0,0,66,42,60,17,42,52,62,51,16,14,9,59,13,0,1,16,0,0,17,16,0,19,15,0,0,16,37,0,0,59,24,66,24,9,9,13,7,37,24,0,0,0,0,13,24,0,13,0,0,1,42,3,14,59,23,40,66,0,0,0,0,0,0,0,0,0,0,0,0,0,0,0,0,0,0,0,0,0,0,0,0,0,0,0,0,0,0,0,0,0,0,0,0,0,0,0,0,0,0,0,0,0,0,0,0],"split_type":[0,0,0,0,0,0,0,0,0,0,0,0,0,0,0,0,0,0,0,0,0,0,0,0,0,0,0,0,0,0,0,0,0,0,0,0,0,0,0,0,0,0,0,0,0,0,0,0,0,0,0,0,0,0,0,0,0,0,0,0,0,0,0,0,0,0,0,0,0,0,0,0,0,0,0,0,0,0,0,0,0,0,0,0,0,0,0,0,0,0,0,0,0,0,0,0,0,0,0,0,0,0,0,0,0,0,0,0,0,0,0],"sum_hessian":[5.885E3,3.858E3,2.027E3,1.606E3,2.252E3,1.211E3,8.16E2,1.136E3,4.7E2,1.512E3,7.4E2,4.16E2,7.95E2,2.16E2,6E2,1.131E3,5E0,2.59E2,2.11E2,8.05E2,7.07E2,7.38E2,2E0,3E0,4.13E2,7.92E2,3E0,1.99E2,1.7E1,2.97E2,3.03E2,5.92E2,5.39E2,4E0,1E0,5.6E1,2.03E2,1.43E2,6.8E1,2.75E2,5.3E2,1.1E1,6.96E2,4.59E2,2.79E2,1E0,1E0,1E0,2E0,1.8E2,2.33E2,6.1E2,1.82E2,1E0,2E0,6.8E1,1.31E2,1.1E1,6E0,2.89E2,8E0,1.36E2,1.67E2,5.59E2,3.3E1,5.19E2,2E1,2.8E1,2.8E1,1.81E2,2.2E1,1.15E2,2.8E1,5.7E1,1.1E1,2.71E2,4E0,5.12E2,1.8E1,6E0,5E0,4.27E2,2.69E2,7.5E1,3.84E2,1.29E2,1.5E2,2.8E1,1.52E2,6.7E1,1.66E2,4.81E2,1.29E2,1.81E2,1E0,6.3E1,5E0,1.1E1,1.2E2,7E0,4E0,3E0,3E0,1.36E2,1.53E2,6E0,2E0,8.1E1,5.5E1,1.11E2,5.6E1],"tree_param":{"num_deleted":"0","num_feature":"68","num_nodes":"111","size_leaf_vector":"1"}},{"base_weights":[6.2237084E-3,-1.5477588E0,2.6159787E0,-2.9558284E0,-4.6160173E-1,1.486864E0,4.3588967E0,-3.2352242E0,-2.050659E0,-8.498947E-1,-9.703581E-2,1.096219E0,2.2308714E0,2.5252542E0,5.01227E0,-3.2023628E0,-7.8422155E0,-1.589688E0,-2.5432465E0,-1.0695461E0,-4.93532E-1,-3.7059522E-1,2.426981E-1,1.1323352E0,-7.078253E0,2.3136714E0,-2.7261906E0,2.7485468E0,-2.1498652E0,3.9838681E0,5.8412385E0,-3.3912668E0,-2.8761694E0,-2.1131613E0,-8.343126E-1,-4.578765E-1,-1.8876512E0,-2.075114E0,-3.1607394E0,-1.3656626E0,-8.1979054E-1,-1.1754638E0,-3.0060217E-1,2.3049023E0,-4.2475116E-1,5.5457604E-1,-1.9080941E-1,6.529253E-1,1.6026547E0,3.2772858E-2,-7.102832E-1,2.0534637E0,3.6150916E0,2.6493262E-2,-2.742749E-1,3.090136E0,9.40522E-2,-5.516162E-1,1.0498283E0,4.6042657E0,3.1429987E0,6.3922076E0,4.2727246E0,-1.7088775E-1,-7.960162E-2,-1.5082458E-1,-1.0027712E-1,-1.2628192E-1,-1.2694001E-3,-8.816442E-2,3.769645E-2,-8.9155875E-2,-3.3470967E-1,-1.1667974E-1,-3.337133E-2,-1.6219229E-1,-4.1654266E-2,-6.4612195E-2,-2.043172E-1,6.897854E-2,-4.350077E-2,1.9570592E-1,-6.726312E-2,9.830974E-2,-1.9233892E-2,4.3004323E-2,2.4897563E-1,-5.2215915E-2,-1.1119904E-2,5.1145356E-2,-6.8176324E-3,-6.645446E-2,-2.215125E-3,-2.3200203E-2,4.062241E-2,6.886303E-2,1.146675E-1,9.075808E-3,-6.617844E-3,6.386768E-2,1.2151893E-1,1.3684191E-1,2.4417622E-1,-6.087928E-2,6.308705E-2,2.2228472E-1,1.1357577E-1,-9.0809576E-2,5.2197453E-2,1.5798531E-1,-1.1887228E-1,7.129416E-2,2.4237047E-1,-2.8950572E-2,1.6196348E-1,3.2525036E-1,2.9462943E-2,1.03896596E-1,2.5406763E-1],"categories":[],"categories_nodes":[],"categories_segments":[],"categories_sizes":[],"default_left":[0,0,0,0,0,0,0,0,0,0,0,0,0,0,0,0,0,0,0,0,0,0,0,0,0,0,0,0,0,0,0,0,0,0,0,0,0,0,0,0,0,0,0,0,0,0,0,0,0,0,0,0,0,0,0,0,0,0,0,0,0,0,0,0,0,0,0,0,0,0,0,0,0,0,0,0,0,0,0,0,0,0,0,0,0,0,0,0,0,0,0,0,0,0,0,0,0,0,0,0,0,0,0,0,0,0,0,0,0,0,0,0,0,0,0,0,0,0,0],"id":13,"left_children":[1,3,5,7,9,11,13,15,17,19,21,23,25,27,29,31,33,35,37,39,41,43,45,47,49,51,53,55,57,59,61,63,65,67,-1,69,71,73,75,77,79,81,83,85,87,89,91,93,95,97,-1,99,101,103,-1,105,107,-1,109,111,113,115,117,-1,-1,-1,-1,-1,-1,-1,-1,-1,-1,-1,-1,-1,-1,-1,-1,-1,-1,-1,-1,-1,-1,-1,-1,-1,-1,-1,-1,-1,-1,-1,-1,-1,-1,-1,-1,-1,-1,-1,-1,-1,-1,-1,-1,-1,-1,-1,-1,-1,-1,-1,-1,-1,-1,-1,-1],"loss_changes":[2.3895078E4,5.6466523E3,4.3210527E3,4.0003027E2,2.952083E2,3.8585303E2,1.022459E3,1.6064551E2,8.269739E1,7.8530396E1,1.0018354E2,2.6722754E2,1.947019E2,2.4496655E2,5.1892676E2,6.5421875E1,3.70083E2,6.6583374E1,4.6340576E1,4.502954E1,5.056231E1,8.748076E1,6.51377E1,1.96245E2,2.031984E2,1.4564185E2,6.090933E1,1.9828687E2,3.2421463E2,1.3524951E2,2.7515918E2,3.1112305E1,4.941455E1,5.102829E0,0E0,6.935132E1,6.744995E1,3.737549E1,1.2192688E1,5.1448242E1,3.8867996E1,7.872285E1,5.850283E1,4.208902E1,7.323533E1,9.074281E1,3.3627823E1,7.788342E1,6.549585E1,9.771074E-2,0E0,1.0776343E2,6.9071045E1,9.220005E0,0E0,2.0518103E2,4.9073906E1,0E0,7.259219E1,1.19055176E2,4.666565E1,1.6439062E2,1.5626978E2,0E0,0E0,0E0,0E0,0E0,0E0,0E0,0E0,0E0,0E0,0E0,0E0,0E0,0E0,0E0,0E0,0E0,0E0,0E0,0E0,0E0,0E0,0E0,0E0,0E0,0E0,0E0,0E0,0E0,0E0,0E0,0E0,0E0,0E0,0E0,0E0,0E0,0E0,0E0,0E0,0E0,0E0,0E0,0E0,0E0,0E0,0E0,0E0,0E0,0E0,0E0,0E0,0E0,0E0,0E0,0E0],"parents":[2147483647,0,0,1,1,2,2,3,3,4,4,5,5,6,6,7,7,8,8,9,9,10,10,11,11,12,12,13,13,14,14,15,15,16,16,17,17,18,18,19,19,20,20,21,21,22,22,23,23,24,24,25,25,26,26,27,27,28,28,29,29,30,30,31,31,32,32,33,33,35,35,36,36,37,37,38,38,39,39,40,40,41,41,42,42,43,43,44,44,45,45,46,46,47,47,48,48,49,49,51,51,52,52,53,53,55,55,56,56,58,58,59,59,60,60,61,61,62,62],"right_children":[2,4,6,8,10,12,14,16,18,20,22,24,26,28,30,32,34,36,38,40,42,44,46,48,50,52,54,56,58,60,62,64,66,68,-1,70,72,74,76,78,80,82,84,86,88,90,92,94,96,98,-1,100,102,104,-1,106,108,-1,110,112,114,116,118,-1,-1,-1,-1,-1,-1,-1,-1,-1,-1,-1,-1,-1,-1,-1,-1,-1,-1,-1,-1,-1,-1,-1,-1,-1,-1,-1,-1,-1,-1,-1,-1,-1,-1,-1,-1,-1,-1,-1,-1,-1,-1,-1,-1,-1,-1,-1,-1,-1,-1,-1,-1,-1,-1,-1,-1],"split_conditions":[8.231734E0,3.7998166E0,1.3744706E1,1.5963581E0,5.885385E0,1.1112262E1,1.49E1,2.645264E1,2.5881904E-1,6.3247313E0,6.6960273E0,1E2,3.9870403E1,1.3502304E1,1.8608679E1,7.218126E-2,5.8498516E0,8E0,3.2161992E0,4.895143E0,4.797327E0,3.5680002E-1,5E-1,8.495422E0,8.583692E0,1.7609127E1,6.8742313E0,9.2E1,4.9472284E0,1.4E1,1.5E1,3.1647978E1,1.0209352E1,5.7319093E0,-8.343126E-1,7E0,8.788248E0,1E1,9.702899E0,1.0408482E1,-8.660254E-1,3.7E1,7.218126E-2,1.6399291E-1,2.7620537E0,5E0,5.5262513E0,8.5274285E-1,1.7609127E1,8.349791E0,-7.102832E-1,1.18E1,1.9783825E1,3.4507117E0,-2.742749E-1,7.7121215E0,1.049308E0,-5.516162E-1,5.650825E0,4.107233E0,5.265924E-1,8.5E0,8.37079E0,-1.7088775E-1,-7.960162E-2,-1.5082458E-1,-1.0027712E-1,-1.2628192E-1,-1.2694001E-3,-8.816442E-2,3.769645E-2,-8.9155875E-2,-3.3470967E-1,-1.1667974E-1,-3.337133E-2,-1.6219229E-1,-4.1654266E-2,-6.4612195E-2,-2.043172E-1,6.897854E-2,-4.350077E-2,1.9570592E-1,-6.726312E-2,9.830974E-2,-1.9233892E-2,4.3004323E-2,2.4897563E-1,-5.2215915E-2,-1.1119904E-2,5.1145356E-2,-6.8176324E-3,-6.645446E-2,-2.215125E-3,-2.3200203E-2,4.062241E-2,6.886303E-2,1.146675E-1,9.075808E-3,-6.617844E-3,6.386768E-2,1.2151893E-1,1.3684191E-1,2.4417622E-1,-6.087928E-2,6.308705E-2,2.2228472E-1,1.1357577E-1,-9.0809576E-2,5.2197453E-2,1.5798531E-1,-1.1887228E-1,7.129416E-2,2.4237047E-1,-2.8950572E-2,1.6196348E-1,3.2525036E-1,2.9462943E-2,1.03896596E-1,2.5406763E-1],"split_indices":[0,0,0,0,0,0,66,16,60,16,14,62,13,51,0,0,9,59,13,0,4,13,60,14,0,16,2,62,2,59,59,37,10,4,0,59,5,66,19,9,60,62,46,14,42,56,13,29,10,0,0,66,10,3,0,19,10,0,6,2,14,67,15,0,0,0,0,0,0,0,0,0,0,0,0,0,0,0,0,0,0,0,0,0,0,0,0,0,0,0,0,0,0,0,0,0,0,0,0,0,0,0,0,0,0,0,0,0,0,0,0,0,0,0,0,0,0,0,0],"split_type":[0,0,0,0,0,0,0,0,0,0,0,0,0,0,0,0,0,0,0,0,0,0,0,0,0,0,0,0,0,0,0,0,0,0,0,0,0,0,0,0,0,0,0,0,0,0,0,0,0,0,0,0,0,0,0,0,0,0,0,0,0,0,0,0,0,0,0,0,0,0,0,0,0,0,0,0,0,0,0,0,0,0,0,0,0,0,0,0,0,0,0,0,0,0,0,0,0,0,0,0,0,0,0,0,0,0,0,0,0,0,0,0,0,0,0,0,0,0,0],"sum_hessian":[5.89E3,3.692E3,2.198E3,1.607E3,2.085E3,1.335E3,8.63E2,1.226E3,3.81E2,1.009E3,1.076E3,8.77E2,4.58E2,2.28E2,6.35E2,1.219E3,7E0,1.99E2,1.82E2,6.23E2,3.86E2,5.96E2,4.8E2,8.74E2,3E0,4.51E2,7E0,2.18E2,1E1,2.86E2,3.49E2,7.66E2,4.53E2,5E0,2E0,4.2E1,1.57E2,1.06E2,7.6E1,2.83E2,3.4E2,8.4E1,3.02E2,1.1E1,5.85E2,2.79E2,2.01E2,4.34E2,4.4E2,2E0,1E0,3.78E2,7.3E1,4E0,3E0,1.93E2,2.5E1,2E0,8E0,1.62E2,1.24E2,2.56E2,9.3E1,7.54E2,1.2E1,3.88E2,6.5E1,4E0,1E0,2E1,2.2E1,1.55E2,2E0,8.9E1,1.7E1,7.3E1,3E0,2.77E2,6E0,7E0,3.33E2,2E0,8.2E1,1E1,2.92E2,8E0,3E0,1.43E2,4.42E2,1.66E2,1.13E2,2.2E1,1.79E2,5.4E1,3.8E2,3.34E2,1.06E2,1E0,1E0,1.25E2,2.53E2,4.5E1,2.8E1,2E0,2E0,7.1E1,1.22E2,8E0,1.7E1,5E0,3E0,1.2E1,1.5E2,3E0,1.21E2,2.51E2,5E0,2.6E1,6.7E1],"tree_param":{"num_deleted":"0","num_feature":"68","num_nodes":"119","size_leaf_vector":"1"}},{"base_weights":[1.06265E-3,-1.4206499E0,2.6490533E0,-2.957739E0,-4.513109E-1,1.4642409E0,3.96819E0,-3.3282332E0,-2.5004368E0,-9.977559E-1,-4.1345216E-2,7.950697E-1,1.8112504E0,2.5210469E0,4.6790557E0,-3.2955408E0,-7.9914403E0,-2.7217805E0,-2.1540287E0,-1.4091284E0,-7.7622217E-1,-1.5611594E-2,-8.689E-1,1.1136706E-1,1.1296675E0,1.6150796E0,3.231817E0,2.8061056E0,-4.7545174E-1,3.2725635E0,5.36043E0,-3.2282152E0,-4.1503963E0,-7.25084E-1,-1.3692304E-1,-2.6787305E0,-7.597578E0,-2.4984493E0,-1.566624E0,2.1228456E-1,-1.4372549E0,-8.737176E-1,3.212554E-2,-1.8563657E-1,9.6211004E-1,-1.7859608E-1,1.7035252E-1,-2.7805194E-1,1.1786745E0,1.2839307E0,2.080874E0,-2.1483834E-1,3.4472258E0,1.4670368E0,3.3840141E0,5.8318768E-2,-3.049214E0,3.36077E0,-4.1103535E0,4.4581714E0,6.4163375E0,-1.6043322E-1,-3.5460344E-1,-1.580994E-1,-6.799883E-1,-9.360187E-2,-1.425754E-1,-8.514906E-2,-4.846693E-1,-7.767084E-2,-1.3435769E-1,-5.3736802E-2,-1.21245064E-1,-7.489988E-2,2.9097585E-2,-8.076538E-3,-4.8240956E-2,-3.6672324E-2,3.3145968E-2,-6.028521E-2,-4.789771E-3,6.224887E-4,6.7969866E-2,1.0112589E-1,2.9041602E-3,4.8888087E-2,9.813852E-2,6.6567004E-2,-4.07624E-1,1.0778587E-1,-7.296239E-2,5.7566423E-2,-5.9287693E-2,1.9410495E-1,9.6337855E-2,1.05846286E-1,-2.3446932E-1,3.0082447E-2,1.8317485E-1,-2.0068197E-2,1.2859969E-1,-2.0130281E-1,-5.2798342E-2,1.3324855E-1,2.2698958E-1,1.1873255E-1,-4.2700908E-1,2.3317074E-2,2.3423623E-1,1.9904295E-1,3.454414E-1],"categories":[],"categories_nodes":[],"categories_segments":[],"categories_sizes":[],"default_left":[0,0,0,0,0,0,0,0,0,0,0,0,0,0,0,0,0,0,0,0,0,0,0,0,0,0,0,0,0,0,0,0,0,0,0,0,0,0,0,0,0,0,0,0,0,0,0,0,0,0,0,0,0,0,0,0,0,0,0,0,0,0,0,0,0,0,0,0,0,0,0,0,0,0,0,0,0,0,0,0,0,0,0,0,0,0,0,0,0,0,0,0,0,0,0,0,0,0,0,0,0,0,0,0,0,0,0,0,0,0,0],"id":14,"left_children":[1,3,5,7,9,11,13,15,17,19,21,23,25,27,29,31,33,35,37,39,41,43,-1,45,47,49,51,53,55,57,59,61,63,-1,-1,65,67,69,71,-1,73,75,77,79,81,-1,83,-1,85,87,89,91,93,95,97,99,101,103,105,107,109,-1,-1,-1,-1,-1,-1,-1,-1,-1,-1,-1,-1,-1,-1,-1,-1,-1,-1,-1,-1,-1,-1,-1,-1,-1,-1,-1,-1,-1,-1,-1,-1,-1,-1,-1,-1,-1,-1,-1,-1,-1,-1,-1,-1,-1,-1,-1,-1,-1,-1],"loss_changes":[2.2264326E4,5.732033E3,3.2232012E3,2.4378613E2,5.2887866E2,2.5166748E2,9.932666E2,9.8521484E1,4.5509277E1,9.113269E1,6.0201086E2,8.543248E1,1.9458936E2,2.780879E2,6.092168E2,3.3507812E1,1.3127847E2,6.4659424E1,4.9901367E1,6.2246765E1,5.2042786E1,2.2443242E2,0E0,2.754878E1,8.885538E1,9.4812744E1,6.459039E1,2.240979E2,4.0017975E1,1.5447778E2,3.8963086E2,3.465674E1,4.800285E2,0E0,0E0,5.08313E1,2.0554184E1,2.5428833E1,4.003366E1,0E0,4.4045288E1,3.8059235E1,3.5256317E1,1.0527515E2,7.5440674E1,0E0,2.5459307E1,0E0,3.746457E1,1.7727704E2,7.2298584E1,9.323787E0,4.6078247E1,3.7401727E2,1.5798633E2,2.9919628E1,5.4840584E0,1.6345923E2,1.0646231E2,2.1486182E2,2.1238672E2,0E0,0E0,0E0,0E0,0E0,0E0,0E0,0E0,0E0,0E0,0E0,0E0,0E0,0E0,0E0,0E0,0E0,0E0,0E0,0E0,0E0,0E0,0E0,0E0,0E0,0E0,0E0,0E0,0E0,0E0,0E0,0E0,0E0,0E0,0E0,0E0,0E0,0E0,0E0,0E0,0E0,0E0,0E0,0E0,0E0,0E0,0E0,0E0,0E0,0E0],"parents":[2147483647,0,