{"learner":{"attributes":{"best_iteration":"43","best_score":"3.0831584875352647"},"feature_names":["Elec_P_LVMDB_ETA_kW","Elec_P_LVMDB_ETA_kW_lag1","Elec_P_LVMDB_ETA_kW_lag10","Elec_P_LVMDB_ETA_kW_lag11","Elec_P_LVMDB_ETA_kW_lag12","Elec_P_LVMDB_ETA_kW_lag13","Elec_P_LVMDB_ETA_kW_lag14","Elec_P_LVMDB_ETA_kW_lag15","Elec_P_LVMDB_ETA_kW_lag16","Elec_P_LVMDB_ETA_kW_lag168","Elec_P_LVMDB_ETA_kW_lag17","Elec_P_LVMDB_ETA_kW_lag18","Elec_P_LVMDB_ETA_kW_lag19","Elec_P_LVMDB_ETA_kW_lag2","Elec_P_LVMDB_ETA_kW_lag20","Elec_P_LVMDB_ETA_kW_lag21","Elec_P_LVMDB_ETA_kW_lag22","Elec_P_LVMDB_ETA_kW_lag23","Elec_P_LVMDB_ETA_kW_lag24","Elec_P_LVMDB_ETA_kW_lag25","Elec_P_LVMDB_ETA_kW_lag26","Elec_P_LVMDB_ETA_kW_lag27","Elec_P_LVMDB_ETA_kW_lag28","Elec_P_LVMDB_ETA_kW_lag29","Elec_P_LVMDB_ETA_kW_lag3","Elec_P_LVMDB_ETA_kW_lag30","Elec_P_LVMDB_ETA_kW_lag31","Elec_P_LVMDB_ETA_kW_lag32","Elec_P_LVMDB_ETA_kW_lag33","Elec_P_LVMDB_ETA_kW_lag34","Elec_P_LVMDB_ETA_kW_lag35","Elec_P_LVMDB_ETA_kW_lag36","Elec_P_LVMDB_ETA_kW_lag37","Elec_P_LVMDB_ETA_kW_lag38","Elec_P_LVMDB_ETA_kW_lag39","Elec_P_LVMDB_ETA_kW_lag4","Elec_P_LVMDB_ETA_kW_lag40","Elec_P_LVMDB_ETA_kW_lag41","Elec_P_LVMDB_ETA_kW_lag42","Elec_P_LVMDB_ETA_kW_lag43","Elec_P_LVMDB_ETA_kW_lag44","Elec_P_LVMDB_ETA_kW_lag45","Elec_P_LVMDB_ETA_kW_lag46","Elec_P_LVMDB_ETA_kW_lag47","Elec_P_LVMDB_ETA_kW_lag48","Elec_P_LVMDB_ETA_kW_lag5","Elec_P_LVMDB_ETA_kW_lag6","Elec_P_LVMDB_ETA_kW_lag7","Elec_P_LVMDB_ETA_kW_lag8","Elec_P_LVMDB_ETA_kW_lag9","Elec_P_LVMDB_ETA_kW_rollmean168","Elec_P_LVMDB_ETA_kW_rollmean24","Elec_P_LVMDB_ETA_kW_rollmean6","Elec_P_LVMDB_ETA_kW_rollstd168","Elec_P_LVMDB_ETA_kW_rollstd24","Elec_P_LVMDB_ETA_kW_rollstd6","dow","dow_cos","dow_sin","hour","hour_cos","hour_sin","humidity_percent","is_weekend","month","precipitation_height_mm","temperature_air_mean_C","wind_speed_m_per_s"],"feature_types":[],"gradient_booster":{"model":{"cats":{"enc":[],"feature_segments":[],"sorted_idx":[]},"gbtree_model_param":{"num_parallel_tree":"1","num_trees":"94"},"iteration_indptr":[0,1,2,3,4,5,6,7,8,9,10,11,12,13,14,15,16,17,18,19,20,21,22,23,24,25,26,27,28,29,30,31,32,33,34,35,36,37,38,39,40,41,42,43,44,45,46,47,48,49,50,51,52,53,54,55,56,57,58,59,60,61,62,63,64,65,66,67,68,69,70,71,72,73,74,75,76,77,78,79,80,81,82,83,84,85,86,87,88,89,90,91,92,93,94],"tree_info":[0,0,0,0,0,0,0,0,0,0,0,0,0,0,0,0,0,0,0,0,0,0,0,0,0,0,0,0,0,0,0,0,0,0,0,0,0,0,0,0,0,0,0,0,0,0,0,0,0,0,0,0,0,0,0,0,0,0,0,0,0,0,0,0,0,0,0,0,0,0,0,0,0,0,0,0,0,0,0,0,0,0,0,0,0,0,0,0,0,0,0,0,0,0],"trees":[{"base_weights":[-5.5042677E-2,-2.1262424E0,3.685064E0,-3.5802138E0,1.3857932E-1,2.2887797E0,6.877051E0,-4.5543613E0,-2.1450236E0,2.3285975E0,-4.9327785E-1,3.5034091E0,6.439505E-1,3.2078557E0,8.404862E0,-5.768442E0,-4.045138E0,-5.295832E-1,-4.63976E0,5.19506E-1,6.4843135E0,-8.2500744E-1,1.5372512E0,2.0341716E0,4.725994E0,-2.1742907E0,1.900119E0,7.5709696E0,1.4388483E0,2.1474085E0,9.502499E0,-6.119479E0,-4.431142E0,-4.5756364E0,-2.9359334E0,-3.454591E0,3.2642266E-1,-3.2872405E0,-5.6677375E0,1.2219247E0,-1.8626156E0,7.9549646E0,3.1105866E0,-1.1779257E0,2.861477E-1,8.9963955E-1,3.3223975E0,-1.3680922E0,3.0306554E0,3.3580868E0,7.3262906E0,-3.7911491E0,-1.1192591E0,8.0518585E-1,2.6114647E0,-3.2839346E0,8.745632E0,-6.64903E-1,3.92657E0,-8.647216E-1,3.2490697E0,4.3990836E0,1.0073274E1,-3.0837587E-1,4.661677E-2,-2.3120575E-1,1.2567371E-1,-2.5177857E-1,-1.6949393E-1,-7.71277E-2,-1.6602443E-1,-4.082437E-2,-2.7155095E-1,-9.342083E-2,7.094914E-2,-1.2901224E-1,-2.0370081E-1,-1.2530325E-1,-2.8831792E-1,3.0871034E-1,3.8215574E-2,-1.5449278E-1,7.7300346E-3,-6.1453607E-2,4.1237298E-1,-1.14115074E-1,1.7730945E-1,-8.529325E-2,-3.5283588E-2,1.7800233E-1,6.3470714E-3,9.907908E-3,1.20407395E-1,1.9312055E-1,-2.8070942E-2,-4.3483943E-2,-1.1057909E0,1.1217512E-1,2.4136989E-1,3.9128646E-2,1.9474792E-1,4.7042903E-1,2.9451016E-1,-2.3657978E-1,-4.841708E-2,-2.772797E-1,-3.7175678E-2,2.2628191E-1,2.721862E-2,1.9150294E-1,9.864075E-2,-2.1826666E-2,-2.2992508E-1,3.7427068E-1,6.209311E-1,1.8933676E-1,-1.5775487E-1,7.407039E-2,2.9483312E-1,1.4721885E-2,-2.0846276E-1,7.741421E-2,2.2136422E-1,-6.893908E-2,2.9433188E-1,3.3142886E-1,5.2480847E-1],"categories":[],"categories_nodes":[],"categories_segments":[],"categories_sizes":[],"default_left":[0,0,0,0,0,0,0,0,0,0,0,0,0,0,0,0,0,0,0,0,0,0,0,0,0,0,0,0,0,0,0,0,0,0,0,0,0,0,0,0,0,0,0,0,0,0,0,0,0,0,0,0,0,0,0,0,0,0,0,0,0,0,0,0,0,0,0,0,0,0,0,0,0,0,0,0,0,0,0,0,0,0,0,0,0,0,0,0,0,0,0,0,0,0,0,0,0,0,0,0,0,0,0,0,0,0,0,0,0,0,0,0,0,0,0,0,0,0,0,0,0,0,0,0,0,0,0],"id":0,"left_children":[1,3,5,7,9,11,13,15,17,19,21,23,25,27,29,31,33,35,37,39,41,43,45,47,49,51,53,55,57,59,61,63,65,67,69,71,73,75,77,79,81,83,85,87,89,91,93,95,97,99,101,103,105,107,109,111,113,115,117,119,121,123,125,-1,-1,-1,-1,-1,-1,-1,-1,-1,-1,-1,-1,-1,-1,-1,-1,-1,-1,-1,-1,-1,-1,-1,-1,-1,-1,-1,-1,-1,-1,-1,-1,-1,-1,-1,-1,-1,-1,-1,-1,-1,-1,-1,-1,-1,-1,-1,-1,-1,-1,-1,-1,-1,-1,-1,-1,-1,-1,-1,-1,-1,-1,-1,-1],"loss_changes":[4.5317164E4,1.2398588E4,9.276941E3,3.1960469E3,2.0394548E3,2.8986348E3,3.5271387E3,8.205586E2,3.741504E3,2.4775945E3,7.718512E2,1.4902705E3,2.1919663E3,1.4401622E3,3.0497734E3,1.6113086E2,5.5440234E2,1.4157882E3,4.8884863E2,3.8879593E2,4.714131E2,3.862096E2,1.8026608E2,1.2958507E3,1.5938154E3,3.215714E2,3.312561E2,7.172656E2,7.0913965E2,2.2845721E2,1.0625938E3,1.1245801E2,1.2821313E2,3.379668E2,1.6366455E2,6.629603E2,1.0529725E3,7.848755E1,4.978174E1,4.0093594E2,1.3168497E2,1.9549023E2,8.326648E1,1.850393E2,1.235997E2,1.2650568E2,9.0255646E1,8.804282E2,4.063916E2,4.1176807E2,4.1107617E2,1.9452063E2,1.9046837E2,1.6249489E2,1.9401208E2,2.0451202E1,1.3385132E2,8.322704E2,2.8993066E2,7.400672E1,9.333978E1,3.5191174E2,4.2717578E2,0E0,0E0,0E0,0E0,0E0,0E0,0E0,0E0,0E0,0E0,0E0,0E0,0E0,0E0,0E0,0E0,0E0,0E0,0E0,0E0,0E0,0E0,0E0,0E0,0E0,0E0,0E0,0E0,0E0,0E0,0E0,0E0,0E0,0E0,0E0,0E0,0E0,0E0,0E0,0E0,0E0,0E0,0E0,0E0,0E0,0E0,0E0,0E0,0E0,0E0,0E0,0E0,0E0,0E0,0E0,0E0,0E0,0E0,0E0,0E0,0E0,0E0,0E0,0E0],"parents":[2147483647,0,0,1,1,2,2,3,3,4,4,5,5,6,6,7,7,8,8,9,9,10,10,11,11,12,12,13,13,14,14,15,15,16,16,17,17,18,18,19,19,20,20,21,21,22,22,23,23,24,24,25,25,26,26,27,27,28,28,29,29,30,30,31,31,32,32,33,33,34,34,35,35,36,36,37,37,38,38,39,39,40,40,41,41,42,42,43,43,44,44,45,45,46,46,47,47,48,48,49,49,50,50,51,51,52,52,53,53,54,54,55,55,56,56,57,57,58,58,59,59,60,60,61,61,62,62],"right_children":[2,4,6,8,10,12,14,16,18,20,22,24,26,28,30,32,34,36,38,40,42,44,46,48,50,52,54,56,58,60,62,64,66,68,70,72,74,76,78,80,82,84,86,88,90,92,94,96,98,100,102,104,106,108,110,112,114,116,118,120,122,124,126,-1,-1,-1,-1,-1,-1,-1,-1,-1,-1,-1,-1,-1,-1,-1,-1,-1,-1,-1,-1,-1,-1,-1,-1,-1,-1,-1,-1,-1,-1,-1,-1,-1,-1,-1,-1,-1,-1,-1,-1,-1,-1,-1,-1,-1,-1,-1,-1,-1,-1,-1,-1,-1,-1,-1,-1,-1,-1,-1,-1,-1,-1,-1,-1],"split_conditions":[8.545999E0,7.264411E0,1.5238508E1,1.2246469E-16,1E0,4E0,1.0092452E1,1.1936569E0,5E0,5E-1,9.147107E0,5E-1,8.353032E0,5.166047E0,-7.818315E-1,5.0253544E0,4.0141416E0,3.6576054E0,-2.5881904E-1,1E1,1E1,8.792398E0,1.5629645E1,8.125077E0,9.77801E0,6.284426E0,1.2179344E1,3.8024194E0,1.2403033E1,1.2404801E1,1.2246469E-16,8.450063E0,1.8862566E1,3.1482177E0,7.218126E-2,2E0,5E-1,7.6E1,5.35E1,4.2827625E0,-2.5881904E-1,1.6022457E0,1.8476268E0,8.933335E0,6.0933695E0,1.2246469E-16,5E0,1.3438365E1,1.1828593E1,3.4669502E0,1E0,1.19979315E1,2.1371763E0,4.7602654E0,5E0,3.292584E0,1.7395555E1,7.1379644E-1,5.114893E0,2E-1,7.070929E0,1.07619505E1,7.920374E0,-3.0837587E-1,4.661677E-2,-2.3120575E-1,1.2567371E-1,-2.5177857E-1,-1.6949393E-1,-7.71277E-2,-1.6602443E-1,-4.082437E-2,-2.7155095E-1,-9.342083E-2,7.094914E-2,-1.2901224E-1,-2.0370081E-1,-1.2530325E-1,-2.8831792E-1,3.0871034E-1,3.8215574E-2,-1.5449278E-1,7.7300346E-3,-6.1453607E-2,4.1237298E-1,-1.14115074E-1,1.7730945E-1,-8.529325E-2,-3.5283588E-2,1.7800233E-1,6.3470714E-3,9.907908E-3,1.20407395E-1,1.9312055E-1,-2.8070942E-2,-4.3483943E-2,-1.1057909E0,1.1217512E-1,2.4136989E-1,3.9128646E-2,1.9474792E-1,4.7042903E-1,2.9451016E-1,-2.3657978E-1,-4.841708E-2,-2.772797E-1,-3.7175678E-2,2.2628191E-1,2.721862E-2,1.9150294E-1,9.864075E-2,-2.1826666E-2,-2.2992508E-1,3.7427068E-1,6.209311E-1,1.8933676E-1,-1.5775487E-1,7.407039E-2,2.9483312E-1,1.4721885E-2,-2.0846276E-1,7.741421E-2,2.2136422E-1,-6.893908E-2,2.9433188E-1,3.3142886E-1,5.2480847E-1],"split_indices":[11,50,8,61,56,56,50,0,56,61,8,61,50,53,58,8,8,50,60,64,64,15,7,50,50,16,40,37,37,50,61,14,3,36,2,64,61,62,62,5,61,36,52,50,20,61,56,2,11,36,56,6,40,24,56,9,36,45,45,65,1,28,14,0,0,0,0,0,0,0,0,0,0,0,0,0,0,0,0,0,0,0,0,0,0,0,0,0,0,0,0,0,0,0,0,0,0,0,0,0,0,0,0,0,0,0,0,0,0,0,0,0,0,0,0,0,0,0,0,0,0,0,0,0,0,0,0],"split_type":[0,0,0,0,0,0,0,0,0,0,0,0,0,0,0,0,0,0,0,0,0,0,0,0,0,0,0,0,0,0,0,0,0,0,0,0,0,0,0,0,0,0,0,0,0,0,0,0,0,0,0,0,0,0,0,0,0,0,0,0,0,0,0,0,0,0,0,0,0,0,0,0,0,0,0,0,0,0,0,0,0,0,0,0,0,0,0,0,0,0,0,0,0,0,0,0,0,0,0,0,0,0,0,0,0,0,0,0,0,0,0,0,0,0,0,0,0,0,0,0,0,0,0,0,0,0,0],"sum_hessian":[5.848E3,3.764E3,2.084E3,2.292E3,1.472E3,1.451E3,6.33E2,1.364E3,9.28E2,3.29E2,1.143E3,8.34E2,6.17E2,1.87E2,4.46E2,4E2,9.64E2,5.64E2,3.64E2,2.3E2,9.9E1,9.83E2,1.6E2,3.8E2,4.54E2,1.9E2,4.27E2,5.3E1,1.34E2,6.7E1,3.79E2,3.14E2,8.6E1,6.5E2,3.14E2,1.27E2,4.37E2,1.59E2,2.05E2,1.78E2,5.2E1,6.8E1,3.1E1,7.46E2,2.37E2,1.19E2,4.1E1,8.6E1,2.94E2,2.99E2,1.55E2,7.4E1,1.16E2,1.69E2,2.58E2,5E0,4.8E1,7.3E1,6.1E1,1.8E1,4.9E1,3.9E1,3.4E2,3.12E2,2E0,8.4E1,2E0,4.66E2,1.84E2,6.9E1,2.45E2,5.5E1,7.2E1,1.45E2,2.92E2,8.6E1,7.3E1,7E0,1.98E2,1.4E1,1.64E2,3.2E1,2E1,2E0,6.6E1,2E0,2.9E1,3.51E2,3.95E2,1E1,2.27E2,8.2E1,3.7E1,3.6E1,5E0,8.5E1,1E0,2.06E2,8.8E1,5.2E1,2.47E2,6.1E1,9.4E1,5.5E1,1.9E1,8E0,1.08E2,1E1,1.59E2,8.7E1,1.71E2,2E0,3E0,3.8E1,1E1,2.6E1,4.7E1,2.8E1,3.3E1,1.4E1,4E0,2.1E1,2.8E1,8E0,3.1E1,3.9E1,3.01E2],"tree_param":{"num_deleted":"0","num_feature":"68","num_nodes":"127","size_leaf_vector":"1"}},{"base_weights":[2.8939793E-2,-1.9603088E0,3.941281E0,-3.3468494E0,1.7945375E-1,2.4468808E0,6.6332335E0,-4.325275E0,-1.9361644E0,2.534395E0,-4.745195E-1,7.667738E0,2.0115795E0,3.1362503E0,8.570817E0,-5.0561166E0,-3.0853438E0,-3.5785845E-1,-4.480857E0,1.4437257E-1,5.5370965E0,-8.27474E-1,1.0717748E0,2.55775E0,9.574948E0,3.1005933E0,6.9980013E-1,3.5031662E0,-1.2613464E1,9.535739E0,2.3006568E0,-5.9708705E0,-4.556317E0,-3.6676652E0,-2.4143708E0,-5.5230837E0,3.0055577E-1,-5.51078E0,-3.4866025E0,1.1104856E0,-2.841115E0,4.5113907E0,8.843539E0,-8.8373053E-1,8.452129E0,8.2821345E-1,6.798161E0,1.9496518E-1,1.3078784E0,3.7948358E0,1.0248695E1,3.5291066E0,4.5305985E-1,-2.133034E0,1.9730711E0,5.083591E0,9.742162E-1,-2.2677498E0,-1.1101631E0,2.0133858E0,9.72639E0,4.387848E-1,3.7244213E0,-3.0474675E-1,-1.747978E-1,-2.5108746E-1,-1.8681043E-1,-2.0990737E-1,-1.2776515E-1,-1.07208155E-1,-2.851434E-1,-2.9438448E-1,8.9126505E-2,-3.3545952E-2,6.446131E-2,-1.1325858E-1,-2.795057E-1,-1.3819236E-1,-2.231956E-1,3.5872553E-2,4.293973E-1,-8.320123E-2,-2.581417E-1,2.7707192E-1,1.4790842E-1,3.0456176E-1,4.8682657E-1,-6.401249E-2,-4.3376517E-3,-1.9513136E-2,6.4854455E-1,-5.829498E-2,5.7184786E-2,4.34733E-1,5.3471527E-3,-5.0676495E-2,8.559515E-2,2.623517E-1,-1.9556868E-1,3.3530328E-1,5.4345673E-1,1.2841885E-1,2.2351502E-1,-3.4231883E-2,1.6618179E-1,-1.48144765E-2,-1.3837902E-1,1.5332775E-1,6.887546E-2,-2.1148205E-1,2.8132972E-1,-8.8884346E-2,2.4700601E-1,-9.931803E-3,-1.4456213E-1,-1.0139704E-1,2.8595743E-1,3.4758884E-1,5.0748307E-1,5.2810498E-2,-1.000571E-1,8.289426E-2,2.1376625E-1],"categories":[],"categories_nodes":[],"categories_segments":[],"categories_sizes":[],"default_left":[0,0,0,0,0,0,0,0,0,0,0,0,0,0,0,0,0,0,0,0,0,0,0,0,0,0,0,0,0,0,0,0,0,0,0,0,0,0,0,0,0,0,0,0,0,0,0,0,0,0,0,0,0,0,0,0,0,0,0,0,0,0,0,0,0,0,0,0,0,0,0,0,0,0,0,0,0,0,0,0,0,0,0,0,0,0,0,0,0,0,0,0,0,0,0,0,0,0,0,0,0,0,0,0,0,0,0,0,0,0,0,0,0,0,0,0,0,0,0,0,0,0,0],"id":1,"left_children":[1,3,5,7,9,11,13,15,17,19,21,23,25,27,29,31,33,35,37,39,41,43,45,47,49,51,53,55,57,59,61,63,65,67,69,71,73,75,77,79,81,83,85,87,89,91,93,-1,95,97,99,101,103,105,107,109,111,113,-1,115,117,119,121,-1,-1,-1,-1,-1,-1,-1,-1,-1,-1,-1,-1,-1,-1,-1,-1,-1,-1,-1,-1,-1,-1,-1,-1,-1,-1,-1,-1,-1,-1,-1,-1,-1,-1,-1,-1,-1,-1,-1,-1,-1,-1,-1,-1,-1,-1,-1,-1,-1,-1,-1,-1,-1,-1,-1,-1,-1,-1,-1,-1],"loss_changes":[4.583179E4,1.1583252E4,7.969135E3,3.2614395E3,2.3667478E3,2.889017E3,4.7703125E3,1.2512578E3,3.902244E3,2.3961594E3,6.5744995E2,9.306001E2,1.6849424E3,1.5120068E3,2.7309062E3,3.742129E2,1.9471094E2,2.0455753E3,3.6171582E2,5.425226E2,4.6203662E2,5.1906726E2,3.0678836E2,4.1849747E1,2.3760547E2,7.3015576E2,1.9411492E3,9.9025464E2,5.4492847E2,5.4547266E2,1.6271957E2,7.2956055E1,1.9957324E2,1.5272705E2,2.0547339E2,1.9162476E2,5.137551E2,3.394287E1,1.23282715E2,4.111624E2,1.1712106E2,1.6759521E2,2.4256836E1,3.0800537E2,2.4480203E2,1.372206E2,1.13279175E2,0E0,1.6741566E1,1.2124158E2,6.5583984E1,4.9036816E2,2.994676E2,1.9381836E2,2.3738464E2,7.9753735E2,1.067419E3,4.5860043E0,0E0,1.7633626E2,3.8041406E2,4.4294846E1,3.275818E1,0E0,0E0,0E0,0E0,0E0,0E0,0E0,0E0,0E0,0E0,0E0,0E0,0E0,0E0,0E0,0E0,0E0,0E0,0E0,0E0,0E0,0E0,0E0,0E0,0E0,0E0,0E0,0E0,0E0,0E0,0E0,0E0,0E0,0E0,0E0,0E0,0E0,0E0,0E0,0E0,0E0,0E0,0E0,0E0,0E0,0E0,0E0,0E0,0E0,0E0,0E0,0E0,0E0,0E0,0E0,0E0,0E0,0E0,0E0,0E0],"parents":[2147483647,0,0,1,1,2,2,3,3,4,4,5,5,6,6,7,7,8,8,9,9,10,10,11,11,12,12,13,13,14,14,15,15,16,16,17,17,18,18,19,19,20,20,21,21,22,22,23,23,24,24,25,25,26,26,27,27,28,28,29,29,30,30,31,31,32,32,33,33,34,34,35,35,36,36,37,37,38,38,39,39,40,40,41,41,42,42,43,43,44,44,45,45,46,46,48,48,49,49,50,50,51,51,52,52,53,53,54,54,55,55,56,56,57,57,59,59,60,60,61,61,62,62],"right_children":[2,4,6,8,10,12,14,16,18,20,22,24,26,28,30,32,34,36,38,40,42,44,46,48,50,52,54,56,58,60,62,64,66,68,70,72,74,76,78,80,82,84,86,88,90,92,94,-1,96,98,100,102,104,106,108,110,112,114,-1,116,118,120,122,-1,-1,-1,-1,-1,-1,-1,-1,-1,-1,-1,-1,-1,-1,-1,-1,-1,-1,-1,-1,-1,-1,-1,-1,-1,-1,-1,-1,-1,-1,-1,-1,-1,-1,-1,-1,-1,-1,-1,-1,-1,-1,-1,-1,-1,-1,-1,-1,-1,-1,-1,-1,-1,-1,-1,-1,-1,-1,-1,-1],"split_conditions":[8.856433E0,7.264411E0,1.5072727E1,1.2246469E-16,1E0,1E0,1.04244375E1,6.7E0,5E0,1.2246469E-16,9.398414E0,2.5881904E-1,4E0,2.1910446E1,5E0,9.883099E-1,2.3755984E0,8.7422264E-1,7E0,1E1,8.876001E0,3.585262E1,1.4123592E1,9.954755E0,8.603127E0,1.1E1,8.353032E0,4E0,2.645264E1,-2.5881904E-1,1.3602543E1,5.96781E0,-5E-1,1.14E1,7.2965574E0,4E-1,7.0710677E-1,5.35E1,8E1,3.09E1,4.179579E0,1E1,6.076185E0,1.1035339E1,4.976499E0,7.182433E0,7.3638697E0,1.9496518E-1,5.5E1,8.407433E0,7.685963E0,1.1372493E1,1.2799258E1,7.218126E-2,5E0,1.6399291E-1,5.7665057E0,7.218126E-2,-1.1101631E0,1.5457973E1,8.308559E0,4E-1,7.182433E0,-3.0474675E-1,-1.747978E-1,-2.5108746E-1,-1.8681043E-1,-2.0990737E-1,-1.2776515E-1,-1.07208155E-1,-2.851434E-1,-2.9438448E-1,8.9126505E-2,-3.3545952E-2,6.446131E-2,-1.1325858E-1,-2.795057E-1,-1.3819236E-1,-2.231956E-1,3.5872553E-2,4.293973E-1,-8.320123E-2,-2.581417E-1,2.7707192E-1,1.4790842E-1,3.0456176E-1,4.8682657E-1,-6.401249E-2,-4.3376517E-3,-1.9513136E-2,6.4854455E-1,-5.829498E-2,5.7184786E-2,4.34733E-1,5.3471527E-3,-5.0676495E-2,8.559515E-2,2.623517E-1,-1.9556868E-1,3.3530328E-1,5.4345673E-1,1.2841885E-1,2.2351502E-1,-3.4231883E-2,1.6618179E-1,-1.48144765E-2,-1.3837902E-1,1.5332775E-1,6.887546E-2,-2.1148205E-1,2.8132972E-1,-8.8884346E-2,2.4700601E-1,-9.931803E-3,-1.4456213E-1,-1.0139704E-1,2.8595743E-1,3.4758884E-1,5.0748307E-1,5.2810498E-2,-1.000571E-1,8.289426E-2,2.1376625E-1],"split_indices":[10,50,10,61,56,56,50,66,56,61,14,61,56,2,56,0,31,54,59,64,33,40,34,4,7,64,50,56,4,61,51,10,61,66,53,65,61,62,62,66,55,64,47,50,2,24,10,0,62,6,31,10,10,48,56,38,47,0,0,25,3,65,0,0,0,0,0,0,0,0,0,0,0,0,0,0,0,0,0,0,0,0,0,0,0,0,0,0,0,0,0,0,0,0,0,0,0,0,0,0,0,0,0,0,0,0,0,0,0,0,0,0,0,0,0,0,0,0,0,0,0,0,0],"split_type":[0,0,0,0,0,0,0,0,0,0,0,0,0,0,0,0,0,0,0,0,0,0,0,0,0,0,0,0,0,0,0,0,0,0,0,0,0,0,0,0,0,0,0,0,0,0,0,0,0,0,0,0,0,0,0,0,0,0,0,0,0,0,0,0,0,0,0,0,0,0,0,0,0,0,0,0,0,0,0,0,0,0,0,0,0,0,0,0,0,0,0,0,0,0,0,0,0,0,0,0,0,0,0,0,0,0,0,0,0,0,0,0,0,0,0,0,0,0,0,0,0,0,0],"sum_hessian":[5.887E3,3.903E3,1.984E3,2.368E3,1.535E3,1.277E3,7.07E2,1.397E3,9.71E2,3.33E2,1.202E3,9.7E1,1.18E3,2.53E2,4.54E2,8.77E2,5.2E2,6E2,3.71E2,1.86E2,1.47E2,9.79E2,2.23E2,2.7E1,7E1,6.44E2,5.36E2,2.48E2,5E0,3.93E2,6.1E1,3.06E2,5.71E2,2.76E2,2.44E2,6.7E1,5.33E2,1.8E2,1.91E2,1.41E2,4.5E1,1.14E2,3.3E1,9.74E2,5E0,2.15E2,8E0,1.2E1,1.5E1,8E0,6.2E1,5.54E2,9E1,1.66E2,3.7E2,1.52E2,9.6E1,3E0,2E0,1E1,3.83E2,2.7E1,3.4E1,2.9E2,1.6E1,3.61E2,2.1E2,1.85E2,9.1E1,2.27E2,1.7E1,6.4E1,3E0,2.69E2,2.64E2,5E0,1.75E2,1.12E2,7.9E1,1.35E2,6E0,3.1E1,1.4E1,6.7E1,4.7E1,1E1,2.3E1,6.5E2,3.24E2,2E0,3E0,2.9E1,1.86E2,6E0,2E0,2E0,1.3E1,7E0,1E0,1.1E1,5.1E1,2.76E2,2.78E2,6.5E1,2.5E1,4.3E1,1.23E2,1.29E2,2.41E2,8E0,1.44E2,5.7E1,3.9E1,1E0,2E0,5E0,5E0,5.3E1,3.3E2,2.2E1,5E0,8E0,2.6E1],"tree_param":{"num_deleted":"0","num_feature":"68","num_nodes":"123","size_leaf_vector":"1"}},{"base_weights":[-1.9070903E-2,-1.825606E0,3.4982145E0,-3.1820288E0,1.8254417E-1,1.5172347E0,5.145522E0,-2.1469457E0,-4.210821E0,2.3249733E0,-4.4306841E-1,2.6417212E0,-1.7366327E-1,3.4006948E0,7.979504E0,-9.4551295E-1,-4.2536283E0,-4.845897E0,-2.8348856E0,4.450896E0,-5.7660985E-1,-8.5540646E-1,1.3474815E0,-8.0592215E-1,3.360492E0,-1.9143898E0,1.247495E0,4.7156253E0,2.0037358E0,2.5505183E0,8.925812E0,-5.2010484E0,-3.8532737E-1,-5.187988E0,-3.0680234E0,-5.3536205E0,-4.1646852E0,-2.6544895E0,-2.7205515E-1,3.1239667E0,6.1452756E0,-7.9586756E-1,5.2526957E-1,-1.092202E0,8.522855E-1,7.31565E-1,4.8403115E0,-2.1971622E0,8.56587E-1,1.6809477E0,4.445448E0,-1.0721688E0,-4.335314E0,-6.659454E-1,2.599033E0,6.2627816E0,1.5673229E0,9.013204E-1,2.951579E0,-6.841039E-1,3.6662216E0,5.937911E0,9.92571E0,-2.702838E-1,1.13109484E-1,-1.4687668E-2,-1.0094746E0,-2.615338E-1,-7.8727165E-3,-1.6792652E-1,-8.0087386E-2,-2.72395E-1,-1.679115E-1,-2.704477E-1,-1.7581071E-1,-1.250004E-1,-2.7576363E-1,1.24107234E-1,3.0563483E-1,2.27842E-1,3.9071572E-1,9.243198E-3,-1.1910229E-1,-8.162563E-2,-2.3457428E-2,-2.2163926E-2,9.012645E-2,2.2868764E-2,2.2675195E-1,4.3362257E-1,1.3152431E-1,-1.9757713E-1,1.8739518E-2,7.9050675E-2,-2.5550708E-1,9.5363505E-2,-6.116195E-1,1.7739038E-1,2.9859322E-1,-7.9424836E-2,1.7094761E-1,-2.5248477E-1,-5.774195E-2,5.8470566E-2,-7.779204E-2,2.2879053E-2,2.366365E-1,3.50672E-1,1.8529303E-1,4.5811705E-2,1.4398284E-1,3.5697162E-2,2.1158557E-1,1.685302E-1,-5.9522737E-2,-1.4690807E-1,4.388571E-4,1.2817E-1,2.5782582E-1,-3.695842E-1,3.084074E-1,5.040645E-1,-5.922403E-3],"categories":[],"categories_nodes":[],"categories_segments":[],"categories_sizes":[],"default_left":[0,0,0,0,0,0,0,0,0,0,0,0,0,0,0,0,0,0,0,0,0,0,0,0,0,0,0,0,0,0,0,0,0,0,0,0,0,0,0,0,0,0,0,0,0,0,0,0,0,0,0,0,0,0,0,0,0,0,0,0,0,0,0,0,0,0,0,0,0,0,0,0,0,0,0,0,0,0,0,0,0,0,0,0,0,0,0,0,0,0,0,0,0,0,0,0,0,0,0,0,0,0,0,0,0,0,0,0,0,0,0,0,0,0,0,0,0,0,0,0,0,0,0],"id":2,"left_children":[1,3,5,7,9,11,13,15,17,19,21,23,25,27,29,31,33,35,37,39,41,43,45,47,49,51,53,55,57,59,61,63,65,67,69,71,73,75,-1,77,79,81,-1,83,85,87,89,91,93,95,97,99,101,103,105,107,109,111,113,115,117,119,121,-1,-1,-1,-1,-1,-1,-1,-1,-1,-1,-1,-1,-1,-1,-1,-1,-1,-1,-1,-1,-1,-1,-1,-1,-1,-1,-1,-1,-1,-1,-1,-1,-1,-1,-1,-1,-1,-1,-1,-1,-1,-1,-1,-1,-1,-1,-1,-1,-1,-1,-1,-1,-1,-1,-1,-1,-1,-1,-1,-1],"loss_changes":[3.7432035E4,1.0602001E4,6.515494E3,2.4646895E3,2.1053494E3,1.7288242E3,5.3676543E3,2.931981E3,1.00339453E3,2.1923984E3,8.989398E2,1.3557322E3,9.0286896E2,1.2341353E3,2.109291E3,1.762074E3,4.5045898E2,2.5266602E2,1.5951294E2,4.4170825E2,3.752628E2,4.0085657E2,4.8695352E2,2.2161224E2,8.161758E2,3.2974005E2,5.215344E2,1.6852632E3,3.4216235E2,2.2986743E2,9.9568555E2,1.435664E2,1.1819425E3,4.942627E1,7.470154E1,6.673828E1,2.5854443E2,1.400061E2,0E0,2.0926074E2,2.0034473E2,2.32227E2,0E0,2.9177637E2,1.4976227E2,2.0128613E2,2.6511145E2,2.3611455E2,1.9826727E2,5.869834E2,3.542412E2,2.9065466E2,8.959546E1,1.3901459E2,5.3700116E2,4.2122266E2,9.6477264E1,9.308084E1,3.112162E2,2.6576286E1,6.402771E1,3.2486816E2,4.1217578E2,0E0,0E0,0E0,0E0,0E0,0E0,0E0,0E0,0E0,0E0,0E0,0E0,0E0,0E0,0E0,0E0,0E0,0E0,0E0,0E0,0E0,0E0,0E0,0E0,0E0,0E0,0E0,0E0,0E0,0E0,0E0,0E0,0E0,0E0,0E0,0E0,0E0,0E0,0E0,0E0,0E0,0E0,0E0,0E0,0E0,0E0,0E0,0E0,0E0,0E0,0E0,0E0,0E0,0E0,0E0,0E0,0E0,0E0,0E0,0E0],"parents":[2147483647,0,0,1,1,2,2,3,3,4,4,5,5,6,6,7,7,8,8,9,9,10,10,11,11,12,12,13,13,14,14,15,15,16,16,17,17,18,18,19,19,20,20,21,21,22,22,23,23,24,24,25,25,26,26,27,27,28,28,29,29,30,30,31,31,32,32,33,33,34,34,35,35,36,36,37,37,39,39,40,40,41,41,43,43,44,44,45,45,46,46,47,47,48,48,49,49,50,50,51,51,52,52,53,53,54,54,55,55,56,56,57,57,58,58,59,59,60,60,61,61,62,62],"right_children":[2,4,6,8,10,12,14,16,18,20,22,24,26,28,30,32,34,36,38,40,42,44,46,48,50,52,54,56,58,60,62,64,66,68,70,72,74,76,-1,78,80,82,-1,84,86,88,90,92,94,96,98,100,102,104,106,108,110,112,114,116,118,120,122,-1,-1,-1,-1,-1,-1,-1,-1,-1,-1,-1,-1,-1,-1,-1,-1,-1,-1,-1,-1,-1,-1,-1,-1,-1,-1,-1,-1,-1,-1,-1,-1,-1,-1,-1,-1,-1,-1,-1,-1,-1,-1,-1,-1,-1,-1,-1,-1,-1,-1,-1,-1,-1,-1,-1,-1,-1,-1,-1,-1],"split_conditions":[8.792398E0,7.0045786E0,1.0159743E1,1.4E1,1E1,4E0,1.5629645E1,5E0,7.2E0,5E0,1.3744706E1,3.3479114E0,6.936988E0,1.2E1,-7.818315E-1,8.7422264E-1,8E0,4.866244E0,7.8969674E0,6.3982434E0,1.0007414E1,2.3E1,2.78E1,3.1464684E0,1.1640293E1,5E0,-7.818315E-1,5E0,1.3129089E1,1.2378685E1,1.3450912E1,2.3755984E0,3.585262E1,1.2464073E1,2.2468383E0,6.114973E0,2.8E0,8.6E0,-2.7205515E-1,6.553783E0,6.1723795E0,1E1,5.2526957E-1,8.397217E0,6.0730996E0,1.05256195E1,6.966871E0,7.859242E0,1.7609127E1,2.8027971E1,5.098937E0,1.5238508E1,5.772009E0,8E0,9.984927E0,9E0,8.772206E0,1.11958475E1,7.6E0,6.9947195E0,9.312545E0,4.5401583E0,2.86E1,-2.702838E-1,1.13109484E-1,-1.4687668E-2,-1.0094746E0,-2.615338E-1,-7.8727165E-3,-1.6792652E-1,-8.0087386E-2,-2.72395E-1,-1.679115E-1,-2.704477E-1,-1.7581071E-1,-1.250004E-1,-2.7576363E-1,1.24107234E-1,3.0563483E-1,2.27842E-1,3.9071572E-1,9.243198E-3,-1.1910229E-1,-8.162563E-2,-2.3457428E-2,-2.2163926E-2,9.012645E-2,2.2868764E-2,2.2675195E-1,4.3362257E-1,1.3152431E-1,-1.9757713E-1,1.8739518E-2,7.9050675E-2,-2.5550708E-1,9.5363505E-2,-6.116195E-1,1.7739038E-1,2.9859322E-1,-7.9424836E-2,1.7094761E-1,-2.5248477E-1,-5.774195E-2,5.8470566E-2,-7.779204E-2,2.2879053E-2,2.366365E-1,3.50672E-1,1.8529303E-1,4.5811705E-2,1.4398284E-1,3.5697162E-2,2.1158557E-1,1.685302E-1,-5.9522737E-2,-1.4690807E-1,4.388571E-4,1.2817E-1,2.5782582E-1,-3.695842E-1,3.084074E-1,5.040645E-1,-5.922403E-3],"split_indices":[11,50,50,59,59,56,11,56,66,56,0,36,50,59,58,54,59,51,53,0,0,59,66,25,11,56,58,56,0,50,7,0,36,15,0,11,66,67,0,16,39,64,0,0,0,4,14,54,6,7,27,5,50,64,36,64,0,53,67,44,0,53,66,0,0,0,0,0,0,0,0,0,0,0,0,0,0,0,0,0,0,0,0,0,0,0,0,0,0,0,0,0,0,0,0,0,0,0,0,0,0,0,0,0,0,0,0,0,0,0,0,0,0,0,0,0,0,0,0,0,0,0,0],"split_type":[0,0,0,0,0,0,0,0,0,0,0,0,0,0,0,0,0,0,0,0,0,0,0,0,0,0,0,0,0,0,0,0,0,0,0,0,0,0,0,0,0,0,0,0,0,0,0,0,0,0,0,0,0,0,0,0,0,0,0,0,0,0,0,0,0,0,0,0,0,0,0,0,0,0,0,0,0,0,0,0,0,0,0,0,0,0,0,0,0,0,0,0,0,0,0,0,0,0,0,0,0,0,0,0,0,0,0,0,0,0,0,0,0,0,0,0,0,0,0,0,0,0,0],"sum_hessian":[5.889E3,3.891E3,1.998E3,2.322E3,1.569E3,9.08E2,1.09E3,1.159E3,1.163E3,3.54E2,1.215E3,5.45E2,3.63E2,6.76E2,4.14E2,7.39E2,4.2E2,7.94E2,3.69E2,2.04E2,1.5E2,9.88E2,2.27E2,9.4E1,4.51E2,1.63E2,2E2,3.47E2,3.29E2,6.2E1,3.52E2,8.5E1,6.54E2,2.33E2,1.87E2,4.51E2,3.43E2,3.47E2,2.2E1,1.16E2,8.8E1,1.48E2,2E0,8.68E2,1.2E2,1.94E2,3.3E1,5.1E1,4.3E1,1.78E2,2.73E2,1.22E2,4.1E1,8.3E1,1.17E2,2.32E2,1.15E2,1.53E2,1.76E2,1.6E1,4.6E1,9E1,2.62E2,8.3E1,2E0,6.52E2,2E0,2.31E2,2E0,1.55E2,3.2E1,4.29E2,2.2E1,1.15E2,2.28E2,3.31E2,1.6E1,9.7E1,1.9E1,4.7E1,4.1E1,9.2E1,5.6E1,4.64E2,4.04E2,5.1E1,6.9E1,1.82E2,1.2E1,1.1E1,2.2E1,3E1,2.1E1,3.9E1,4E0,1.76E2,2E0,1.74E2,9.9E1,1.1E2,1.2E1,3.3E1,8E0,2.7E1,5.6E1,5.9E1,5.8E1,1.78E2,5.4E1,7.8E1,3.7E1,1.46E2,7E0,1.6E2,1.6E1,3E0,1.3E1,2.8E1,1.8E1,1E0,8.9E1,2.58E2,4E0],"tree_param":{"num_deleted":"0","num_feature":"68","num_nodes":"123","size_leaf_vector":"1"}},{"base_weights":[-1.4955123E-2,-1.7684162E0,3.3544822E0,-3.0631073E0,2.4348924E-1,2.1115727E0,5.9554296E0,-3.9617558E0,-1.7884178E0,-7.378922E-1,1.5894414E0,2.1637422E-1,3.077801E0,2.9268386E0,7.4011245E0,-4.650454E0,-2.5545266E0,-1.3196005E-2,-3.7392247E0,-1.048103E0,1.6063939E0,3.1709309E0,-2.4766903E-1,1.4191891E0,-1.998723E0,3.8996348E0,1.2131689E0,5.144094E0,1.3726476E0,8.293516E0,2.565719E0,-5.249452E0,-4.122849E0,-2.3143194E0,-4.0162272E0,-5.0660324E0,7.5895244E-1,-4.0413504E0,-1.5057396E0,-2.0944066E0,-7.898778E-1,4.6087575E0,1.001261E0,1.7700797E0,5.705512E0,-3.6880353E-1,8.717634E0,-1.074789E0,2.3002932E0,-2.3312037E0,2.8074834E0,2.2362227E0,5.4483314E0,2.5900492E-1,2.3621683E0,2.4735503E0,8.079983E0,1.8874394E0,-4.7876806E0,5.390013E0,9.273381E0,4.8676434E-1,1.7414582E0,-2.919831E-1,-2.3243497E-1,-2.2028887E-1,-1.3186131E-1,-2.522078E-1,-1.08127825E-1,-2.1645041E-1,-4.4777673E-2,-2.6054224E-1,1.1591063E-1,-4.169164E-2,1.0865227E-1,-2.2722593E-1,-1.373369E-1,-3.1369922E-3,-1.4011739E-1,-8.077336E-2,-2.365609E-1,-6.2750705E-2,-2.2151811E-2,9.004365E-2,3.1970948E-1,-5.7504814E-2,7.32717E-2,8.022012E-2,4.3363672E-1,3.7790942E-1,1.2941504E-1,-8.712206E-2,1.1322579E-2,-6.1402597E-2,6.2211066E-1,-7.0588195E-1,-1.368228E-4,-1.9320779E-2,1.6264133E-1,-2.2105265E-1,-8.4847614E-2,-1.074919E-1,2.4676044E-1,8.38437E-2,1.8907194E-1,3.414714E-1,1.6119172E-1,7.417217E-2,-4.238495E-2,8.680631E-2,1.8088578E-1,2.5134632E-1,-2.047019E-2,5.3770196E-1,2.3672612E-1,-1.370573E-1,1.196812E-1,-3.1656477E-1,4.6225917E-2,2.9875413E-1,-8.963171E-2,4.8301393E-1,3.212862E-1,-6.1659217E-2,1.6114347E-1],"categories":[],"categories_nodes":[],"categories_segments":[],"categories_sizes":[],"default_left":[0,0,0,0,0,0,0,0,0,0,0,0,0,0,0,0,0,0,0,0,0,0,0,0,0,0,0,0,0,0,0,0,0,0,0,0,0,0,0,0,0,0,0,0,0,0,0,0,0,0,0,0,0,0,0,0,0,0,0,0,0,0,0,0,0,0,0,0,0,0,0,0,0,0,0,0,0,0,0,0,0,0,0,0,0,0,0,0,0,0,0,0,0,0,0,0,0,0,0,0,0,0,0,0,0,0,0,0,0,0,0,0,0,0,0,0,0,0,0,0,0,0,0,0,0],"id":3,"left_children":[1,3,5,7,9,11,13,15,17,19,21,23,25,27,29,31,33,35,37,39,41,43,45,47,49,51,53,55,57,59,61,63,65,67,69,71,73,75,77,79,81,83,85,87,89,91,93,95,97,99,101,103,105,107,109,111,113,115,117,119,121,-1,123,-1,-1,-1,-1,-1,-1,-1,-1,-1,-1,-1,-1,-1,-1,-1,-1,-1,-1,-1,-1,-1,-1,-1,-1,-1,-1,-1,-1,-1,-1,-1,-1,-1,-1,-1,-1,-1,-1,-1,-1,-1,-1,-1,-1,-1,-1,-1,-1,-1,-1,-1,-1,-1,-1,-1,-1,-1,-1,-1,-1,-1,-1],"loss_changes":[3.478146E4,1.0086514E4,6.5013984E3,2.691707E3,2.0049669E3,2.498914E3,2.8286895E3,1.3265254E3,3.379951E3,6.401854E2,1.8602227E3,1.2337671E3,1.3805752E3,7.2349915E2,1.8773535E3,2.710039E2,1.5081177E2,2.0014332E3,3.0769385E2,2.0800684E2,1.8251883E2,1.2112974E3,3.257593E2,6.6170856E2,2.670141E2,1.603043E3,3.0416895E2,6.621301E2,4.0861847E2,1.0055293E3,3.9671802E2,1.2531836E2,1.972832E2,1.5232104E2,5.7616577E1,8.4794556E1,1.0041061E3,2.5394336E2,1.064715E2,1.8557648E2,1.0011304E2,7.3710754E1,8.856377E1,2.4111133E2,6.8500977E2,2.4078806E2,1.6345367E2,1.1045884E3,5.69395E2,1.9529767E2,1.2663589E2,2.5641064E2,9.7338965E2,2.0858641E2,9.2758484E1,3.4803748E2,3.1586865E2,2.806828E2,9.402774E1,4.1413623E2,2.4200781E2,0E0,2.8600116E2,0E0,0E0,0E0,0E0,0E0,0E0,0E0,0E0,0E0,0E0,0E0,0E0,0E0,0E0,0E0,0E0,0E0,0E0,0E0,0E0,0E0,0E0,0E0,0E0,0E0,0E0,0E0,0E0,0E0,0E0,0E0,0E0,0E0,0E0,0E0,0E0,0E0,0E0,0E0,0E0,0E0,0E0,0E0,0E0,0E0,0E0,0E0,0E0,0E0,0E0,0E0,0E0,0E0,0E0,0E0,0E0,0E0,0E0,0E0,0E0,0E0,0E0],"parents":[2147483647,0,0,1,1,2,2,3,3,4,4,5,5,6,6,7,7,8,8,9,9,10,10,11,11,12,12,13,13,14,14,15,15,16,16,17,17,18,18,19,19,20,20,21,21,22,22,23,23,24,24,25,25,26,26,27,27,28,28,29,29,30,30,31,31,32,32,33,33,34,34,35,35,36,36,37,37,38,38,39,39,40,40,41,41,42,42,43,43,44,44,45,45,46,46,47,47,48,48,49,49,50,50,51,51,52,52,53,53,54,54,55,55,56,56,57,57,58,58,59,59,60,60,62,62],"right_children":[2,4,6,8,10,12,14,16,18,20,22,24,26,28,30,32,34,36,38,40,42,44,46,48,50,52,54,56,58,60,62,64,66,68,70,72,74,76,78,80,82,84,86,88,90,92,94,96,98,100,102,104,106,108,110,112,114,116,118,120,122,-1,124,-1,-1,-1,-1,-1,-1,-1,-1,-1,-1,-1,-1,-1,-1,-1,-1,-1,-1,-1,-1,-1,-1,-1,-1,-1,-1,-1,-1,-1,-1,-1,-1,-1,-1,-1,-1,-1,-1,-1,-1,-1,-1,-1,-1,-1,-1,-1,-1,-1,-1,-1,-1,-1,-1,-1,-1,-1,-1,-1,-1,-1,-1],"split_conditions":[8.856433E0,7.264411E0,1.5629645E1,1.2246469E-16,-2.5881904E-1,8.353032E0,1.0092452E1,7E0,4E0,2.59E1,4E0,4E0,5E0,5.9097595E0,5E0,3.3316329E0,7.333797E0,6.571872E-1,6.0939436E0,8.258956E0,4.6948E0,5E-1,4.2873283E1,5E-1,1.4711288E1,2.5881904E-1,1.2939605E1,7.949524E0,1.4071859E1,7.727965E0,7.907574E0,7.218126E-2,1.2E1,3.815959E0,1.5355423E1,2.3755984E0,7.0710677E-1,9E0,5.2605443E0,4.3681426E0,8.518878E0,7.9559746E0,7.212634E0,2.86E1,1E1,5.893343E0,4.797327E0,9.3649334E-1,3.2226667E0,5.265924E-1,7.218126E-2,1.1726506E1,9E0,8E0,1.1707983E1,4.7306824E0,7E0,3.3490992E0,5.658793E0,2.3226591E1,1E1,4.8676434E-1,1.2378685E1,-2.919831E-1,-2.3243497E-1,-2.2028887E-1,-1.3186131E-1,-2.522078E-1,-1.08127825E-1,-2.1645041E-1,-4.4777673E-2,-2.6054224E-1,1.1591063E-1,-4.169164E-2,1.0865227E-1,-2.2722593E-1,-1.373369E-1,-3.1369922E-3,-1.4011739E-1,-8.077336E-2,-2.365609E-1,-6.2750705E-2,-2.2151811E-2,9.004365E-2,3.1970948E-1,-5.7504814E-2,7.32717E-2,8.022012E-2,4.3363672E-1,3.7790942E-1,1.2941504E-1,-8.712206E-2,1.1322579E-2,-6.1402597E-2,6.2211066E-1,-7.0588195E-1,-1.368228E-4,-1.9320779E-2,1.6264133E-1,-2.2105265E-1,-8.4847614E-2,-1.074919E-1,2.4676044E-1,8.38437E-2,1.8907194E-1,3.414714E-1,1.6119172E-1,7.417217E-2,-4.238495E-2,8.680631E-2,1.8088578E-1,2.5134632E-1,-2.047019E-2,5.3770196E-1,2.3672612E-1,-1.370573E-1,1.196812E-1,-3.1656477E-1,4.6225917E-2,2.9875413E-1,-8.963171E-2,4.8301393E-1,3.212862E-1,-6.1659217E-2,1.6114347E-1],"split_indices":[11,50,11,61,61,50,50,66,56,66,56,56,56,53,56,54,53,54,21,50,11,61,41,61,5,61,50,50,54,30,37,7,64,50,55,0,61,59,50,55,0,51,0,66,64,51,2,21,37,0,18,11,64,64,45,45,64,37,25,52,59,0,50,0,0,0,0,0,0,0,0,0,0,0,0,0,0,0,0,0,0,0,0,0,0,0,0,0,0,0,0,0,0,0,0,0,0,0,0,0,0,0,0,0,0,0,0,0,0,0,0,0,0,0,0,0,0,0,0,0,0,0,0,0,0],"split_type":[0,0,0,0,0,0,0,0,0,0,0,0,0,0,0,0,0,0,0,0,0,0,0,0,0,0,0,0,0,0,0,0,0,0,0,0,0,0,0,0,0,0,0,0,0,0,0,0,0,0,0,0,0,0,0,0,0,0,0,0,0,0,0,0,0,0,0,0,0,0,0,0,0,0,0,0,0,0,0,0,0,0,0,0,0,0,0,0,0,0,0,0,0,0,0,0,0,0,0,0,0,0,0,0,0,0,0,0,0,0,0,0,0,0,0,0,0,0,0,0,0,0,0,0,0],"sum_hessian":[5.885E3,3.871E3,2.014E3,2.355E3,1.516E3,1.364E3,6.5E2,1.38E3,9.75E2,8.77E2,6.39E2,4.61E2,9.03E2,2.11E2,4.39E2,9.25E2,4.55E2,5.11E2,4.64E2,7.75E2,1.02E2,3.43E2,2.96E2,2.99E2,1.62E2,6.26E2,2.77E2,8.6E1,1.25E2,3.7E2,6.9E1,4.29E2,4.96E2,3.93E2,6.2E1,6.7E1,4.44E2,4.08E2,5.6E1,1.52E2,6.23E2,1.6E1,8.6E1,2.22E2,1.21E2,2.93E2,3E0,7.8E1,2.21E2,1.52E2,1E1,3.03E2,3.23E2,1.52E2,1.25E2,4.6E1,4E1,1.16E2,9E0,9.5E1,2.75E2,6E0,6.3E1,2.12E2,2.17E2,4.15E2,8.1E1,1.9E1,3.74E2,5.6E1,6E0,6.6E1,1E0,2.09E2,2.35E2,2.92E2,1.16E2,2.7E1,2.9E1,1.3E2,2.2E1,2.65E2,3.58E2,7E0,9E0,1.5E1,7.1E1,2.18E2,4E0,7.5E1,4.6E1,8.8E1,2.05E2,1E0,2E0,5E0,7.3E1,5.8E1,1.63E2,3.4E1,1.18E2,3E0,7E0,2.24E2,7.9E1,1.98E2,1.25E2,7.2E1,8E1,8.5E1,4E1,2.4E1,2.2E1,2.1E1,1.9E1,1.1E1,1.05E2,7E0,2E0,8.8E1,7E0,2.4E2,3.5E1,2.1E1,4.2E1],"tree_param":{"num_deleted":"0","num_feature":"68","num_nodes":"125","size_leaf_vector":"1"}},{"base_weights":[-3.9541114E-2,-1.761767E0,3.347552E0,-2.9857686E0,1.2282792E-1,2.0809877E0,5.562908E0,-2.1676195E0,-3.9886575E0,1.6401104E0,-5.020484E-1,1.70073E0,6.5801644E0,2.6894393E0,7.0393515E0,-3.7682867E0,-1.2478552E0,-4.486096E0,-3.382837E0,-6.043374E-1,3.5704217E0,-1.4238983E0,2.8015024E-3,5.1897305E-1,2.454596E0,8.161414E0,1.6364592E0,2.994579E0,-1.6520153E1,1.9362824E0,7.931385E0,-4.7595444E0,-2.984892E0,-4.741907E0,-8.1059146E-1,-2.6125367E0,-4.751229E0,-3.8401165E0,-2.4558644E0,-9.054254E-1,8.170536E0,4.5807285E0,1.8244542E0,-1.922839E0,-5.755127E-1,-4.136404E-1,1.3032528E0,-1.9589853E0,1.7319626E0,1.29178E0,3.0443711E0,8.440721E0,-3.0569807E-1,2.8219614E0,-4.2398995E-1,3.230144E-1,4.5918775E0,-1.045463E0,-8.382102E-2,5.695221E-1,3.9432192E0,5.643723E0,8.410505E0,-9.175011E-2,-2.418664E-1,-1.6793315E-1,-7.868369E-2,-1.206614E-1,-2.6983413E-1,-2.0245588E-1,-2.244976E-2,-4.4293605E-2,-1.6869293E-1,-2.3873797E-1,3.9283644E-2,-1.0739231E-1,-2.0505856E-1,-1.9640408E-1,-8.72026E-2,-9.833818E-2,-1.9375745E-2,5.3639133E-2,5.397541E-1,-1.8442333E-1,2.4435428E-1,3.4558278E-2,1.358631E-1,-7.5309806E-2,-1.7268373E-1,1.6353918E-2,-4.945426E-2,-2.7240494E-2,5.679437E-2,2.562486E-1,4.649098E-2,-1.8268241E-1,-5.8714587E-2,9.348092E-2,-6.397241E-1,4.1504398E-2,1.6154537E-1,1.0816001E-1,2.1567781E-1,2.6409614E-1,4.550371E-1,8.6895995E-2,1.7360012E-1,-7.333708E-2,4.56055E-2,-1.1377144E-1,1.6046971E-1,-1.8001364E-1,2.5359997E-1,-5.164227E-2,6.0134318E-2,7.677951E-2,2.1904127E-1,3.0289558E-1,-3.0199847E-1,4.2984292E-1,1.3623464E-1],"categories":[],"categories_nodes":[],"categories_segments":[],"categories_sizes":[],"default_left":[0,0,0,0,0,0,0,0,0,0,0,0,0,0,0,0,0,0,0,0,0,0,0,0,0,0,0,0,0,0,0,0,0,0,0,0,0,0,0,0,0,0,0,0,0,0,0,0,0,0,0,0,0,0,0,0,0,0,0,0,0,0,0,0,0,0,0,0,0,0,0,0,0,0,0,0,0,0,0,0,0,0,0,0,0,0,0,0,0,0,0,0,0,0,0,0,0,0,0,0,0,0,0,0,0,0,0,0,0,0,0,0,0,0,0,0,0,0,0,0,0],"id":4,"left_children":[1,3,5,7,9,11,13,15,17,19,21,23,25,27,29,31,33,35,37,39,41,43,45,47,49,51,53,55,57,59,61,63,65,67,69,71,73,75,77,79,81,83,85,87,89,91,93,95,97,99,101,103,-1,105,107,109,111,-1,-1,113,115,117,119,-1,-1,-1,-1,-1,-1,-1,-1,-1,-1,-1,-1,-1,-1,-1,-1,-1,-1,-1,-1,-1,-1,-1,-1,-1,-1,-1,-1,-1,-1,-1,-1,-1,-1,-1,-1,-1,-1,-1,-1,-1,-1,-1,-1,-1,-1,-1,-1,-1,-1,-1,-1,-1,-1,-1,-1,-1,-1],"loss_changes":[3.42826E4,8.987453E3,5.5468945E3,1.9294043E3,1.4561782E3,2.147898E3,3.0356777E3,1.9136221E3,3.0426367E2,1.94311E3,5.0635468E2,1.0366089E3,7.527324E2,1.4914266E3,2.1468945E3,3.5465234E2,1.2627208E3,2.7520117E2,1.9488232E2,5.569357E2,4.167578E2,1.6186163E2,3.8179904E2,1.3710035E3,4.836709E2,3.4665918E2,6.2263145E1,1.0354673E3,2.2555005E2,1.9525037E2,3.953418E2,3.843994E1,1.3607715E2,1.27254395E2,8.624087E2,9.428772E1,6.967676E1,1.3300098E2,1.629159E2,1.1027287E2,1.1881781E2,4.0309106E2,8.918469E1,1.491485E2,5.4076805E1,1.0915471E2,2.3927866E2,1.9517822E2,6.3581366E2,2.1308047E2,5.174209E2,1.04126465E2,0E0,5.240677E0,1.5270032E1,6.973114E2,6.1611084E2,0E0,0E0,4.5882904E1,2.3827087E1,3.8985474E2,3.2835352E2,0E0,0E0,0E0,0E0,0E0,0E0,0E0,0E0,0E0,0E0,0E0,0E0,0E0,0E0,0E0,0E0,0E0,0E0,0E0,0E0,0E0,0E0,0E0,0E0,0E0,0E0,0E0,0E0,0E0,0E0,0E0,0E0,0E0,0E0,0E0,0E0,0E0,0E0,0E0,0E0,0E0,0E0,0E0,0E0,0E0,0E0,0E0,0E0,0E0,0E0,0E0,0E0,0E0,0E0,0E0,0E0,0E0,0E0],"parents":[2147483647,0,0,1,1,2,2,3,3,4,4,5,5,6,6,7,7,8,8,9,9,10,10,11,11,12,12,13,13,14,14,15,15,16,16,17,17,18,18,19,19,20,20,21,21,22,22,23,23,24,24,25,25,26,26,27,27,28,28,29,29,30,30,31,31,32,32,33,33,34,34,35,35,36,36,37,37,38,38,39,39,40,40,41,41,42,42,43,43,44,44,45,45,46,46,47,47,48,48,49,49,50,50,51,51,53,53,54,54,55,55,56,56,59,59,60,60,61,61,62,62],"right_children":[2,4,6,8,10,12,14,16,18,20,22,24,26,28,30,32,34,36,38,40,42,44,46,48,50,52,54,56,58,60,62,64,66,68,70,72,74,76,78,80,82,84,86,88,90,92,94,96,98,100,102,104,-1,106,108,110,112,-1,-1,114,116,118,120,-1,-1,-1,-1,-1,-1,-1,-1,-1,-1,-1,-1,-1,-1,-1,-1,-1,-1,-1,-1,-1,-1,-1,-1,-1,-1,-1,-1,-1,-1,-1,-1,-1,-1,-1,-1,-1,-1,-1,-1,-1,-1,-1,-1,-1,-1,-1,-1,-1,-1,-1,-1,-1,-1,-1,-1,-1,-1],"split_conditions":[8.792398E0,7.4654107E0,1.483316E1,1.5E1,1.3E1,1E0,1.0092452E1,-4.3388373E-1,5.0189567E0,0E0,8.933335E0,8.407256E0,1.2E1,2.0613014E1,-7.818315E-1,7E0,8.7422264E-1,5.35E1,4.0141416E0,3.585262E1,1E1,6.045366E0,1.3129089E1,0E0,-4.3388373E-1,1.3665085E1,9.726998E0,0E0,1.6399291E-1,7.949302E0,1.001707E1,5.35E1,2.3755984E0,-2.2252093E-1,1E0,4.6319585E0,7.883862E0,6.553523E0,1.2065731E0,5.704513E0,6.7791753E0,1.6022457E0,1.3261411E1,4.4411407E0,6.127738E0,2.3E1,4.37825E0,1.7696047E0,3.585262E1,1.1112262E1,1.1640293E1,8.118437E0,-3.0569807E-1,6.203105E0,1.0596852E1,9.06035E0,6.588681E-1,-1.045463E0,-8.382102E-2,1.235013E1,1.6141842E1,4.2873283E1,2.0954288E1,-9.175011E-2,-2.418664E-1,-1.6793315E-1,-7.868369E-2,-1.206614E-1,-2.6983413E-1,-2.0245588E-1,-2.244976E-2,-4.4293605E-2,-1.6869293E-1,-2.3873797E-1,3.9283644E-2,-1.0739231E-1,-2.0505856E-1,-1.9640408E-1,-8.72026E-2,-9.833818E-2,-1.9375745E-2,5.3639133E-2,5.397541E-1,-1.8442333E-1,2.4435428E-1,3.4558278E-2,1.358631E-1,-7.5309806E-2,-1.7268373E-1,1.6353918E-2,-4.945426E-2,-2.7240494E-2,5.679437E-2,2.562486E-1,4.649098E-2,-1.8268241E-1,-5.8714587E-2,9.348092E-2,-6.397241E-1,4.1504398E-2,1.6154537E-1,1.0816001E-1,2.1567781E-1,2.6409614E-1,4.550371E-1,8.6895995E-2,1.7360012E-1,-7.333708E-2,4.56055E-2,-1.1377144E-1,1.6046971E-1,-1.8001364E-1,2.5359997E-1,-5.164227E-2,6.0134318E-2,7.677951E-2,2.1904127E-1,3.0289558E-1,-3.0199847E-1,4.2984292E-1,1.3623464E-1],"split_indices":[10,50,10,59,59,57,50,58,51,58,50,50,59,2,58,59,54,62,33,38,59,8,0,58,58,34,43,58,0,0,4,62,0,57,59,44,8,46,42,51,4,36,0,55,28,59,11,9,8,46,10,5,0,37,43,3,38,0,0,50,37,10,35,0,0,0,0,0,0,0,0,0,0,0,0,0,0,0,0,0,0,0,0,0,0,0,0,0,0,0,0,0,0,0,0,0,0,0,0,0,0,0,0,0,0,0,0,0,0,0,0,0,0,0,0,0,0,0,0,0,0],"split_type":[0,0,0,0,0,0,0,0,0,0,0,0,0,0,0,0,0,0,0,0,0,0,0,0,0,0,0,0,0,0,0,0,0,0,0,0,0,0,0,0,0,0,0,0,0,0,0,0,0,0,0,0,0,0,0,0,0,0,0,0,0,0,0,0,0,0,0,0,0,0,0,0,0,0,0,0,0,0,0,0,0,0,0,0,0,0,0,0,0,0,0,0,0,0,0,0,0,0,0,0,0,0,0,0,0,0,0,0,0,0,0,0,0,0,0,0,0,0,0,0,0],"sum_hessian":[5.875E3,3.895E3,1.98E3,2.361E3,1.534E3,1.261E3,7.19E2,1.302E3,1.059E3,4.47E2,1.087E3,1.164E3,9.7E1,2.45E2,4.74E2,4.74E2,8.28E2,5.78E2,4.81E2,2.07E2,2.4E2,3.84E2,7.03E2,4.54E2,7.1E2,7.3E1,2.4E1,2.42E2,3E0,7.1E1,4.03E2,2.07E2,2.67E2,9.1E1,7.37E2,7.3E1,5.05E2,3.2E2,1.61E2,2.01E2,6E0,1.51E2,8.9E1,2.41E2,1.43E2,5.33E2,1.7E2,1.49E2,3.05E2,2.4E2,4.7E2,7.2E1,1E0,1.5E1,9E0,9.1E1,1.51E2,2E0,1E0,4.3E1,2.8E1,7.2E1,3.31E2,6E0,2.01E2,2.1E2,5.7E1,2.1E1,7E1,7.3E1,6.64E2,2.3E1,5E1,5.03E2,2E0,4.4E1,2.76E2,5.1E1,1.1E2,6.5E1,1.36E2,2E0,4E0,5E0,1.46E2,4E1,4.9E1,1.91E2,5E1,4.5E1,9.8E1,4.92E2,4.1E1,1.4E1,1.56E2,4.6E1,1.03E2,3.03E2,2E0,1.95E2,4.5E1,2.79E2,1.91E2,1.4E1,5.8E1,7E0,8E0,5E0,4E0,4.8E1,4.3E1,8E0,1.43E2,1.2E1,3.1E1,5E0,2.3E1,7E1,2E0,3.2E2,1.1E1],"tree_param":{"num_deleted":"0","num_feature":"68","num_nodes":"121","size_leaf_vector":"1"}},{"base_weights":[2.02391E-2,-1.6246524E0,3.2203205E0,-2.7567043E0,8.1766315E-2,2.0042396E0,5.37777E0,-3.5748484E0,-1.5806799E0,-3.882708E-1,1.7647849E0,5.9478526E0,1.6613618E0,1.5542855E0,6.449934E0,-4.546927E0,-3.174025E0,-3.3683458E-1,-3.5753129E0,-7.175156E-1,9.864022E-1,4.06208E0,-5.977122E-1,1.8541417E0,7.878843E0,2.4763598E0,6.3788825E-1,3.6578562E0,1.7202538E-1,1.615656E0,7.2606635E0,-4.834383E0,-3.0979075E0,-3.689242E0,-2.4852452E0,-4.475426E0,2.0773618E-1,-4.51378E0,-2.7239428E0,-1.3254697E0,-1.9455966E-1,-1.1092914E-1,1.7187432E0,5.475669E0,1.7650272E0,6.1424446E0,-9.2891437E-1,3.0063648E0,-6.6314763E-3,2.248946E0,8.478203E0,2.825528E0,2.773982E-1,-1.8304543E0,1.6327595E0,-4.13916E0,4.4013777E0,-6.8707824E0,7.1188945E-1,-2.611056E-1,2.8220055E0,7.9725704E0,4.6033425E0,-2.3337539E-1,-1.0789593E0,-1.3164233E-1,-2.543772E-1,-2.1879523E-1,-1.4833456E-1,-7.993436E-2,-1.402141E-1,-2.4004678E-1,1.0071696E-1,1.3948719E-2,-9.2802715E-1,-2.2982076E-1,-4.0071663E-2,-1.2071971E-1,-2.1174645E-1,-7.9490654E-2,-1.6945614E-2,-3.3685602E-2,3.4000946E-3,6.0728397E-2,-3.7069134E-2,2.6703963E-1,6.855895E-2,3.2892793E-1,1.3598287E-1,1.7554788E-1,2.1075701E-2,6.919568E-2,5.277499E-1,-8.3809935E-2,-2.5584092E-4,3.2498952E-2,1.6814929E-1,7.925355E-2,-5.3351473E-2,1.9118519E-1,-2.1935897E-1,4.4811258E-1,2.5324622E-1,-3.0381275E-2,1.5230411E-1,5.8215868E-2,-1.05532065E-1,6.9997907E-3,-1.2356073E-1,5.8374822E-2,1.348531E-1,1.5443663E-1,-3.1012428E-1,1.6453853E-1,4.4237694E-1,-8.472376E-2,-3.725544E-1,1.744217E-1,1.344682E-3,1.5270682E-2,-2.2223619E-1,7.679224E-2,1.9303705E-1,-3.0270178E-2,4.0329662E-1,5.6080837E-2,2.935663E-1],"categories":[],"categories_nodes":[],"categories_segments":[],"categories_sizes":[],"default_left":[0,0,0,0,0,0,0,0,0,0,0,0,0,0,0,0,0,0,0,0,0,0,0,0,0,0,0,0,0,0,0,0,0,0,0,0,0,0,0,0,0,0,0,0,0,0,0,0,0,0,0,0,0,0,0,0,0,0,0,0,0,0,0,0,0,0,0,0,0,0,0,0,0,0,0,0,0,0,0,0,0,0,0,0,0,0,0,0,0,0,0,0,0,0,0,0,0,0,0,0,0,0,0,0,0,0,0,0,0,0,0,0,0,0,0,0,0,0,0,0,0,0,0,0,0,0,0],"id":5,"left_children":[1,3,5,7,9,11,13,15,17,19,21,23,25,27,29,31,33,35,37,39,41,43,45,47,49,51,53,55,57,59,61,63,65,67,69,71,73,75,77,79,81,83,85,87,89,91,93,95,97,99,101,103,105,107,109,111,113,115,117,119,121,123,125,-1,-1,-1,-1,-1,-1,-1,-1,-1,-1,-1,-1,-1,-1,-1,-1,-1,-1,-1,-1,-1,-1,-1,-1,-1,-1,-1,-1,-1,-1,-1,-1,-1,-1,-1,-1,-1,-1,-1,-1,-1,-1,-1,-1,-1,-1,-1,-1,-1,-1,-1,-1,-1,-1,-1,-1,-1,-1,-1,-1,-1,-1,-1,-1],"loss_changes":[3.0993145E4,7.5128203E3,5.233865E3,2.243871E3,1.2284432E3,1.7209048E3,2.941545E3,5.2248047E2,2.383051E3,5.5016895E2,1.8423007E3,7.916929E2,9.8185864E2,4.6169214E2,2.190912E3,1.5163477E2,3.3825E2,1.337407E3,2.825293E2,3.113167E2,1.8904153E2,5.488347E2,3.8074136E2,7.291681E1,2.137622E2,5.028977E2,1.2897666E3,3.834447E2,3.7370068E2,1.8638737E2,8.732383E2,8.269839E2,5.045111E1,2.6386914E2,1.148772E2,1.5543188E2,7.071127E2,4.969409E1,8.14491E1,1.17599E2,6.64719E1,8.028857E1,1.7018091E2,3.0430347E2,1.556807E2,1.5337094E2,1.1113608E2,1.5461212E1,2.532105E1,1.00377594E2,5.704248E1,4.3042432E2,1.951953E2,1.9099643E2,1.8204883E2,1.0863879E2,2.5728528E2,8.401184E0,1.7298103E2,7.9570786E1,6.0869507E1,3.0760742E2,4.525503E2,0E0,0E0,0E0,0E0,0E0,0E0,0E0,0E0,0E0,0E0,0E0,0E0,0E0,0E0,0E0,0E0,0E0,0E0,0E0,0E0,0E0,0E0,0E0,0E0,0E0,0E0,0E0,0E0,0E0,0E0,0E0,0E0,0E0,0E0,0E0,0E0,0E0,0E0,0E0,0E0,0E0,0E0,0E0,0E0,0E0,0E0,0E0,0E0,0E0,0E0,0E0,0E0,0E0,0E0,0E0,0E0,0E0,0E0,0E0,0E0,0E0,0E0,0E0,0E0],"parents":[2147483647,0,0,1,1,2,2,3,3,4,4,5,5,6,6,7,7,8,8,9,9,10,10,11,11,12,12,13,13,14,14,15,15,16,16,17,17,18,18,19,19,20,20,21,21,22,22,23,23,24,24,25,25,26,26,27,27,28,28,29,29,30,30,31,31,32,32,33,33,34,34,35,35,36,36,37,37,38,38,39,39,40,40,41,41,42,42,43,43,44,44,45,45,46,46,47,47,48,48,49,49,50,50,51,51,52,52,53,53,54,54,55,55,56,56,57,57,58,58,59,59,60,60,61,61,62,62],"right_children":[2,4,6,8,10,12,14,16,18,20,22,24,26,28,30,32,34,36,38,40,42,44,46,48,50,52,54,56,58,60,62,64,66,68,70,72,74,76,78,80,82,84,86,88,90,92,94,96,98,100,102,104,106,108,110,112,114,116,118,120,122,124,126,-1,-1,-1,-1,-1,-1,-1,-1,-1,-1,-1,-1,-1,-1,-1,-1,-1,-1,-1,-1,-1,-1,-1,-1,-1,-1,-1,-1,-1,-1,-1,-1,-1,-1,-1,-1,-1,-1,-1,-1,-1,-1,-1,-1,-1,-1,-1,-1,-1,-1,-1,-1,-1,-1,-1,-1,-1,-1,-1,-1,-1,-1,-1,-1],"split_conditions":[8.792398E0,7.264411E0,1.483316E1,1.2246469E-16,2.5881904E-1,1E0,7.949524E0,1.1272008E0,5E0,1.3744706E1,4E0,2.5881904E-1,4E0,3E0,-7.818315E-1,5.0446653E0,2.4966679E0,8.7422264E-1,7E0,5.8896213E0,5.95857E0,1E1,1.9859926E0,1.708819E1,8.603127E0,1.1E1,8.353032E0,7.218126E-2,1.5112499E0,1.2404801E1,9E0,5.0253544E0,6.3779974E0,3E0,3.5680002E-1,1.2E0,4.2873283E1,6.605697E0,4.167844E0,1.1723622E1,7.8973246E0,5.9541817E0,4.2827625E0,1E1,4.832327E0,6.553783E0,8.700591E0,6.114973E0,2E0,7.957891E0,1E1,1.5963581E0,5.6567435E0,3.5680002E-1,1.2192639E1,7.218126E-2,1.2E1,1.6091425E1,3.5680002E-1,2E-1,7.7079406E0,-5E-1,6.1728554E0,-2.3337539E-1,-1.0789593E0,-1.3164233E-1,-2.543772E-1,-2.1879523E-1,-1.4833456E-1,-7.993436E-2,-1.402141E-1,-2.4004678E-1,1.0071696E-1,1.3948719E-2,-9.2802715E-1,-2.2982076E-1,-4.0071663E-2,-1.2071971E-1,-2.1174645E-1,-7.9490654E-2,-1.6945614E-2,-3.3685602E-2,3.4000946E-3,6.0728397E-2,-3.7069134E-2,2.6703963E-1,6.855895E-2,3.2892793E-1,1.3598287E-1,1.7554788E-1,2.1075701E-2,6.919568E-2,5.277499E-1,-8.3809935E-2,-2.5584092E-4,3.2498952E-2,1.6814929E-1,7.925355E-2,-5.3351473E-2,1.9118519E-1,-2.1935897E-1,4.4811258E-1,2.5324622E-1,-3.0381275E-2,1.5230411E-1,5.8215868E-2,-1.05532065E-1,6.9997907E-3,-1.2356073E-1,5.8374822E-2,1.348531E-1,1.5443663E-1,-3.1012428E-1,1.6453853E-1,4.4237694E-1,-8.472376E-2,-3.725544E-1,1.744217E-1,1.344682E-3,1.5270682E-2,-2.2223619E-1,7.679224E-2,1.9303705E-1,-3.0270178E-2,4.0329662E-1,5.6080837E-2,2.935663E-1],"split_indices":[10,50,10,61,61,56,50,0,56,0,56,61,56,56,58,10,10,54,59,10,30,64,11,47,7,64,50,39,37,50,64,10,53,64,49,65,36,50,51,50,51,26,5,59,19,16,50,11,67,4,59,16,50,49,51,0,64,10,49,65,0,61,47,0,0,0,0,0,0,0,0,0,0,0,0,0,0,0,0,0,0,0,0,0,0,0,0,0,0,0,0,0,0,0,0,0,0,0,0,0,0,0,0,0,0,0,0,0,0,0,0,0,0,0,0,0,0,0,0,0,0,0,0,0,0,0,0],"split_type":[0,0,0,0,0,0,0,0,0,0,0,0,0,0,0,0,0,0,0,0,0,0,0,0,0,0,0,0,0,0,0,0,0,0,0,0,0,0,0,0,0,0,0,0,0,0,0,0,0,0,0,0,0,0,0,0,0,0,0,0,0,0,0,0,0,0,0,0,0,0,0,0,0,0,0,0,0,0,0,0,0,0,0,0,0,0,0,0,0,0,0,0,0,0,0,0,0,0,0,0,0,0,0,0,0,0,0,0,0,0,0,0,0,0,0,0,0,0,0,0,0,0,0,0,0,0,0],"sum_hessian":[5.886E3,3.888E3,1.998E3,2.337E3,1.551E3,1.279E3,7.19E2,1.377E3,9.6E2,1.213E3,3.38E2,1.01E2,1.178E3,1.58E2,5.61E2,3.99E2,9.78E2,5.92E2,3.68E2,9.79E2,2.34E2,1.71E2,1.67E2,3.3E1,6.8E1,6.55E2,5.23E2,6.2E1,9.6E1,8.1E1,4.8E2,3.31E2,6.8E1,5.57E2,4.21E2,6.8E1,5.24E2,1.73E2,1.95E2,4.52E2,5.27E2,9.4E1,1.4E2,1.05E2,6.6E1,7E0,1.6E2,2E1,1.3E1,7E0,6.1E1,5.65E2,9E1,1.5E2,3.73E2,5E0,5.7E1,6E0,9E1,3.2E1,4.9E1,3.77E2,1.03E2,3.29E2,2E0,5.7E1,1.1E1,2.83E2,2.74E2,1.13E2,3.08E2,6.5E1,3E0,5.23E2,1E0,1.69E2,4E0,1.64E2,3.1E1,3.56E2,9.6E1,1.86E2,3.41E2,3E1,6.4E1,1.1E1,1.29E2,7.4E1,3.1E1,2.8E1,3.8E1,4E0,3E0,8.8E1,7.2E1,3E0,1.7E1,5E0,8E0,6E0,1E0,5.2E1,9E0,3.4E1,5.31E2,6.6E1,2.4E1,3.7E1,1.13E2,2.61E2,1.12E2,1E0,4E0,4.7E1,1E1,1E0,5E0,1.7E1,7.3E1,2.9E1,3E0,2.3E1,2.6E1,4E0,3.73E2,2.8E1,7.5E1],"tree_param":{"num_deleted":"0","num_feature":"68","num_nodes":"127","size_leaf_vector":"1"}},{"base_weights":[1.3971642E-2,-1.4865092E0,3.049839E0,-2.6137142E0,1.5676115E-1,1.8874016E0,5.1101656E0,-1.8536584E0,-3.5464885E0,1.2274243E0,-5.504859E-1,2.8631248E0,5.2113545E-1,2.2578945E0,6.2534175E0,-8.367238E-1,-3.0621195E0,-4.060382E0,-2.343747E0,2.604547E0,-3.9442676E-1,-7.71128E-1,1.6446393E0,3.2649298E0,3.312491E-1,-1.9037902E0,1.4355459E0,5.9604874E0,1.413932E0,1.3805919E0,7.1710553E0,-4.4363327E0,-3.3622876E-1,-4.1185026E0,-2.6883817E0,-4.533426E0,-3.4532104E0,-2.8727546E0,-1.6992745E0,3.6426802E0,8.102207E-1,-6.0107046E-1,7.0165577E0,-1.361603E0,-2.8259197E-1,-1.2198378E0,2.1129756E0,3.948646E0,2.2494211E0,-1.5503173E0,1.4138539E0,-2.5689263E0,5.3188596E-2,3.7545088E-1,2.1773524E0,1.49439E1,4.0898323E0,-8.404011E-1,3.5977578E0,1.0930975E-1,3.284099E0,4.4374957E0,7.8761377E0,-2.278525E-1,1.4259826E-1,-1.4067076E-1,9.955844E-3,-2.3042133E-1,-1.6382223E-1,-8.3301716E-2,-1.5146403E-1,-2.2749786E-1,5.404241E-2,-2.1140368E-1,-1.3136944E-1,-1.10374786E-1,-1.7375647E-1,-1.7664433E-1,-7.373162E-2,2.5496307E-1,9.7523175E-2,-1.4245401E-1,5.0760992E-2,-7.759202E-2,-7.354577E-3,-7.6226905E-2,5.05884E-1,-6.0805984E-2,-1.6897865E-1,-2.4520922E-2,5.74785E-2,-9.1381654E-2,5.9080697E-3,2.4018863E-1,8.399136E-2,3.5082158E-1,1.6847049E-1,7.502006E-2,1.7502095E-1,1.272694E-2,-2.4509695E-1,1.6923083E-3,1.6518609E-1,-1.7031954E-1,-3.863722E-2,5.87154E-2,-8.347035E-2,-1.0230831E-2,8.424328E-2,8.394576E-2,2.1954046E-1,1.19177066E-1,8.489632E-1,2.678213E-1,3.838418E-2,-1.6621208E-1,1.5722412E-1,8.351369E-2,2.7892634E-1,3.52409E-2,-1.5153861E-1,4.1497495E-2,1.9690315E-1,4.8459244E-1,1.9318818E-1,4.1462144E-1,2.8181717E-1],"categories":[],"categories_nodes":[],"categories_segments":[],"categories_sizes":[],"default_left":[0,0,0,0,0,0,0,0,0,0,0,0,0,0,0,0,0,0,0,0,0,0,0,0,0,0,0,0,0,0,0,0,0,0,0,0,0,0,0,0,0,0,0,0,0,0,0,0,0,0,0,0,0,0,0,0,0,0,0,0,0,0,0,0,0,0,0,0,0,0,0,0,0,0,0,0,0,0,0,0,0,0,0,0,0,0,0,0,0,0,0,0,0,0,0,0,0,0,0,0,0,0,0,0,0,0,0,0,0,0,0,0,0,0,0,0,0,0,0,0,0,0,0,0,0,0,0],"id":6,"left_children":[1,3,5,7,9,11,13,15,17,19,21,23,25,27,29,31,33,35,37,39,41,43,45,47,49,51,53,55,57,59,61,63,65,67,69,71,73,75,77,79,81,83,85,87,89,91,93,95,97,99,101,103,105,107,109,111,113,115,117,119,121,123,125,-1,-1,-1,-1,-1,-1,-1,-1,-1,-1,-1,-1,-1,-1,-1,-1,-1,-1,-1,-1,-1,-1,-1,-1,-1,-1,-1,-1,-1,-1,-1,-1,-1,-1,-1,-1,-1,-1,-1,-1,-1,-1,-1,-1,-1,-1,-1,-1,-1,-1,-1,-1,-1,-1,-1,-1,-1,-1,-1,-1,-1,-1,-1,-1],"loss_changes":[2.6634588E4,7.2484697E3,4.622287E3,1.6389229E3,1.2069325E3,1.6488823E3,2.2587012E3,1.5716924E3,6.339043E2,1.4170588E3,4.6623166E2,7.334238E2,1.1491171E3,6.196671E2,2.2124316E3,1.2542141E3,2.1989209E2,1.9344043E2,1.02170654E2,6.359717E2,4.513959E2,2.5144806E2,1.2063289E2,4.236797E2,2.058912E2,1.8497198E2,2.948634E2,5.6066187E2,8.1533026E2,1.9323259E2,7.706953E2,8.778162E1,8.134907E2,4.7194824E1,1.4655786E2,4.259961E1,1.9557861E2,6.085437E1,5.4104797E1,5.249265E2,9.816191E1,1.2278613E2,2.2732059E2,1.1185449E2,1.4313387E2,1.0787943E1,8.050958E1,6.356157E2,2.318147E2,2.2506796E2,1.6680225E2,1.5681702E2,7.34161E1,1.188344E2,2.3645068E2,1.1291858E2,1.3053796E2,8.2207385E2,3.11386E2,9.376344E1,4.8089172E1,2.2783716E2,2.6188672E2,0E0,0E0,0E0,0E0,0E0,0E0,0E0,0E0,0E0,0E0,0E0,0E0,0E0,0E0,0E0,0E0,0E0,0E0,0E0,0E0,0E0,0E0,0E0,0E0,0E0,0E0,0E0,0E0,0E0,0E0,0E0,0E0,0E0,0E0,0E0,0E0,0E0,0E0,0E0,0E0,0E0,0E0,0E0,0E0,0E0,0E0,0E0,0E0,0E0,0E0,0E0,0E0,0E0,0E0,0E0,0E0,0E0,0E0,0E0,0E0,0E0,0E0,0E0,0E0],"parents":[2147483647,0,0,1,1,2,2,3,3,4,4,5,5,6,6,7,7,8,8,9,9,10,10,11,11,12,12,13,13,14,14,15,15,16,16,17,17,18,18,19,19,20,20,21,21,22,22,23,23,24,24,25,25,26,26,27,27,28,28,29,29,30,30,31,31,32,32,33,33,34,34,35,35,36,36,37,37,38,38,39,39,40,40,41,41,42,42,43,43,44,44,45,45,46,46,47,47,48,48,49,49,50,50,51,51,52,52,53,53,54,54,55,55,56,56,57,57,58,58,59,59,60,60,61,61,62,62],"right_children":[2,4,6,8,10,12,14,16,18,20,22,24,26,28,30,32,34,36,38,40,42,44,46,48,50,52,54,56,58,60,62,64,66,68,70,72,74,76,78,80,82,84,86,88,90,92,94,96,98,100,102,104,106,108,110,112,114,116,118,120,122,124,126,-1,-1,-1,-1,-1,-1,-1,-1,-1,-1,-1,-1,-1,-1,-1,-1,-1,-1,-1,-1,-1,-1,-1,-1,-1,-1,-1,-1,-1,-1,-1,-1,-1,-1,-1,-1,-1,-1,-1,-1,-1,-1,-1,-1,-1,-1,-1,-1,-1,-1,-1,-1,-1,-1,-1,-1,-1,-1,-1,-1,-1,-1,-1,-1],"split_conditions":[8.9833975E0,7.264411E0,1.483316E1,1.5E1,1.5E1,4E0,1.13E1,4E0,7.2E0,4E0,2.66E1,1.1E1,1.06E1,3.5680002E-1,-7.818315E-1,8.7422264E-1,4.2813286E-1,4.866244E0,2.858874E0,1E1,3.600548E1,5.8896213E0,6.952144E0,1.1E1,3.3308594E0,6.0657244E0,1.1608008E1,2E0,1.1319482E1,7.182433E0,1.5629645E1,2.6E0,2E0,6.7328506E0,5E0,7.883862E0,3E0,5.022832E0,2E0,1.1E1,2.757056E-1,5.893343E0,7.455153E0,1.1E1,2.3E1,7.281411E0,1.1180385E1,1E0,1.1828593E1,1.505058E0,1.1828593E1,5.807872E0,5.5118685E0,1.2939605E1,2.0929043E1,7.218126E-2,1.1608008E1,5.7237477E0,6.8416214E0,2E-1,6.584207E0,4.4250154E0,9E0,-2.278525E-1,1.4259826E-1,-1.4067076E-1,9.955844E-3,-2.3042133E-1,-1.6382223E-1,-8.3301716E-2,-1.5146403E-1,-2.2749786E-1,5.404241E-2,-2.1140368E-1,-1.3136944E-1,-1.10374786E-1,-1.7375647E-1,-1.7664433E-1,-7.373162E-2,2.5496307E-1,9.7523175E-2,-1.4245401E-1,5.0760992E-2,-7.759202E-2,-7.354577E-3,-7.6226905E-2,5.05884E-1,-6.0805984E-2,-1.6897865E-1,-2.4520922E-2,5.74785E-2,-9.1381654E-2,5.9080697E-3,2.4018863E-1,8.399136E-2,3.5082158E-1,1.6847049E-1,7.502006E-2,1.7502095E-1,1.272694E-2,-2.4509695E-1,1.6923083E-3,1.6518609E-1,-1.7031954E-1,-3.863722E-2,5.87154E-2,-8.347035E-2,-1.0230831E-2,8.424328E-2,8.394576E-2,2.1954046E-1,1.19177066E-1,8.489632E-1,2.678213E-1,3.838418E-2,-1.6621208E-1,1.5722412E-1,8.351369E-2,2.7892634E-1,3.52409E-2,-1.5153861E-1,4.1497495E-2,1.9690315E-1,4.8459244E-1,1.9318818E-1,4.1462144E-1,2.8181717E-1],"split_indices":[10,50,8,59,59,56,66,56,66,56,66,64,66,48,58,54,8,51,31,64,39,8,0,59,34,54,38,56,38,0,10,65,59,39,56,8,64,47,64,59,55,51,4,64,59,37,50,56,11,34,10,50,25,50,15,0,41,13,27,65,16,28,64,0,0,0,0,0,0,0,0,0,0,0,0,0,0,0,0,0,0,0,0,0,0,0,0,0,0,0,0,0,0,0,0,0,0,0,0,0,0,0,0,0,0,0,0,0,0,0,0,0,0,0,0,0,0,0,0,0,0,0,0,0,0,0,0],"split_type":[0,0,0,0,0,0,0,0,0,0,0,0,0,0,0,0,0,0,0,0,0,0,0,0,0,0,0,0,0,0,0,0,0,0,0,0,0,0,0,0,0,0,0,0,0,0,0,0,0,0,0,0,0,0,0,0,0,0,0,0,0,0,0,0,0,0,0,0,0,0,0,0,0,0,0,0,0,0,0,0,0,0,0,0,0,0,0,0,0,0,0,0,0,0,0,0,0,0,0,0,0,0,0,0,0,0,0,0,0,0,0,0,0,0,0,0,0,0,0,0,0,0,0,0,0,0,0],"sum_hessian":[5.845E3,3.912E3,1.933E3,2.32E3,1.592E3,1.237E3,6.96E2,1.28E3,1.04E3,6.33E2,9.59E2,7.21E2,5.16E2,2E2,4.96E2,6.96E2,5.84E2,7.27E2,3.13E2,3.42E2,2.91E2,8.72E2,8.7E1,6.22E2,9.9E1,1.41E2,3.75E2,3.6E1,1.64E2,7.9E1,4.17E2,8.4E1,6.12E2,1.5E2,4.34E2,4.05E2,3.22E2,1.7E2,1.43E2,2.16E2,1.26E2,2.84E2,7E0,3.94E2,4.78E2,1.2E1,7.5E1,3.7E2,2.52E2,3.6E1,6.3E1,1.05E2,3.6E1,1.55E2,2.2E2,5E0,3.1E1,8.1E1,8.3E1,4.8E1,3.1E1,8.7E1,3.3E2,8.3E1,1E0,1.08E2,5.04E2,9.2E1,5.8E1,1.1E2,3.24E2,4.04E2,1E0,1.64E2,1.58E2,8.3E1,8.7E1,1.4E1,1.29E2,1.15E2,1.01E2,6E0,1.2E2,9.1E1,1.93E2,2E0,5E0,3.69E2,2.5E1,4.18E2,6E1,8E0,4E0,9E0,6.6E1,5.7E1,3.13E2,1.59E2,9.3E1,2.4E1,1.2E1,3.7E1,2.6E1,7.1E1,3.4E1,2.2E1,1.4E1,1.08E2,4.7E1,1.81E2,3.9E1,1E0,4E0,2.2E1,9E0,5E1,3.1E1,4.3E1,4E1,4.1E1,7E0,7E0,2.4E1,7E0,8E1,2.76E2,5.4E1],"tree_param":{"num_deleted":"0","num_feature":"68","num_nodes":"127","size_leaf_vector":"1"}},{"base_weights":[-2.7016308E-2,-1.5084965E0,2.6988635E0,-2.5075972E0,6.549544E-2,1.7181814E0,5.021841E0,-3.1738605E0,-1.519613E0,1.9113135E0,-3.8142514E-1,2.6448998E0,4.5550266E-1,2.2920663E0,6.207237E0,-4.1527944E0,-2.8071268E0,-1.6366248E-1,-3.0454504E0,3.7083714E0,-1.0362432E0,-8.570981E-1,5.327465E-1,1.4405429E0,3.6125042E0,-1.5481253E0,1.351662E0,5.605809E0,1.1242262E0,6.9640436E0,2.204789E0,-4.359118E0,-2.2370129E0,-3.3906665E0,-2.2294445E0,-3.694832E0,5.0298196E-1,-3.3751576E0,-1.421592E0,4.8919253E0,1.468251E0,-1.8742957E0,6.2302315E-1,-1.0744087E0,-2.3881905E-1,-1.0588992E0,8.33945E-1,-1.2574981E0,2.0992725E0,2.2035701E0,5.104832E0,-6.0917795E-1,-2.7851737E0,4.0587497E-1,2.109759E0,-3.482358E-1,7.1414165E0,1.1217844E1,6.7065316E-1,4.278236E0,7.639292E0,-1.450262E-1,3.5966122E0,-2.2168802E-1,-5.523614E-2,-7.495144E-2,-2.2652006E-1,-1.9417858E-1,-1.2521487E-1,-9.212197E-2,-1.830574E-1,-2.1417062E-1,7.1217455E-2,2.9470062E-2,-9.013098E-1,-1.7459996E-1,-7.730645E-3,-6.8062334E-3,-1.3036232E-1,8.0735706E-2,2.970819E-1,1.1823767E-1,-1.3068275E-1,-7.238716E-2,-2.0928326E-1,3.9322195E-3,1.5113042E-1,-6.1457932E-2,1.0227914E-2,7.1343766E-3,-3.0539218E-2,-9.222158E-2,6.568892E-2,1.602845E-1,3.2784313E-2,-2.3006689E-2,-1.0120434E0,1.1060814E-1,-2.558286E-1,-1.4077279E-2,1.4408101E-1,3.211018E-1,1.603506E-1,-4.4496893E-3,-2.4466407E-1,-2.1214807E-1,-5.5598896E-2,1.5762094E-3,1.0474503E-1,8.003674E-2,1.6579111E-1,1.3172202E-1,-1.6364364E-1,4.7436967E-1,2.4486855E-1,2.150748E-1,8.350181E-1,-7.295244E-2,1.4109059E-1,7.784691E-2,2.4949132E-1,2.143828E-1,3.9777657E-1,-1.23311125E-1,3.1780597E-2,3.948314E-1,1.4214252E-1],"categories":[],"categories_nodes":[],"categories_segments":[],"categories_sizes":[],"default_left":[0,0,0,0,0,0,0,0,0,0,0,0,0,0,0,0,0,0,0,0,0,0,0,0,0,0,0,0,0,0,0,0,0,0,0,0,0,0,0,0,0,0,0,0,0,0,0,0,0,0,0,0,0,0,0,0,0,0,0,0,0,0,0,0,0,0,0,0,0,0,0,0,0,0,0,0,0,0,0,0,0,0,0,0,0,0,0,0,0,0,0,0,0,0,0,0,0,0,0,0,0,0,0,0,0,0,0,0,0,0,0,0,0,0,0,0,0,0,0,0,0,0,0,0,0,0,0],"id":7,"left_children":[1,3,5,7,9,11,13,15,17,19,21,23,25,27,29,31,33,35,37,39,41,43,45,47,49,51,53,55,57,59,61,63,65,67,69,71,73,75,77,79,81,83,85,87,89,91,93,95,97,99,101,103,105,107,109,111,113,115,117,119,121,123,125,-1,-1,-1,-1,-1,-1,-1,-1,-1,-1,-1,-1,-1,-1,-1,-1,-1,-1,-1,-1,-1,-1,-1,-1,-1,-1,-1,-1,-1,-1,-1,-1,-1,-1,-1,-1,-1,-1,-1,-1,-1,-1,-1,-1,-1,-1,-1,-1,-1,-1,-1,-1,-1,-1,-1,-1,-1,-1,-1,-1,-1,-1,-1,-1],"loss_changes":[2.3935254E4,6.0388574E3,4.7457705E3,1.5414248E3,1.2315308E3,1.7177422E3,1.9887725E3,4.9167188E2,1.9608755E3,1.5452496E3,5.2314233E2,9.818408E2,1.1207325E3,7.251131E2,1.2901797E3,1.4045117E2,3.372954E2,1.1859379E3,2.3398975E2,4.7270337E2,1.5551904E2,1.0602106E2,1.983964E2,6.762288E2,9.748662E2,2.2247726E2,3.0817004E2,4.5049744E2,6.38002E2,6.2383594E2,2.294585E2,7.81792E1,5.9215683E1,2.1178027E2,2.797119E2,2.471449E2,6.895669E2,1.3868848E2,1.17002304E2,3.9634106E2,2.4038466E2,6.6898346E1,4.9401054E1,1.1603467E2,2.9461946E1,1.25434975E2,1.4460422E2,1.1259362E3,2.59771E2,4.102744E2,5.468623E2,2.4693054E2,1.9773254E2,1.2196556E2,1.4141797E2,1.0457789E2,1.5885156E2,1.5567737E2,6.2717755E2,1.3746484E2,2.7114648E2,5.049195E1,1.2016333E2,0E0,0E0,0E0,0E0,0E0,0E0,0E0,0E0,0E0,0E0,0E0,0E0,0E0,0E0,0E0,0E0,0E0,0E0,0E0,0E0,0E0,0E0,0E0,0E0,0E0,0E0,0E0,0E0,0E0,0E0,0E0,0E0,0E0,0E0,0E0,0E0,0E0,0E0,0E0,0E0,0E0,0E0,0E0,0E0,0E0,0E0,0E0,0E0,0E0,0E0,0E0,0E0,0E0,0E0,0E0,0E0,0E0,0E0,0E0,0E0,0E0,0E0,0E0,0E0],"parents":[2147483647,0,0,1,1,2,2,3,3,4,4,5,5,6,6,7,7,8,8,9,9,10,10,11,11,12,12,13,13,14,14,15,15,16,16,17,17,18,18,19,19,20,20,21,21,22,22,23,23,24,24,25,25,26,26,27,27,28,28,29,29,30,30,31,31,32,32,33,33,34,34,35,35,36,36,37,37,38,38,39,39,40,40,41,41,42,42,43,43,44,44,45,45,46,46,47,47,48,48,49,49,50,50,51,51,52,52,53,53,54,54,55,55,56,56,57,57,58,58,59,59,60,60,61,61,62,62],"right_children":[2,4,6,8,10,12,14,16,18,20,22,24,26,28,30,32,34,36,38,40,42,44,46,48,50,52,54,56,58,60,62,64,66,68,70,72,74,76,78,80,82,84,86,88,90,92,94,96,98,100,102,104,106,108,110,112,114,116,118,120,122,124,126,-1,-1,-1,-1,-1,-1,-1,-1,-1,-1,-1,-1,-1,-1,-1,-1,-1,-1,-1,-1,-1,-1,-1,-1,-1,-1,-1,-1,-1,-1,-1,-1,-1,-1,-1,-1,-1,-1,-1,-1,-1,-1,-1,-1,-1,-1,-1,-1,-1,-1,-1,-1,-1,-1,-1,-1,-1,-1,-1,-1,-1,-1,-1,-1],"split_conditions":[8.545999E0,7.4654107E0,1.5629645E1,1.2246469E-16,1E1,4E0,1.0092452E1,1.049308E0,4E0,6E0,1.0792861E1,5E-1,8.372429E0,5.117894E0,5E0,5.650825E0,1.5112499E0,7.1688074E-1,6.1186657E0,1E1,1.0346711E1,8.544722E0,4.8436055E0,8.125077E0,7.949524E0,5E0,1.2074431E1,8.044434E-1,6.284438E0,5E-1,1.3602543E1,9.293885E0,1.0339656E1,3.3308594E0,6.6916595E0,2E-1,3.9870403E1,9.495577E0,5.2770696E0,1E0,8.347415E0,1.4728234E1,9.8422785E0,2.3E1,6.354173E0,9.336293E0,4.4250154E0,2.1910446E1,7.5E0,3.2226667E0,9E0,7.7527514E0,5.772009E0,1.3728739E1,1.2457448E1,1.8010305E0,7E0,7.218126E-2,1.2403033E1,1.1030967E1,5.3199E0,7.0877495E0,6.762604E0,-2.2168802E-1,-5.523614E-2,-7.495144E-2,-2.2652006E-1,-1.9417858E-1,-1.2521487E-1,-9.212197E-2,-1.830574E-1,-2.1417062E-1,7.1217455E-2,2.9470062E-2,-9.013098E-1,-1.7459996E-1,-7.730645E-3,-6.8062334E-3,-1.3036232E-1,8.0735706E-2,2.970819E-1,1.1823767E-1,-1.3068275E-1,-7.238716E-2,-2.0928326E-1,3.9322195E-3,1.5113042E-1,-6.1457932E-2,1.0227914E-2,7.1343766E-3,-3.0539218E-2,-9.222158E-2,6.568892E-2,1.602845E-1,3.2784313E-2,-2.3006689E-2,-1.0120434E0,1.1060814E-1,-2.558286E-1,-1.4077279E-2,1.4408101E-1,3.211018E-1,1.603506E-1,-4.4496893E-3,-2.4466407E-1,-2.1214807E-1,-5.5598896E-2,1.5762094E-3,1.0474503E-1,8.003674E-2,1.6579111E-1,1.3172202E-1,-1.6364364E-1,4.7436967E-1,2.4486855E-1,2.150748E-1,8.350181E-1,-7.295244E-2,1.4109059E-1,7.784691E-2,2.4949132E-1,2.143828E-1,3.9777657E-1,-1.23311125E-1,3.1780597E-2,3.948314E-1,1.4214252E-1],"split_indices":[10,50,8,61,59,56,50,0,56,56,0,61,50,53,56,10,37,51,19,64,50,16,34,50,50,56,39,44,51,61,51,53,35,12,53,65,36,49,50,59,42,34,53,59,3,12,12,2,67,37,64,35,50,50,51,0,64,0,37,46,24,22,36,0,0,0,0,0,0,0,0,0,0,0,0,0,0,0,0,0,0,0,0,0,0,0,0,0,0,0,0,0,0,0,0,0,0,0,0,0,0,0,0,0,0,0,0,0,0,0,0,0,0,0,0,0,0,0,0,0,0,0,0,0,0,0,0],"split_type":[0,0,0,0,0,0,0,0,0,0,0,0,0,0,0,0,0,0,0,0,0,0,0,0,0,0,0,0,0,0,0,0,0,0,0,0,0,0,0,0,0,0,0,0,0,0,0,0,0,0,0,0,0,0,0,0,0,0,0,0,0,0,0,0,0,0,0,0,0,0,0,0,0,0,0,0,0,0,0,0,0,0,0,0,0,0,0,0,0,0,0,0,0,0,0,0,0,0,0,0,0,0,0,0,0,0,0,0,0,0,0,0,0,0,0,0,0,0,0,0,0,0,0,0,0,0,0],"sum_hessian":[5.925E3,3.839E3,2.086E3,2.348E3,1.491E3,1.468E3,6.18E2,1.401E3,9.47E2,2.9E2,1.201E3,8.46E2,6.22E2,1.88E2,4.3E2,3.79E2,1.022E3,5.02E2,4.45E2,1.8E2,1.1E2,7.9E2,4.11E2,3.78E2,4.68E2,1.92E2,4.3E2,4.8E1,1.4E2,3.61E2,6.9E1,3.41E2,3.8E1,5.06E2,5.16E2,7.9E1,4.23E2,3.69E2,7.6E1,1.17E2,6.3E1,7.3E1,3.7E1,5.84E2,2.06E2,6.5E1,3.46E2,7.4E1,3.04E2,2.42E2,2.26E2,1.1E2,8.2E1,1.92E2,2.38E2,1E1,3.8E1,5E0,1.35E2,7.4E1,2.87E2,2.6E1,4.3E1,3.33E2,8E0,3E1,8E0,3.23E2,1.83E2,4.08E2,1.08E2,7.1E1,8E0,4.22E2,1E0,3.56E2,1.3E1,3.7E1,3.9E1,2.9E1,8.8E1,5.2E1,1.1E1,6.3E1,1E1,3.1E1,6E0,5.21E2,6.3E1,1.02E2,1.04E2,4.9E1,1.6E1,2.3E1,3.23E2,7.2E1,2E0,3E2,4E0,5.2E1,1.9E2,1.32E2,9.4E1,9.9E1,1.1E1,4.3E1,3.9E1,1.58E2,3.4E1,1.69E2,6.9E1,5E0,5E0,1.7E1,2.1E1,3E0,2E0,6.8E1,6.7E1,1.6E1,5.8E1,2.6E1,2.61E2,6E0,2E1,5E0,3.8E1],"tree_param":{"num_deleted":"0","num_feature":"68","num_nodes":"127","size_leaf_vector":"1"}},{"base_weights":[1.0422753E-2,-1.4087504E0,2.7701962E0,-2.3683796E0,7.068392E-2,1.7538743E0,4.8200965E0,-3.021923E0,-1.3951871E0,-3.4837785E-1,1.5960578E0,2.6342294E0,5.1981735E-1,2.4328485E0,5.9343963E0,-3.6974022E0,-1.975993E0,-1.1135076E-1,-2.8151138E0,-5.672331E-1,1.5137728E0,3.7967002E0,-6.9538176E-1,5.0190697E0,2.289698E0,-1.3081337E0,1.4105949E0,2.5958123E0,-8.028879E-1,1.4278998E0,6.6471524E0,-3.9205346E0,-2.85295E0,-2.6349065E0,-1.4189537E0,-3.9453785E0,4.3911642E-1,-3.0843499E0,-1.3513079E0,-1.1787901E0,-9.510349E-2,4.572921E0,8.992319E-1,2.8884647E0,6.6535487E0,6.32738E0,-1.0040693E0,1.6493455E0,6.6278853E0,1.756756E0,3.5490782E0,-3.6940358E0,-8.921369E-1,7.291437E-1,2.2449899E0,4.635801E0,1.1666474E0,-9.7756785E-1,2.3381286E0,3.322568E0,7.0820603E0,-1.918003E-1,-8.581163E-1,-1.557674E-1,-3.9553482E-2,-1.15215436E-1,-1.9528161E-1,-1.0886993E-1,-4.663874E-2,-2.2094698E-1,-1.1390548E-1,-5.380639E-2,6.1067462E-2,-1.7541702E-1,-1.0238661E-1,-8.402511E-2,7.461548E-2,-3.3832986E-2,-9.067468E-2,-2.274469E-2,1.4657857E-2,5.0786234E-2,2.964042E-1,6.2566E-3,1.0023792E-1,1.8794556E-1,9.051477E-2,3.6397672E-1,9.465206E-2,-2.080344E-2,3.7603167E-1,-7.471678E-2,1.24678025E-2,-2.2427013E-2,1.2904857E-1,1.889485E-1,3.9367008E-1,9.329006E-2,-1.550904E-1,5.395726E-2,2.0375286E-1,-2.1533313E-1,-6.642185E-2,-3.7338104E-2,-4.0771246E-1,1.4483361E-1,1.8891584E-2,7.8709416E-2,1.6604635E-1,2.4595654E-1,-4.93265E-1,2.4847591E-1,8.806983E-3,-1.9818436E-1,7.936474E-3,7.583534E-2,1.6650708E-1,-9.417766E-2,1.8601693E-1,1.9950064E-2,3.5997573E-1],"categories":[],"categories_nodes":[],"categories_segments":[],"categories_sizes":[],"default_left":[0,0,0,0,0,0,0,0,0,0,0,0,0,0,0,0,0,0,0,0,0,0,0,0,0,0,0,0,0,0,0,0,0,0,0,0,0,0,0,0,0,0,0,0,0,0,0,0,0,0,0,0,0,0,0,0,0,0,0,0,0,0,0,0,0,0,0,0,0,0,0,0,0,0,0,0,0,0,0,0,0,0,0,0,0,0,0,0,0,0,0,0,0,0,0,0,0,0,0,0,0,0,0,0,0,0,0,0,0,0,0,0,0,0,0,0,0,0,0,0,0],"id":8,"left_children":[1,3,5,7,9,11,13,15,17,19,21,23,25,27,29,31,33,35,37,39,41,43,45,47,49,51,53,55,-1,57,59,61,63,65,67,69,71,73,75,77,79,81,83,85,87,89,91,93,95,97,99,101,103,105,107,109,111,113,115,117,119,-1,-1,-1,-1,-1,-1,-1,-1,-1,-1,-1,-1,-1,-1,-1,-1,-1,-1,-1,-1,-1,-1,-1,-1,-1,-1,-1,-1,-1,-1,-1,-1,-1,-1,-1,-1,-1,-1,-1,-1,-1,-1,-1,-1,-1,-1,-1,-1,-1,-1,-1,-1,-1,-1,-1,-1,-1,-1,-1,-1],"loss_changes":[2.312357E4,5.5356094E3,4.1686807E3,1.4999805E3,9.8176776E2,1.4565898E3,1.751875E3,9.916904E2,1.7351383E3,4.919461E2,1.6717538E3,6.318618E2,9.13692E2,6.8351636E2,1.4423496E3,1.504834E2,2.0070264E2,1.0590962E3,1.7396948E2,3.11432E2,2.3464426E2,4.1928442E2,3.59711E2,5.203523E2,4.5419263E2,1.793295E2,2.127251E2,6.1267346E2,0E0,1.4022578E2,5.4036523E2,6.9081836E2,9.654443E1,9.7705444E1,1.1006592E2,3.9674988E1,5.216495E2,1.6027148E2,6.990723E1,1.4856372E2,8.5345726E1,9.521091E1,9.131844E1,1.1519885E2,1.0541992E2,5.9455597E1,9.685101E1,6.565436E1,2.0443921E2,2.6221216E2,2.5932642E2,3.340805E1,1.6071579E2,1.5805463E2,1.1674634E2,4.0597693E2,4.7373813E2,6.170529E1,3.2432755E1,1.043371E2,2.6715234E2,0E0,0E0,0E0,0E0,0E0,0E0,0E0,0E0,0E0,0E0,0E0,0E0,0E0,0E0,0E0,0E0,0E0,0E0,0E0,0E0,0E0,0E0,0E0,0E0,0E0,0E0,0E0,0E0,0E0,0E0,0E0,0E0,0E0,0E0,0E0,0E0,0E0,0E0,0E0,0E0,0E0,0E0,0E0,0E0,0E0,0E0,0E0,0E0,0E0,0E0,0E0,0E0,0E0,0E0,0E0,0E0,0E0,0E0,0E0,0E0],"parents":[2147483647,0,0,1,1,2,2,3,3,4,4,5,5,6,6,7,7,8,8,9,9,10,10,11,11,12,12,13,13,14,14,15,15,16,16,17,17,18,18,19,19,20,20,21,21,22,22,23,23,24,24,25,25,26,26,27,27,29,29,30,30,31,31,32,32,33,33,34,34,35,35,36,36,37,37,38,38,39,39,40,40,41,41,42,42,43,43,44,44,45,45,46,46,47,47,48,48,49,49,50,50,51,51,52,52,53,53,54,54,55,55,56,56,57,57,58,58,59,59,60,60],"right_children":[2,4,6,8,10,12,14,16,18,20,22,24,26,28,30,32,34,36,38,40,42,44,46,48,50,52,54,56,-1,58,60,62,64,66,68,70,72,74,76,78,80,82,84,86,88,90,92,94,96,98,100,102,104,106,108,110,112,114,116,118,120,-1,-1,-1,-1,-1,-1,-1,-1,-1,-1,-1,-1,-1,-1,-1,-1,-1,-1,-1,-1,-1,-1,-1,-1,-1,-1,-1,-1,-1,-1,-1,-1,-1,-1,-1,-1,-1,-1,-1,-1,-1,-1,-1,-1,-1,-1,-1,-1,-1,-1,-1,-1,-1,-1,-1,-1,-1,-1,-1,-1],"split_conditions":[8.792398E0,7.4654107E0,1.5238508E1,1.2246469E-16,2.5881904E-1,4E0,1.0092452E1,6.6E0,4E0,2.62E1,4E0,1E0,8.755368E0,2.645264E1,-7.818315E-1,4.4250154E0,4.9209085E0,6.571872E-1,6.0933695E0,5.8896213E0,4.6948E0,8.949994E0,1.3458513E0,2.5881904E-1,1.4064053E1,2.51879E0,9.599365E0,5.7484384E0,-8.028879E-1,1.2404801E1,1.1372493E1,4.336752E0,1.7087036E1,5.6865854E0,1.1272008E0,3E0,5E-1,9E0,1.0271891E1,8.2E1,-5E-1,8E0,1.6092505E1,1E1,3E0,4.4250154E0,1.04244375E1,-2.5881904E-1,7.8821473E0,3.1647978E1,4.947652E0,1.0864384E1,3.9870403E1,5E0,1.42372E1,8.231734E0,1.6399291E-1,7.0755696E0,1.0933034E1,8E0,-2.5881904E-1,-1.918003E-1,-8.581163E-1,-1.557674E-1,-3.9553482E-2,-1.15215436E-1,-1.9528161E-1,-1.0886993E-1,-4.663874E-2,-2.2094698E-1,-1.1390548E-1,-5.380639E-2,6.1067462E-2,-1.7541702E-1,-1.0238661E-1,-8.402511E-2,7.461548E-2,-3.3832986E-2,-9.067468E-2,-2.274469E-2,1.4657857E-2,5.0786234E-2,2.964042E-1,6.2566E-3,1.0023792E-1,1.8794556E-1,9.051477E-2,3.6397672E-1,9.465206E-2,-2.080344E-2,3.7603167E-1,-7.471678E-2,1.24678025E-2,-2.2427013E-2,1.2904857E-1,1.889485E-1,3.9367008E-1,9.329006E-2,-1.550904E-1,5.395726E-2,2.0375286E-1,-2.1533313E-1,-6.642185E-2,-3.7338104E-2,-4.0771246E-1,1.4483361E-1,1.8891584E-2,7.8709416E-2,1.6604635E-1,2.4595654E-1,-4.93265E-1,2.4847591E-1,8.806983E-3,-1.9818436E-1,7.936474E-3,7.583534E-2,1.6650708E-1,-9.417766E-2,1.8601693E-1,1.9950064E-2,3.5997573E-1],"split_indices":[10,50,8,61,61,56,50,66,56,66,56,56,50,29,58,8,51,54,20,10,11,32,22,61,11,40,1,53,0,50,11,8,28,45,31,56,61,59,5,62,61,64,1,64,56,2,50,61,3,3,17,5,5,56,38,24,48,19,43,66,61,0,0,0,0,0,0,0,0,0,0,0,0,0,0,0,0,0,0,0,0,0,0,0,0,0,0,0,0,0,0,0,0,0,0,0,0,0,0,0,0,0,0,0,0,0,0,0,0,0,0,0,0,0,0,0,0,0,0,0,0],"split_type":[0,0,0,0,0,0,0,0,0,0,0,0,0,0,0,0,0,0,0,0,0,0,0,0,0,0,0,0,0,0,0,0,0,0,0,0,0,0,0,0,0,0,0,0,0,0,0,0,0,0,0,0,0,0,0,0,0,0,0,0,0,0,0,0,0,0,0,0,0,0,0,0,0,0,0,0,0,0,0,0,0,0,0,0,0,0,0,0,0,0,0,0,0,0,0,0,0,0,0,0,0,0,0,0,0,0,0,0,0,0,0,0,0,0,0,0,0,0,0,0,0],"sum_hessian":[5.902E3,3.898E3,2.004E3,2.364E3,1.534E3,1.341E3,6.63E2,1.413E3,9.51E2,1.204E3,3.3E2,7.82E2,5.59E2,2.12E2,4.51E2,8.57E2,5.56E2,5E2,4.51E2,1.078E3,1.26E2,1.68E2,1.62E2,9.7E1,6.85E2,1.83E2,3.76E2,2.11E2,1E0,6.2E1,3.89E2,6.75E2,1.82E2,2.53E2,3.03E2,6.2E1,4.38E2,3.8E2,7.1E1,4.69E2,6.09E2,2E1,1.06E2,1.29E2,3.9E1,6E0,1.56E2,3.2E1,6.5E1,4.83E2,2.02E2,2.6E1,1.57E2,2.08E2,1.68E2,8.6E1,1.25E2,1.7E1,4.5E1,4.6E1,3.43E2,6.72E2,3E0,1.61E2,2.1E1,2.03E2,5E1,1.17E2,1.86E2,4.7E1,1.5E1,1.49E2,2.89E2,2.68E2,1.12E2,6.4E1,7E0,2.63E2,2.06E2,3.16E2,2.93E2,6E0,1.4E1,6.3E1,4.3E1,7E1,5.9E1,3.4E1,5E0,1E0,5E0,1.12E2,4.4E1,1E1,2.2E1,2.1E1,4.4E1,4.73E2,1E1,3.6E1,1.66E2,2E1,6E0,1.55E2,2E0,2.8E1,1.8E2,1.05E2,6.3E1,8.5E1,1E0,2.5E1,1E2,4E0,1.3E1,2.6E1,1.9E1,3E0,4.3E1,6E0,3.37E2],"tree_param":{"num_deleted":"0","num_feature":"68","num_nodes":"121","size_leaf_vector":"1"}},{"base_weights":[-8.91127E-3,-1.313364E0,2.5625408E0,-2.2589362E0,1.435837E-1,1.5688502E0,4.5963573E0,-2.8917804E0,-1.3358021E0,-6.3594395E-1,1.2018054E0,2.3893738E0,4.6342897E-1,2.3603375E0,5.6408987E0,-3.4316866E0,-2.0080307E0,-1.18011534E-1,-2.6833394E0,-8.874626E-1,1.0128427E0,2.5642774E0,-3.752653E-1,4.9267697E0,2.027109E0,-1.452221E0,1.2812108E0,4.09316E0,1.1154927E0,1.5501778E0,6.2653837E0,-4.328896E0,-3.0860913E0,-1.7855673E0,-3.3516304E0,-3.6919065E0,4.792707E-1,-3.2501886E0,-1.6139522E0,-1.4558333E0,-4.497243E-1,1.9155413E-1,2.2941735E0,1.5010489E0,4.4745865E0,-1.0668169E0,4.7550797E-1,1.7409735E0,6.2321625E0,1.0092444E0,2.8907754E0,-1.214098E0,-7.7982554E0,5.5231845E-1,2.1690109E0,1.9900932E0,6.8813562E0,1.4204742E0,-6.366165E0,-1.9071962E0,2.1976986E0,4.107377E0,7.0949397E0,-2.0530713E-1,-3.228184E-1,-1.6735524E-1,-1.06279634E-1,-1.12540804E-1,-6.0580093E-2,-1.8178265E-1,-3.6588192E-3,-1.9712971E-1,1.7358366E-1,3.0193552E-2,-6.5798426E-1,-1.6800527E-1,-1.7067209E-2,-9.3596414E-2,1.0370393E-1,-1.5045007E-1,-6.0840428E-2,-3.7514165E-2,1.0001864E-2,-6.1784834E-2,3.0693242E-2,2.4834661E-1,7.549007E-2,6.6911206E-2,3.6376977E-1,1.4991163E-1,3.2789788E-1,-7.9415135E-2,-5.0835325E-3,3.4280255E-1,1.4074773E-2,1.3125212E-1,-2.5764799E-2,1.6796099E-1,3.6094868E-1,2.6017262E-2,1.2041628E-1,-4.3717947E-2,1.6224864E-1,-1.9891912E-1,-4.1487288E-2,-1.4054902E-1,-5.924269E-1,-4.0918775E-3,8.038422E-2,1.7955212E-1,6.957045E-2,-8.152973E-2,1.63583E-1,4.260325E-1,1.9545075E-1,-2.3224561E-1,9.205166E-2,-3.522968E-1,-9.1177106E-2,-1.371497E-1,4.7866527E-2,6.993348E-2,1.856741E-1,-1.6597645E-1,2.2481792E-1,1.8761607E-1,3.6991972E-1],"categories":[],"categories_nodes":[],"categories_segments":[],"categories_sizes":[],"default_left":[0,0,0,0,0,0,0,0,0,0,0,0,0,0,0,0,0,0,0,0,0,0,0,0,0,0,0,0,0,0,0,0,0,0,0,0,0,0,0,0,0,0,0,0,0,0,0,0,0,0,0,0,0,0,0,0,0,0,0,0,0,0,0,0,0,0,0,0,0,0,0,0,0,0,0,0,0,0,0,0,0,0,0,0,0,0,0,0,0,0,0,0,0,0,0,0,0,0,0,0,0,0,0,0,0,0,0,0,0,0,0,0,0,0,0,0,0,0,0,0,0,0,0,0,0,0,0],"id":9,"left_children":[1,3,5,7,9,11,13,15,17,19,21,23,25,27,29,31,33,35,37,39,41,43,45,47,49,51,53,55,57,59,61,63,65,67,69,71,73,75,77,79,81,83,85,87,89,91,93,95,97,99,101,103,105,107,109,111,113,115,117,119,121,123,125,-1,-1,-1,-1,-1,-1,-1,-1,-1,-1,-1,-1,-1,-1,-1,-1,-1,-1,-1,-1,-1,-1,-1,-1,-1,-1,-1,-1,-1,-1,-1,-1,-1,-1,-1,-1,-1,-1,-1,-1,-1,-1,-1,-1,-1,-1,-1,-1,-1,-1,-1,-1,-1,-1,-1,-1,-1,-1,-1,-1,-1,-1,-1,-1],"loss_changes":[1.9783895E4,5.391066E3,4.0044424E3,1.3824443E3,1.2719554E3,1.2097705E3,1.5071719E3,6.6444824E2,1.5865475E3,3.6915295E2,1.4062217E3,6.9412744E2,8.9481335E2,4.4626697E2,1.1219727E3,2.5702246E2,1.5422656E2,1.088293E3,2.729917E2,1.9116821E2,1.2373693E2,7.0619775E2,1.7936679E2,3.8422778E2,5.878347E2,2.4893665E2,2.5764624E2,4.9645288E2,2.8970035E2,1.3851474E2,6.5829004E2,8.72251E1,1.5158057E2,1.2064404E2,6.957056E1,1.4478247E2,7.505927E2,9.445239E1,1.5706177E2,1.2070587E2,8.5492546E1,4.4758812E1,8.893703E1,2.0369098E2,3.6481177E2,8.439461E1,1.6766307E2,5.919893E1,1.6569849E2,2.1078989E2,4.8693433E2,1.7306714E2,8.789325E1,1.4803949E2,1.9404279E2,2.4198257E2,1.4697668E2,3.1210297E2,2.591156E0,2.6567612E1,5.6574966E1,3.2981897E2,2.5219434E2,0E0,0E0,0E0,0E0,0E0,0E0,0E0,0E0,0E0,0E0,0E0,0E0,0E0,0E0,0E0,0E0,0E0,0E0,0E0,0E0,0E0,0E0,0E0,0E0,0E0,0E0,0E0,0E0,0E0,0E0,0E0,0E0,0E0,0E0,0E0,0E0,0E0,0E0,0E0,0E0,0E0,0E0,0E0,0E0,0E0,0E0,0E0,0E0,0E0,0E0,0E0,0E0,0E0,0E0,0E0,0E0,0E0,0E0,0E0,0E0,0E0,0E0,0E0,0E0],"parents":[2147483647,0,0,1,1,2,2,3,3,4,4,5,5,6,6,7,7,8,8,9,9,10,10,11,11,12,12,13,13,14,14,15,15,16,16,17,17,18,18,19,19,20,20,21,21,22,22,23,23,24,24,25,25,26,26,27,27,28,28,29,29,30,30,31,31,32,32,33,33,34,34,35,35,36,36,37,37,38,38,39,39,40,40,41,41,42,42,43,43,44,44,45,45,46,46,47,47,48,48,49,49,50,50,51,51,52,52,53,53,54,54,55,55,56,56,57,57,58,58,59,59,60,60,61,61,62,62],"right_children":[2,4,6,8,10,12,14,16,18,20,22,24,26,28,30,32,34,36,38,40,42,44,46,48,50,52,54,56,58,60,62,64,66,68,70,72,74,76,78,80,82,84,86,88,90,92,94,96,98,100,102,104,106,108,110,112,114,116,118,120,122,124,126,-1,-1,-1,-1,-1,-1,-1,-1,-1,-1,-1,-1,-1,-1,-1,-1,-1,-1,-1,-1,-1,-1,-1,-1,-1,-1,-1,-1,-1,-1,-1,-1,-1,-1,-1,-1,-1,-1,-1,-1,-1,-1,-1,-1,-1,-1,-1,-1,-1,-1,-1,-1,-1,-1,-1,-1,-1,-1,-1,-1,-1,-1,-1,-1],"split_conditions":[8.856433E0,7.264411E0,1.5629645E1,1.2246469E-16,-2.5881904E-1,4E0,1.0092452E1,6.6E0,4E0,2.5E1,4E0,1E0,8.353032E0,5.8831563E0,-7.818315E-1,1.6399291E-1,1.2E1,8.7422264E-1,5.403967E0,5.810031E0,1.708819E1,5E-1,7.3114014E0,2.5881904E-1,1.0372175E1,3.7401615E1,1.2179344E1,7.949524E0,1.6730024E1,3.9155233E-1,7.0710677E-1,6.1723795E0,4.9472284E0,3.0161276E0,7.524274E0,1.2E0,3.585262E1,1.1030967E1,9.063011E0,5.1379356E0,1.1112262E1,7.212634E0,4.2827625E0,2.82E1,6.795607E0,8.6515875E0,1.3458513E0,1.792916E1,8.336291E0,1.0240788E1,1.1272008E0,5.873896E0,1.5963581E0,1.4728234E1,5E0,7.957891E0,7E0,3.5680002E-1,9.312545E0,1.0977157E1,9.312545E0,1.0729819E1,1.5238508E1,-2.0530713E-1,-3.228184E-1,-1.6735524E-1,-1.06279634E-1,-1.12540804E-1,-6.0580093E-2,-1.8178265E-1,-3.6588192E-3,-1.9712971E-1,1.7358366E-1,3.0193552E-2,-6.5798426E-1,-1.6800527E-1,-1.7067209E-2,-9.3596414E-2,1.0370393E-1,-1.5045007E-1,-6.0840428E-2,-3.7514165E-2,1.0001864E-2,-6.1784834E-2,3.0693242E-2,2.4834661E-1,7.549007E-2,6.6911206E-2,3.6376977E-1,1.4991163E-1,3.2789788E-1,-7.9415135E-2,-5.0835325E-3,3.4280255E-1,1.4074773E-2,1.3125212E-1,-2.5764799E-2,1.6796099E-1,3.6094868E-1,2.6017262E-2,1.2041628E-1,-4.3717947E-2,1.6224864E-1,-1.9891912E-1,-4.1487288E-2,-1.4054902E-1,-5.924269E-1,-4.0918775E-3,8.038422E-2,1.7955212E-1,6.957045E-2,-8.152973E-2,1.63583E-1,4.260325E-1,1.9545075E-1,-2.3224561E-1,9.205166E-2,-3.522968E-1,-9.1177106E-2,-1.371497E-1,4.7866527E-2,6.993348E-2,1.856741E-1,-1.6597645E-1,2.2481792E-1,1.8761607E-1,3.6991972E-1],"split_indices":[11,50,11,61,61,56,50,66,56,66,56,56,50,53,58,0,64,54,44,7,1,61,5,61,8,8,36,50,54,55,61,40,7,33,54,65,36,49,4,44,1,0,7,66,34,50,25,48,32,37,17,38,0,41,56,15,64,38,1,27,0,50,12,0,0,0,0,0,0,0,0,0,0,0,0,0,0,0,0,0,0,0,0,0,0,0,0,0,0,0,0,0,0,0,0,0,0,0,0,0,0,0,0,0,0,0,0,0,0,0,0,0,0,0,0,0,0,0,0,0,0,0,0,0,0,0,0],"split_type":[0,0,0,0,0,0,0,0,0,0,0,0,0,0,0,0,0,0,0,0,0,0,0,0,0,0,0,0,0,0,0,0,0,0,0,0,0,0,0,0,0,0,0,0,0,0,0,0,0,0,0,0,0,0,0,0,0,0,0,0,0,0,0,0,0,0,0,0,0,0,0,0,0,0,0,0,0,0,0,0,0,0,0,0,0,0,0,0,0,0,0,0,0,0,0,0,0,0,0,0,0,0,0,0,0,0,0,0,0,0,0,0,0,0,0,0,0,0,0,0,0,0,0,0,0,0,0],"sum_hessian":[5.896E3,3.912E3,1.984E3,2.372E3,1.54E3,1.334E3,6.5E2,1.406E3,9.66E2,8.87E2,6.53E2,7.65E2,5.69E2,2.08E2,4.42E2,8.71E2,5.35E2,5.08E2,4.58E2,7.7E2,1.17E2,3.5E2,3.03E2,9.4E1,6.71E2,1.7E2,3.99E2,8.6E1,1.22E2,5.9E1,3.83E2,2.39E2,6.32E2,4.61E2,7.4E1,7.2E1,4.36E2,2.98E2,1.6E2,3.34E2,4.36E2,7.2E1,4.5E1,2.26E2,1.24E2,1.67E2,1.36E2,2.8E1,6.6E1,3.09E2,3.62E2,1.65E2,5E0,2.2E2,1.79E2,5E1,3.6E1,1.18E2,4E0,9E0,5E1,1.08E2,2.75E2,2.19E2,2E1,4.95E2,1.37E2,2.53E2,2.08E2,6.8E1,6E0,7E1,2E0,4.33E2,3E0,2.87E2,1.1E1,1.5E2,1E1,4.3E1,2.91E2,2.98E2,1.38E2,1.6E1,5.6E1,9E0,3.6E1,2.21E2,5E0,7.4E1,5E1,1.08E2,5.9E1,3E0,1.33E2,2E1,8E0,1.8E1,4.8E1,2.3E2,7.9E1,3.1E1,3.31E2,1.9E1,1.46E2,3E0,2E0,1.38E2,8.2E1,6.2E1,1.17E2,1.3E1,3.7E1,2.2E1,1.4E1,7E0,1.11E2,3E0,1E0,7E0,2E0,3.4E1,1.6E1,5E0,1.03E2,2.4E1,2.51E2],"tree_param":{"num_deleted":"0","num_feature":"68","num_nodes":"127","size_leaf_vector":"1"}},{"base_weights":[-1.5978245E-2,-1.3114322E0,2.3969557E0,-2.5577242E0,-6.113912E-1,1.3319125E0,4.0777683E0,-3.5363293E0,-2.0930831E0,1.8248197E-1,-1.1967195E0,4.428495E0,1.0614862E0,2.1800873E0,5.168087E0,-3.6741598E0,-1.1616283E-1,-1.3318633E0,-2.8849034E0,-6.3703525E-1,2.8929577E0,-2.0612E0,-7.4487656E-1,1.9725235E0,6.4020624E0,-5.317129E-1,1.3714136E0,-5.3790987E-1,3.868554E0,-3.9610248E0,5.438659E0,-4.043015E0,-2.9441798E0,-1.6121762E-1,1.0022023E0,-2.602445E-1,-2.626564E0,-3.2673395E0,-1.8173945E0,-2.57852E0,-7.1835846E-2,2.1872864E0,5.4021683E0,-2.2600555E0,-8.870403E-2,-1.8843623E0,-4.844279E-1,3.1626759E0,5.304176E-1,1.5298136E0,7.585356E0,-1.8278308E0,1.6298873E0,-4.8063555E-1,1.5605589E0,-2.7060506E0,4.02023E-1,-6.312715E0,4.197399E0,-5.610875E0,2.2543345E-1,3.9835656E0,6.430257E0,-2.0848718E-1,-7.757533E-2,-1.715581E-1,-8.7417684E-2,-8.811494E-3,9.5402755E-2,-6.0605532E-3,-6.088358E-1,-1.7886403E-1,-8.998311E-2,-1.653073E-1,1.0517005E-1,-6.539716E-2,-1.780733E-1,-3.6585346E-1,-1.1274182E-1,-2.7852003E-2,5.673637E-2,-8.889698E-3,1.4321165E-1,3.4311932E-1,1.5495175E-1,-1.4695387E-1,-8.642907E-2,9.026824E-2,-7.711341E-2,-8.612087E-2,-4.1074792E-1,-2.2488242E-2,-2.3567341E-1,-5.3781856E-2,1.6920452E-1,6.0406722E-2,-4.0330183E-2,2.0965731E-1,-3.9289498E-1,8.375027E-2,3.9884835E-1,-1.884094E-1,-5.9114765E-2,7.932748E-3,1.18888974E-1,6.0949888E-2,-9.638276E-2,8.0655225E-2,-1.834446E-1,-2.528063E-1,-7.5809024E-2,-1.1728602E-1,4.6458345E-2,-3.4320384E-1,-8.889768E-2,2.6980388E-1,1.212163E-1,-1.6904369E-1,-5.958628E-1,2.0936449E-1,-1.6507016E-1,1.4151762E-1,3.3441728E-1],"categories":[],"categories_nodes":[],"categories_segments":[],"categories_sizes":[],"default_left":[0,0,0,0,0,0,0,0,0,0,0,0,0,0,0,0,0,0,0,0,0,0,0,0,0,0,0,0,0,0,0,0,0,0,0,0,0,0,0,0,0,0,0,0,0,0,0,0,0,0,0,0,0,0,0,0,0,0,0,0,0,0,0,0,0,0,0,0,0,0,0,0,0,0,0,0,0,0,0,0,0,0,0,0,0,0,0,0,0,0,0,0,0,0,0,0,0,0,0,0,0,0,0,0,0,0,0,0,0,0,0,0,0,0,0,0,0,0,0,0,0,0,0],"id":10,"left_children":[1,3,5,7,9,11,13,15,17,19,21,23,25,27,29,31,33,35,37,39,41,43,45,47,49,51,53,55,57,59,61,63,65,-1,67,69,71,73,75,77,79,81,83,85,87,89,91,93,95,97,99,101,103,105,107,109,111,113,115,117,-1,119,121,-1,-1,-1,-1,-1,-1,-1,-1,-1,-1,-1,-1,-1,-1,-1,-1,-1,-1,-1,-1,-1,-1,-1,-1,-1,-1,-1,-1,-1,-1,-1,-1,-1,-1,-1,-1,-1,-1,-1,-1,-1,-1,-1,-1,-1,-1,-1,-1,-1,-1,-1,-1,-1,-1,-1,-1,-1,-1,-1,-1],"loss_changes":[1.82362E4,3.3102778E3,3.6428691E3,6.132637E2,1.1303115E3,1.041208E3,1.6233047E3,2.0604785E2,5.5550903E2,2.2964268E3,5.453175E2,4.7207434E2,5.685714E2,1.332963E3,1.2590547E3,1.0145361E2,6.580109E1,6.5834344E2,1.7940918E2,8.710918E2,4.1314648E2,1.8807568E2,2.724193E2,7.727342E1,3.054873E2,5.2969666E2,3.3809534E2,2.2933344E2,6.2580005E2,2.3490349E2,6.7706055E2,8.099219E1,7.844116E1,0E0,1.5281062E1,4.3094565E2,1.6258423E2,7.6357666E1,1.0374121E2,2.580498E2,3.6125668E2,3.0310455E2,1.5361328E2,1.522644E2,1.2667615E2,1.6116095E2,1.0797037E2,2.7100662E1,2.0909164E1,3.3298056E2,8.847925E1,1.4334805E2,7.77457E1,2.2369608E2,2.4608008E2,8.7407715E1,1.1660759E2,2.7977448E0,3.5672827E2,1.4253137E2,0E0,3.1064893E2,2.4864844E2,0E0,0E0,0E0,0E0,0E0,0E0,0E0,0E0,0E0,0E0,0E0,0E0,0E0,0E0,0E0,0E0,0E0,0E0,0E0,0E0,0E0,0E0,0E0,0E0,0E0,0E0,0E0,0E0,0E0,0E0,0E0,0E0,0E0,0E0,0E0,0E0,0E0,0E0,0E0,0E0,0E0,0E0,0E0,0E0,0E0,0E0,0E0,0E0,0E0,0E0,0E0,0E0,0E0,0E0,0E0,0E0,0E0,0E0,0E0,0E0],"parents":[2147483647,0,0,1,1,2,2,3,3,4,4,5,5,6,6,7,7,8,8,9,9,10,10,11,11,12,12,13,13,14,14,15,15,16,16,17,17,18,18,19,19,20,20,21,21,22,22,23,23,24,24,25,25,26,26,27,27,28,28,29,29,30,30,31,31,32,32,34,34,35,35,36,36,37,37,38,38,39,39,40,40,41,41,42,42,43,43,44,44,45,45,46,46,47,47,48,48,49,49,50,50,51,51,52,52,53,53,54,54,55,55,56,56,57,57,58,58,59,59,61,61,62,62],"right_children":[2,4,6,8,10,12,14,16,18,20,22,24,26,28,30,32,34,36,38,40,42,44,46,48,50,52,54,56,58,60,62,64,66,-1,68,70,72,74,76,78,80,82,84,86,88,90,92,94,96,98,100,102,104,106,108,110,112,114,116,118,-1,120,122,-1,-1,-1,-1,-1,-1,-1,-1,-1,-1,-1,-1,-1,-1,-1,-1,-1,-1,-1,-1,-1,-1,-1,-1,-1,-1,-1,-1,-1,-1,-1,-1,-1,-1,-1,-1,-1,-1,-1,-1,-1,-1,-1,-1,-1,-1,-1,-1,-1,-1,-1,-1,-1,-1,-1,-1,-1,-1,-1,-1],"split_conditions":[8.685502E0,2.4966679E0,1.4225575E1,4.4584117E0,3E0,1E0,4.3388373E-1,5.7157197E0,1.6E1,5E-1,4.5392404E0,5E-1,-7.818315E-1,1.2192639E1,6.588681E-1,8.0007684E-1,6.3336864E0,4E0,3.8952274E0,2.2468383E0,6.7682147E0,1.1033262E1,4.9629917E0,1.5E1,8.78989E0,8.231734E0,3.2226667E0,5.756786E0,1.3458513E0,2.9586288E1,7.9347486E0,2E-1,1.4324214E0,-1.6121762E-1,-5E-1,2.1443552E1,7.1379644E-1,9.9E1,7.5017915E0,5.9451216E-1,1.3744706E1,7.1379644E-1,6.9264874E0,5.964625E0,7.8935843E0,1.3918131E1,1.4955212E1,6.206992E0,9.726998E0,8.118437E0,3.7998166E0,6.135825E0,6.907468E0,6.3269186E0,4.2873283E1,5.3536572E0,7.714082E0,9.312545E0,-2.2252093E-1,1.049308E0,2.2543345E-1,1.8608679E1,3.5721147E0,-2.0848718E-1,-7.757533E-2,-1.715581E-1,-8.7417684E-2,-8.811494E-3,9.5402755E-2,-6.0605532E-3,-6.088358E-1,-1.7886403E-1,-8.998311E-2,-1.653073E-1,1.0517005E-1,-6.539716E-2,-1.780733E-1,-3.6585346E-1,-1.1274182E-1,-2.7852003E-2,5.673637E-2,-8.889698E-3,1.4321165E-1,3.4311932E-1,1.5495175E-1,-1.4695387E-1,-8.642907E-2,9.026824E-2,-7.711341E-2,-8.612087E-2,-4.1074792E-1,-2.2488242E-2,-2.3567341E-1,-5.3781856E-2,1.6920452E-1,6.0406722E-2,-4.0330183E-2,2.0965731E-1,-3.9289498E-1,8.375027E-2,3.9884835E-1,-1.884094E-1,-5.9114765E-2,7.932748E-3,1.18888974E-1,6.0949888E-2,-9.638276E-2,8.0655225E-2,-1.834446E-1,-2.528063E-1,-7.5809024E-2,-1.1728602E-1,4.6458345E-2,-3.4320384E-1,-8.889768E-2,2.6980388E-1,1.212163E-1,-1.6904369E-1,-5.958628E-1,2.0936449E-1,-1.6507016E-1,1.4151762E-1,3.3441728E-1],"split_indices":[10,10,10,53,56,56,58,54,59,61,0,61,58,51,38,6,23,56,37,32,41,4,41,59,6,0,37,28,48,8,30,65,14,0,61,8,0,62,53,1,0,1,20,42,27,14,54,11,43,4,2,51,53,53,8,53,12,1,57,37,0,45,41,0,0,0,0,0,0,0,0,0,0,0,0,0,0,0,0,0,0,0,0,0,0,0,0,0,0,0,0,0,0,0,0,0,0,0,0,0,0,0,0,0,0,0,0,0,0,0,0,0,0,0,0,0,0,0,0,0,0,0,0],"split_type":[0,0,0,0,0,0,0,0,0,0,0,0,0,0,0,0,0,0,0,0,0,0,0,0,0,0,0,0,0,0,0,0,0,0,0,0,0,0,0,0,0,0,0,0,0,0,0,0,0,0,0,0,0,0,0,0,0,0,0,0,0,0,0,0,0,0,0,0,0,0,0,0,0,0,0,0,0,0,0,0,0,0,0,0,0,0,0,0,0,0,0,0,0,0,0,0,0,0,0,0,0,0,0,0,0,0,0,0,0,0,0,0,0,0,0,0,0,0,0,0,0,0,0],"sum_hessian":[5.832E3,3.795E3,2.037E3,1.364E3,2.431E3,1.248E3,7.89E2,4.37E2,9.27E2,1.032E3,1.399E3,9.9E1,1.149E3,2.89E2,5E2,4.2E2,1.7E1,4.74E2,4.53E2,7.93E2,2.39E2,4.79E2,9.2E2,4.5E1,5.4E1,1.87E2,9.62E2,1.11E2,1.78E2,1.4E1,4.86E2,2.76E2,1.44E2,4E0,1.3E1,2.6E2,2.14E2,3.32E2,1.21E2,1.78E2,6.15E2,1.88E2,5.1E1,4.35E2,4.4E1,1.7E2,7.5E2,2.4E1,2.1E1,1.1E1,4.3E1,1.17E2,7E1,8.9E1,8.73E2,3.3E1,7.8E1,5E0,1.73E2,1.2E1,2E0,1.99E2,2.87E2,2.62E2,1.4E1,1.01E2,4.3E1,6E0,7E0,2.58E2,2E0,9.8E1,1.16E2,3.3E2,2E0,9.5E1,2.6E1,1E1,1.68E2,4.39E2,1.76E2,4.2E1,1.46E2,3E1,2.1E1,1.89E2,2.46E2,1.9E1,2.5E1,1.67E2,3E0,7.45E2,5E0,1E0,2.3E1,1.4E1,7E0,9E0,2E0,3E0,4E1,2.8E1,8.9E1,2.4E1,4.6E1,4.1E1,4.8E1,8.65E2,8E0,1E1,2.3E1,1.2E1,6.6E1,4E0,1E0,1.02E2,7.1E1,1E1,2E0,1.94E2,5E0,2E1,2.67E2],"tree_param":{"num_deleted":"0","num_feature":"68","num_nodes":"123","size_leaf_vector":"1"}},{"base_weights":[-2.335973E-2,-1.1908691E0,2.2515264E0,-2.025016E0,1.0331457E-1,1.3909233E0,3.9021373E0,-2.643099E0,-1.121983E0,-4.6357343E-1,1.0314877E0,4.6373277E0,1.1025178E0,1.7402296E0,4.758855E0,-3.2486122E0,-1.6903752E0,1.0054251E-1,-2.4377456E0,-7.256295E-1,1.1180896E0,2.2894566E0,-3.542061E-1,8.786708E-1,5.8479075E0,1.7792113E0,3.046958E-1,2.0750737E0,-6.304281E0,2.5496333E0,6.0314665E0,-3.980813E0,-2.9705684E0,-1.4785141E0,-3.0131369E0,-3.2985172E0,6.117424E-1,-2.748767E0,-8.792979E-1,-1.2468628E0,-2.4476747E-1,3.6320534E0,7.4643296E-1,1.3237547E0,3.7350256E0,-5.216967E-1,7.2139916E0,1.3367945E0,-9.4756097E-1,6.4147983E0,-2.2128775E0,2.0983672E0,-1.0070051E-1,-1.7431425E0,1.1545551E0,6.822691E0,1.6213706E0,-9.674012E-1,1.2683045E0,-3.945119E0,2.9166796E0,3.932003E0,6.766531E0,-2.8557268E-1,-1.8520401E-1,-1.5792052E-1,-9.4292596E-2,-1.4316365E-1,-6.104054E-2,-1.661951E-1,-1.6918749E-3,-1.7827511E-1,1.7038338E-1,7.249679E-2,-4.788382E-2,-1.57227E-1,-8.8764355E-2,2.9688915E-2,-1.1467824E-1,-4.0579565E-2,-9.107309E-2,-4.2039763E-2,3.5704726E-3,-9.531098E-3,2.2324069E-1,-4.5011204E-2,5.067789E-2,5.8838047E-2,3.7853923E-1,2.6034656E-1,6.6904426E-2,-3.5404686E-2,8.016097E-2,-1.450151E-1,4.9084553E-1,1.5011846E-2,9.5383376E-2,3.860135E-2,-7.22942E-2,2.0938566E-1,3.7222934E-1,-3.797985E-1,1.1888305E-1,7.5438924E-2,1.4550863E-1,4.4672344E-2,-1.1970257E-1,-1.4631847E-1,-2.765437E-2,3.4685135E-2,1.06300615E-1,6.570099E-1,8.590837E-2,8.941178E-2,-4.187382E-1,-9.2289194E-2,2.498827E-1,-3.9267522E-1,-1.5305758E-3,2.2358023E-1,4.9029045E-2,4.1996512E-1,1.7664184E-1,3.546741E-1,1.2971723E-1],"categories":[],"categories_nodes":[],"categories_segments":[],"categories_sizes":[],"default_left":[0,0,0,0,0,0,0,0,0,0,0,0,0,0,0,0,0,0,0,0,0,0,0,0,0,0,0,0,0,0,0,0,0,0,0,0,0,0,0,0,0,0,0,0,0,0,0,0,0,0,0,0,0,0,0,0,0,0,0,0,0,0,0,0,0,0,0,0,0,0,0,0,0,0,0,0,0,0,0,0,0,0,0,0,0,0,0,0,0,0,0,0,0,0,0,0,0,0,0,0,0,0,0,0,0,0,0,0,0,0,0,0,0,0,0,0,0,0,0,0,0,0,0,0,0],"id":11,"left_children":[1,3,5,7,9,11,13,15,17,19,21,23,25,27,29,31,33,35,37,39,41,43,45,47,49,51,53,55,57,59,61,63,65,67,69,71,73,75,77,79,81,83,85,87,89,91,93,95,97,99,101,103,105,107,109,111,113,-1,115,117,119,121,123,-1,-1,-1,-1,-1,-1,-1,-1,-1,-1,-1,-1,-1,-1,-1,-1,-1,-1,-1,-1,-1,-1,-1,-1,-1,-1,-1,-1,-1,-1,-1,-1,-1,-1,-1,-1,-1,-1,-1,-1,-1,-1,-1,-1,-1,-1,-1,-1,-1,-1,-1,-1,-1,-1,-1,-1,-1,-1,-1,-1,-1,-1],"loss_changes":[1.5505465E4,4.1650728E3,2.807204E3,1.3064531E3,7.9657367E2,1.2148611E3,1.2474727E3,7.975342E2,1.5364136E3,3.904267E2,1.0013846E3,4.7717798E2,6.462352E2,5.356514E2,1.3481904E3,1.6122168E2,1.4771631E2,8.638669E2,2.2054956E2,2.0196234E2,1.2248929E2,4.152484E2,3.5108655E2,2.385597E1,3.7976172E2,3.890017E2,9.609588E2,3.917376E2,8.1473816E2,4.3822034E2,4.4716992E2,8.9476074E1,1.2037207E2,1.6422717E2,6.8401245E1,1.2852924E2,5.696743E2,1.4197876E2,1.6386105E2,9.531299E1,7.939758E1,5.496846E1,5.281627E1,1.5821686E2,4.1640063E2,1.0768021E2,1.8643216E2,1.2445587E1,6.2577224E0,1.408313E2,1.6632838E2,2.6077075E2,2.187322E2,2.2649448E2,1.7312762E2,4.9338873E2,3.0187277E2,0E0,7.890573E1,1.5275362E2,5.073982E2,1.16548584E2,2.898838E2,0E0,0E0,0E0,0E0,0E0,0E0,0E0,0E0,0E0,0E0,0E0,0E0,0E0,0E0,0E0,0E0,0E0,0E0,0E0,0E0,0E0,0E0,0E0,0E0,0E0,0E0,0E0,0E0,0E0,0E0,0E0,0E0,0E0,0E0,0E0,0E0,0E0,0E0,0E0,0E0,0E0,0E0,0E0,0E0,0E0,0E0,0E0,0E0,0E0,0E0,0E0,0E0,0E0,0E0,0E0,0E0,0E0,0E0,0E0,0E0,0E0,0E0],"parents":[2147483647,0,0,1,1,2,2,3,3,4,4,5,5,6,6,7,7,8,8,9,9,10,10,11,11,12,12,13,13,14,14,15,15,16,16,17,17,18,18,19,19,20,20,21,21,22,22,23,23,24,24,25,25,26,26,27,27,28,28,29,29,30,30,31,31,32,32,33,33,34,34,35,35,36,36,37,37,38,38,39,39,40,40,41,41,42,42,43,43,44,44,45,45,46,46,47,47,48,48,49,49,50,50,51,51,52,52,53,53,54,54,55,55,56,56,58,58,59,59,60,60,61,61,62,62],"right_children":[2,4,6,8,10,12,14,16,18,20,22,24,26,28,30,32,34,36,38,40,42,44,46,48,50,52,54,56,58,60,62,64,66,68,70,72,74,76,78,80,82,84,86,88,90,92,94,96,98,100,102,104,106,108,110,112,114,-1,116,118,120,122,124,-1,-1,-1,-1,-1,-1,-1,-1,-1,-1,-1,-1,-1,-1,-1,-1,-1,-1,-1,-1,-1,-1,-1,-1,-1,-1,-1,-1,-1,-1,-1,-1,-1,-1,-1,-1,-1,-1,-1,-1,-1,-1,-1,-1,-1,-1,-1,-1,-1,-1,-1,-1,-1,-1,-1,-1,-1,-1,-1,-1,-1,-1],"split_conditions":[8.792398E0,7.4654107E0,1.483316E1,1.2246469E-16,-2.5881904E-1,1E0,1.13E1,6.6E0,4E0,2.53E1,4E0,1.2246469E-16,4E0,3.585262E1,4.3388373E-1,1.6399291E-1,1.2E1,8.7422264E-1,5.855474E0,5.849816E0,4.6168113E0,5E-1,3.600548E1,1.0123514E1,1.3377384E1,1.1E1,8.602115E0,6.50847E0,1.6399291E-1,7.957891E0,1.6332993E1,1E0,9.749279E-1,2E0,7.524274E0,1.2E0,5.0894504E0,9E0,5.2486734E0,8.2E1,8.685502E0,7.218126E-2,7.212634E0,2.86E1,1E1,1.2904017E1,4.8956203E0,6.9676747E0,5.604379E0,8.118437E0,6.584207E0,1.2911363E1,5.6386995E0,8.37079E0,1.1430903E1,7.1379644E-1,2.645264E1,-9.674012E-1,1.7087036E1,7.3E1,5E0,4.4250154E0,1E1,-2.8557268E-1,-1.8520401E-1,-1.5792052E-1,-9.4292596E-2,-1.4316365E-1,-6.104054E-2,-1.661951E-1,-1.6918749E-3,-1.7827511E-1,1.7038338E-1,7.249679E-2,-4.788382E-2,-1.57227E-1,-8.8764355E-2,2.9688915E-2,-1.1467824E-1,-4.0579565E-2,-9.107309E-2,-4.2039763E-2,3.5704726E-3,-9.531098E-3,2.2324069E-1,-4.5011204E-2,5.067789E-2,5.8838047E-2,3.7853923E-1,2.6034656E-1,6.6904426E-2,-3.5404686E-2,8.016097E-2,-1.450151E-1,4.9084553E-1,1.5011846E-2,9.5383376E-2,3.860135E-2,-7.22942E-2,2.0938566E-1,3.7222934E-1,-3.797985E-1,1.1888305E-1,7.5438924E-2,1.4550863E-1,4.4672344E-2,-1.1970257E-1,-1.4631847E-1,-2.765437E-2,3.4685135E-2,1.06300615E-1,6.570099E-1,8.590837E-2,8.941178E-2,-4.187382E-1,-9.2289194E-2,2.498827E-1,-3.9267522E-1,-1.5305758E-3,2.2358023E-1,4.9029045E-2,4.1996512E-1,1.7664184E-1,3.546741E-1,1.2971723E-1],"split_indices":[10,50,8,61,61,56,66,66,56,66,56,61,56,36,58,0,64,54,20,10,10,61,39,22,36,64,50,51,0,4,10,56,58,64,54,65,24,59,50,62,18,12,0,66,64,50,2,20,0,4,2,12,50,15,13,25,29,0,2,62,56,29,59,0,0,0,0,0,0,0,0,0,0,0,0,0,0,0,0,0,0,0,0,0,0,0,0,0,0,0,0,0,0,0,0,0,0,0,0,0,0,0,0,0,0,0,0,0,0,0,0,0,0,0,0,0,0,0,0,0,0,0,0,0,0],"split_type":[0,0,0,0,0,0,0,0,0,0,0,0,0,0,0,0,0,0,0,0,0,0,0,0,0,0,0,0,0,0,0,0,0,0,0,0,0,0,0,0,0,0,0,0,0,0,0,0,0,0,0,0,0,0,0,0,0,0,0,0,0,0,0,0,0,0,0,0,0,0,0,0,0,0,0,0,0,0,0,0,0,0,0,0,0,0,0,0,0,0,0,0,0,0,0,0,0,0,0,0,0,0,0,0,0,0,0,0,0,0,0,0,0,0,0,0,0,0,0,0,0,0,0,0,0],"sum_hessian":[5.836E3,3.857E3,1.979E3,2.345E3,1.512E3,1.302E3,6.77E2,1.391E3,9.54E2,9.39E2,5.73E2,1.05E2,1.197E3,1.93E2,4.84E2,8.49E2,5.42E2,4.95E2,4.59E2,8.06E2,1.33E2,3E2,2.73E2,2.6E1,7.9E1,6.47E2,5.5E2,1.86E2,7E0,1.78E2,3.06E2,2.3E2,6.19E2,4.69E2,7.3E1,6.4E1,4.31E2,3.82E2,7.7E1,3.86E2,4.2E2,1.6E1,1.17E2,1.81E2,1.19E2,2.68E2,5E0,2.1E1,5E0,7.4E1,5E0,5.53E2,9.4E1,1.61E2,3.89E2,1.5E1,1.71E2,2E0,5E0,9E0,1.69E2,8.1E1,2.25E2,2.9E1,2.01E2,5.26E2,9.3E1,7.2E1,3.97E2,6.6E1,7E0,6.2E1,2E0,2.81E2,1.5E2,2.7E2,1.12E2,3.8E1,3.9E1,2.21E2,1.65E2,1.45E2,2.75E2,3E0,1.3E1,1.6E1,1.01E2,1.78E2,3E0,7.3E1,4.6E1,2.47E2,2.1E1,1E0,4E0,8E0,1.3E1,1E0,4E0,2.5E1,4.9E1,2E0,3E0,3.22E2,2.31E2,6.6E1,2.8E1,8E1,8.1E1,2.65E2,1.24E2,6E0,9E0,1.69E2,2E0,3E0,2E0,4E0,5E0,9.3E1,7.6E1,5E0,7.6E1,2.08E2,1.7E1],"tree_param":{"num_deleted":"0","num_feature":"68","num_nodes":"125","size_leaf_vector":"1"}},{"base_weights":[-1.0485143E-2,-1.1420419E0,2.190367E0,-1.9583005E0,9.442828E-2,1.2895234E0,3.8492627E0,-1.3113592E0,-2.608553E0,9.427548E-1,-4.382167E-1,-1.0724128E-2,1.7533258E0,1.5017503E0,4.805958E0,-2.5643768E0,-5.5878824E-1,-3.0247843E0,-1.710895E0,-4.8836017E-1,1.8473338E0,-6.687063E-1,9.245134E-1,-1.5625689E0,8.459989E-1,5.9785146E-1,2.2310402E0,-7.5868344E0,1.8613813E0,2.7550852E0,6.058096E0,-3.1549513E0,-1.6134406E0,-2.810895E0,-1.5856041E-1,-3.2172892E0,-2.0044897E0,-2.1714935E0,-1.156791E0,-7.471755E-1,6.8518667E0,2.5710814E0,7.26511E-1,-1.2826772E0,-3.0596182E-1,3.9735026E0,6.5526813E-1,-1.7256367E-1,-2.7788417E0,1.3582314E0,-3.2242336E0,-7.77609E-2,1.5882463E0,2.6518276E0,7.6298535E-1,-9.3515456E-1,-7.642336E-1,-3.3275633E0,2.1844077E0,3.931751E0,1.3033037E0,4.4428396E0,6.776195E0,-1.6253972E-1,-2.9702256E-2,-9.8227575E-2,-1.2110193E-2,8.530369E-2,-1.5200274E-1,-1.3991134E-1,9.208425E-3,-2.5212873E-2,-1.635183E-1,-1.4577337E-1,-2.5341779E-2,-1.3769272E-1,-6.051917E-2,-1.1081006E-1,-3.4403663E-2,-6.0532153E-2,1.3757176E-2,4.7303542E-2,4.3313932E-1,1.7459485E-1,5.778983E-2,7.221189E-2,-1.5716968E-2,-1.24322906E-1,-5.0526876E-2,-2.4688525E-2,1.7784994E-2,2.536912E-1,8.1917614E-2,4.1281483E-3,8.20257E-2,-9.009833E-2,5.1530104E-2,-1.8121547E-1,-2.7058346E-2,-9.943756E-3,9.6635714E-2,-1.2695025E-1,-4.9174294E-1,4.9771145E-2,-4.56448E-2,5.2994855E-2,1.329569E-1,1.1313158E-1,2.460692E-1,1.9655818E-2,1.3130976E-1,7.0692636E-2,-1.10337E-1,-1.8394591E-1,-5.235966E-2,-1.7604929E-1,1.2633196E-1,-1.6101983E-1,2.2774093E-1,1.3618484E-2,1.4135976E-1,6.1936E-2,2.3964338E-1,1.0009251E-1,3.4890023E-1],"categories":[],"categories_nodes":[],"categories_segments":[],"categories_sizes":[],"default_left":[0,0,0,0,0,0,0,0,0,0,0,0,0,0,0,0,0,0,0,0,0,0,0,0,0,0,0,0,0,0,0,0,0,0,0,0,0,0,0,0,0,0,0,0,0,0,0,0,0,0,0,0,0,0,0,0,0,0,0,0,0,0,0,0,0,0,0,0,0,0,0,0,0,0,0,0,0,0,0,0,0,0,0,0,0,0,0,0,0,0,0,0,0,0,0,0,0,0,0,0,0,0,0,0,0,0,0,0,0,0,0,0,0,0,0,0,0,0,0,0,0,0,0,0,0],"id":12,"left_children":[1,3,5,7,9,11,13,15,17,19,21,23,25,27,29,31,33,35,37,39,41,43,45,47,49,51,53,55,57,59,61,63,65,67,69,71,73,75,77,79,81,83,85,87,89,91,93,95,97,99,101,103,105,107,109,-1,111,113,115,117,119,121,123,-1,-1,-1,-1,-1,-1,-1,-1,-1,-1,-1,-1,-1,-1,-1,-1,-1,-1,-1,-1,-1,-1,-1,-1,-1,-1,-1,-1,-1,-1,-1,-1,-1,-1,-1,-1,-1,-1,-1,-1,-1,-1,-1,-1,-1,-1,-1,-1,-1,-1,-1,-1,-1,-1,-1,-1,-1,-1,-1,-1,-1,-1],"loss_changes":[1.4660933E4,3.9242632E3,2.9823535E3,9.817998E2,6.9943567E2,7.8218506E2,1.5716172E3,1.107517E3,4.3085547E2,7.737523E2,2.993227E2,4.5601132E2,5.263655E2,6.8417194E2,1.2647295E3,2.425747E2,6.629523E2,1.4989502E2,9.242969E1,4.4586462E2,2.950287E2,1.8089716E2,1.1068407E2,2.057768E2,4.651433E2,1.881471E2,4.1556787E2,5.924407E2,3.3914978E2,3.211537E2,3.2830762E2,6.458447E1,8.185321E1,1.20083374E2,5.668513E2,9.454199E1,1.7452087E2,1.0972876E2,8.338759E1,1.0694074E2,7.736377E1,2.8527808E2,1.0877569E2,9.642148E1,6.3923992E1,1.9950867E1,7.208925E1,1.1556274E2,1.2101099E2,1.7660693E2,8.827396E1,1.5147931E2,6.168338E1,4.525984E2,1.037174E2,0E0,2.1971424E1,5.7621E0,3.7402557E2,4.825769E2,1.3590973E2,1.03973145E2,1.9029395E2,0E0,0E0,0E0,0E0,0E0,0E0,0E0,0E0,0E0,0E0,0E0,0E0,0E0,0E0,0E0,0E0,0E0,0E0,0E0,0E0,0E0,0E0,0E0,0E0,0E0,0E0,0E0,0E0,0E0,0E0,0E0,0E0,0E0,0E0,0E0,0E0,0E0,0E0,0E0,0E0,0E0,0E0,0E0,0E0,0E0,0E0,0E0,0E0,0E0,0E0,0E0,0E0,0E0,0E0,0E0,0E0,0E0,0E0,0E0,0E0,0E0,0E0],"parents":[2147483647,0,0,1,1,2,2,3,3,4,4,5,5,6,6,7,7,8,8,9,9,10,10,11,11,12,12,13,13,14,14,15,15,16,16,17,17,18,18,19,19,20,20,21,21,22,22,23,23,24,24,25,25,26,26,27,27,28,28,29,29,30,30,31,31,32,32,33,33,34,34,35,35,36,36,37,37,38,38,39,39,40,40,41,41,42,42,43,43,44,44,45,45,46,46,47,47,48,48,49,49,50,50,51,51,52,52,53,53,54,54,56,56,57,57,58,58,59,59,60,60,61,61,62,62],"right_children":[2,4,6,8,10,12,14,16,18,20,22,24,26,28,30,32,34,36,38,40,42,44,46,48,50,52,54,56,58,60,62,64,66,68,70,72,74,76,78,80,82,84,86,88,90,92,94,96,98,100,102,104,106,108,110,-1,112,114,116,118,120,122,124,-1,-1,-1,-1,-1,-1,-1,-1,-1,-1,-1,-1,-1,-1,-1,-1,-1,-1,-1,-1,-1,-1,-1,-1,-1,-1,-1,-1,-1,-1,-1,-1,-1,-1,-1,-1,-1,-1,-1,-1,-1,-1,-1,-1,-1,-1,-1,-1,-1,-1,-1,-1,-1,-1,-1,-1,-1,-1,-1,-1,-1,-1],"split_conditions":[8.856433E0,7.264411E0,1.5072727E1,1.4E1,1.5E1,7.5458803E0,1.13E1,-4.3388373E-1,7.2E0,-4.3388373E-1,2.5E1,0E0,-4.3388373E-1,2E0,4.3388373E-1,9E0,1.5482591E0,9.749279E-1,2.4966679E0,3.585262E1,1E1,5.689992E0,1.0573801E1,3E0,6.95916E0,1.2939605E1,1.5E1,1.6399291E-1,-7.818315E-1,-2.2252093E-1,1.5457973E1,6.211237E0,2.2468383E0,1.4E0,1E0,4.9E1,5.412351E0,1.14E1,1.5963581E0,1.04244375E1,6.7791753E0,8.9833975E0,1.092586E1,5.3111362E0,1.27718525E1,5.7690244E0,1.4040922E1,6.7170084E-1,6.0227137E0,3.3479114E0,1.5611656E1,8E0,1.1707983E1,1E0,1.5629645E1,-9.3515456E-1,1.3301616E1,1.062968E1,4.2813286E-1,7.957891E0,1.4040922E1,5E1,5.2887535E0,-1.6253972E-1,-2.9702256E-2,-9.8227575E-2,-1.2110193E-2,8.530369E-2,-1.5200274E-1,-1.3991134E-1,9.208425E-3,-2.5212873E-2,-1.635183E-1,-1.4577337E-1,-2.5341779E-2,-1.3769272E-1,-6.051917E-2,-1.1081006E-1,-3.4403663E-2,-6.0532153E-2,1.3757176E-2,4.7303542E-2,4.3313932E-1,1.7459485E-1,5.778983E-2,7.221189E-2,-1.5716968E-2,-1.24322906E-1,-5.0526876E-2,-2.4688525E-2,1.7784994E-2,2.536912E-1,8.1917614E-2,4.1281483E-3,8.20257E-2,-9.009833E-2,5.1530104E-2,-1.8121547E-1,-2.7058346E-2,-9.943756E-3,9.6635714E-2,-1.2695025E-1,-4.9174294E-1,4.9771145E-2,-4.56448E-2,5.2994855E-2,1.329569E-1,1.1313158E-1,2.460692E-1,1.9655818E-2,1.3130976E-1,7.0692636E-2,-1.10337E-1,-1.8394591E-1,-5.235966E-2,-1.7604929E-1,1.2633196E-1,-1.6101983E-1,2.2774093E-1,1.3618484E-2,1.4135976E-1,6.1936E-2,2.3964338E-1,1.0009251E-1,3.4890023E-1],"split_indices":[10,50,10,59,59,50,66,58,66,58,66,58,58,59,58,59,54,58,31,38,64,7,50,64,45,50,59,0,58,57,7,19,0,67,59,62,50,66,15,50,4,19,9,43,51,6,51,9,50,36,2,64,45,57,7,0,7,4,38,4,51,62,16,0,0,0,0,0,0,0,0,0,0,0,0,0,0,0,0,0,0,0,0,0,0,0,0,0,0,0,0,0,0,0,0,0,0,0,0,0,0,0,0,0,0,0,0,0,0,0,0,0,0,0,0,0,0,0,0,0,0,0,0,0,0],"split_type":[0,0,0,0,0,0,0,0,0,0,0,0,0,0,0,0,0,0,0,0,0,0,0,0,0,0,0,0,0,0,0,0,0,0,0,0,0,0,0,0,0,0,0,0,0,0,0,0,0,0,0,0,0,0,0,0,0,0,0,0,0,0,0,0,0,0,0,0,0,0,0,0,0,0,0,0,0,0,0,0,0,0,0,0,0,0,0,0,0,0,0,0,0,0,0,0,0,0,0,0,0,0,0,0,0,0,0,0,0,0,0,0,0,0,0,0,0,0,0,0,0,0,0,0,0],"sum_hessian":[5.885E3,3.887E3,1.998E3,2.341E3,1.546E3,1.296E3,7.02E2,1.175E3,1.166E3,5.96E2,9.5E2,3.41E2,9.55E2,2.04E2,4.98E2,4.4E2,7.35E2,7.95E2,3.71E2,2.31E2,3.65E2,8.13E2,1.37E2,1.21E2,2.2E2,2.8E2,6.75E2,7E0,1.97E2,1.9E2,3.08E2,2.7E2,1.7E2,1.1E2,6.25E2,6.67E2,1.28E2,2.01E2,1.7E2,2.24E2,7E0,2.21E2,1.44E2,3.01E2,5.12E2,1E1,1.27E2,5.7E1,6.4E1,1.96E2,2.4E1,1.67E2,1.13E2,5.24E2,1.51E2,2E0,5E0,1.1E1,1.86E2,1.04E2,8.6E1,9.7E1,2.11E2,2.6E2,1E1,1.35E2,3.5E1,5E0,1.05E2,7.1E1,5.54E2,1.3E1,6.54E2,7.9E1,4.9E1,1.24E2,7.7E1,5.1E1,1.19E2,1.54E2,7E1,2E0,5E0,1.33E2,8.8E1,8.5E1,5.9E1,5.4E1,2.47E2,3.99E2,1.13E2,6E0,4E0,8.1E1,4.6E1,2.4E1,3.3E1,4.6E1,1.8E1,5.3E1,1.43E2,2.3E1,1E0,7.3E1,9.4E1,7.7E1,3.6E1,4.49E2,7.5E1,1.27E2,2.4E1,2E0,3E0,9E0,2E0,1E1,1.76E2,8E0,9.6E1,5.2E1,3.4E1,1E1,8.7E1,9E0,2.02E2],"tree_param":{"num_deleted":"0","num_feature":"68","num_nodes":"125","size_leaf_vector":"1"}},{"base_weights":[3.7434045E-3,-1.0866989E0,2.1549168E0,-1.8503171E0,9.220396E-2,3.0595908E0,8.228245E-1,-1.3944851E0,-2.53524E0,1.3196294E0,-2.1248735E-1,2.0211034E0,4.410545E0,9.498413E-3,2.7307124E0,-8.270533E-1,-2.4193726E0,-2.8718348E0,-1.7149025E0,3.4237273E0,-1.022349E-3,-5.079906E-1,8.899539E-1,4.3475113E0,1.6142112E0,-1.9137424E-1,4.8870177E0,-1.5983564E0,7.550852E-1,-5.8856716E0,2.9016922E0,-1.6820526E0,6.1932847E-2,-3.1945271E0,-1.8113457E0,-3.1283603E0,-1.977042E0,-2.439525E0,-1.3005052E0,2.7302413E0,6.3257456E0,-1.7671394E-1,4.0844464E-1,-6.896955E-1,2.2993422E-1,4.6365464E-1,2.9258869E0,5.5183177E0,1.0209795E0,1.6710677E0,-9.7076435E0,5.904956E-1,-9.4302815E-1,1.1108562E0,5.136208E0,-2.2351751E0,6.7046875E-1,1.4278528E-1,1.2622402E0,-3.2609603E-1,-8.351687E-2,1.943526E0,3.927452E0,-2.1365392E-1,-7.28382E-2,1.29225E-2,-2.8402486E-1,-1.6272067E-1,-2.481112E-2,-1.1004224E-1,-3.405085E-2,-1.6854821E-1,-1.3139808E-1,-4.881188E-2,-1.4097409E-1,-2.1213816E-1,-9.959756E-2,-1.256635E-1,-4.4330847E-2,-1.9810855E-1,1.4564207E-1,1.8599512E-1,3.774546E-1,-7.363862E-2,1.3605855E-2,-4.1160166E-2,8.41193E-3,-1.6640617E-1,1.42308045E-2,1.4919179E-2,1.9274639E-1,2.975747E-1,8.22659E-2,1.10711455E-1,3.0986497E-1,8.076586E-2,-1.7358774E-2,9.928578E-2,-1.528409E-2,-7.6949644E-1,4.1423153E-2,-1.8168513E-1,1.1316518E-1,-1.3791546E-1,9.0610065E-2,2.78464E-1,1.7638223E-1,-9.939716E-2,-4.256427E-1,-7.94822E-2,9.742963E-2,-3.692823E-3,6.9774106E-2,1.304719E-1,4.247553E-2,1.0642167E-1,-1.4414795E-1,3.6001986E-1,1.5946499E-1],"categories":[],"categories_nodes":[],"categories_segments":[],"categories_sizes":[],"default_left":[0,0,0,0,0,0,0,0,0,0,0,0,0,0,0,0,0,0,0,0,0,0,0,0,0,0,0,0,0,0,0,0,0,0,0,0,0,0,0,0,0,0,0,0,0,0,0,0,0,0,0,0,0,0,0,0,0,0,0,0,0,0,0,0,0,0,0,0,0,0,0,0,0,0,0,0,0,0,0,0,0,0,0,0,0,0,0,0,0,0,0,0,0,0,0,0,0,0,0,0,0,0,0,0,0,0,0,0,0,0,0,0,0,0,0,0,0,0,0],"id":13,"left_children":[1,3,5,7,9,11,13,15,17,19,21,23,25,27,29,31,33,35,37,39,41,43,45,47,49,51,53,55,57,59,61,63,65,67,69,71,73,75,77,79,81,83,-1,85,87,89,91,93,95,97,99,101,-1,103,105,107,109,111,113,-1,-1,115,117,-1,-1,-1,-1,-1,-1,-1,-1,-1,-1,-1,-1,-1,-1,-1,-1,-1,-1,-1,-1,-1,-1,-1,-1,-1,-1,-1,-1,-1,-1,-1,-1,-1,-1,-1,-1,-1,-1,-1,-1,-1,-1,-1,-1,-1,-1,-1,-1,-1,-1,-1,-1,-1,-1,-1,-1],"loss_changes":[1.3821041E4,3.5200762E3,2.3860078E3,7.373379E2,5.7547064E2,1.6465654E3,1.2460171E3,8.27876E2,2.5656152E2,8.503105E2,4.0213266E2,6.2625586E2,1.1235928E3,6.773274E2,3.7065295E2,6.993801E2,2.336416E2,1.4760547E2,8.0305664E1,2.2020508E2,2.727314E2,1.3062282E2,2.2516966E2,3.7994348E2,3.83787E2,7.2638403E2,4.3091113E2,2.6012332E2,1.1968472E2,2.5161896E0,2.2431921E2,2.675442E2,5.115438E2,3.4258545E1,1.24856384E2,5.4146973E1,1.2540143E2,7.2256836E1,8.7620575E1,1.3007843E2,4.205072E1,1.0859907E2,0E0,8.959497E1,3.849756E1,1.2047376E2,1.6456036E2,1.5004736E2,2.2515743E1,3.5451367E2,1.9235748E2,3.4740527E2,0E0,8.64072E1,2.8338477E2,2.0036304E2,1.1864572E2,4.7867073E1,1.15105255E2,0E0,0E0,1.16800354E2,2.5003625E2,0E0,0E0,0E0,0E0,0E0,0E0,0E0,0E0,0E0,0E0,0E0,0E0,0E0,0E0,0E0,0E0,0E0,0E0,0E0,0E0,0E0,0E0,0E0,0E0,0E0,0E0,0E0,0E0,0E0,0E0,0E0,0E0,0E0,0E0,0E0,0E0,0E0,0E0,0E0,0E0,0E0,0E0,0E0,0E0,0E0,0E0,0E0,0E0,0E0,0E0,0E0,0E0,0E0,0E0,0E0,0E0],"parents":[2147483647,0,0,1,1,2,2,3,3,4,4,5,5,6,6,7,7,8,8,9,9,10,10,11,11,12,12,13,13,14,14,15,15,16,16,17,17,18,18,19,19,20,20,21,21,22,22,23,23,24,24,25,25,26,26,27,27,28,28,29,29,30,30,31,31,32,32,33,33,34,34,35,35,36,36,37,37,38,38,39,39,40,40,41,41,43,43,44,44,45,45,46,46,47,47,48,48,49,49,50,50,51,51,53,53,54,54,55,55,56,56,57,57,58,58,61,61,62,62],"right_children":[2,4,6,8,10,12,14,16,18,20,22,24,26,28,30,32,34,36,38,40,42,44,46,48,50,52,54,56,58,60,62,64,66,68,70,72,74,76,78,80,82,84,-1,86,88,90,92,94,96,98,100,102,-1,104,106,108,110,112,114,-1,-1,116,118,-1,-1,-1,-1,-1,-1,-1,-1,-1,-1,-1,-1,-1,-1,-1,-1,-1,-1,-1,-1,-1,-1,-1,-1,-1,-1,-1,-1,-1,-1,-1,-1,-1,-1,-1,-1,-1,-1,-1,-1,-1,-1,-1,-1,-1,-1,-1,-1,-1,-1,-1,-1,-1,-1,-1,-1],"split_conditions":[8.856433E0,7.4654107E0,4E0,1.6E1,1E1,1.4225575E1,1.2562599E1,5E0,7.2E0,1E0,1.3744706E1,1E0,1.505058E0,9.9E0,9.3649334E-1,1.9859926E0,7E0,4.107233E0,3.892915E0,8.396676E0,1.093533E1,8.603288E0,2.74E1,1.2E1,4.656573E1,2.9586288E1,3.1E0,1.1033262E1,1.2286456E1,9.312545E0,1.792916E1,1E0,2.1443552E1,6.605697E0,8.2E0,6.588681E-1,3E0,2.1E0,4.0141416E0,2.7609867E-1,6.3209567E0,5.704513E0,4.0844464E-1,1.27718525E1,7.218126E-2,1.0350092E1,4.6948E0,4.946456E0,9.726998E0,1.1E1,7.1379644E-1,2.646947E0,-9.4302815E-1,1.0500847E0,9E0,3.1647978E1,2.6500986E0,1.1891684E1,5E0,-3.2609603E-1,-8.351687E-2,4.2873283E1,6.4983487E0,-2.1365392E-1,-7.28382E-2,1.29225E-2,-2.8402486E-1,-1.6272067E-1,-2.481112E-2,-1.1004224E-1,-3.405085E-2,-1.6854821E-1,-1.3139808E-1,-4.881188E-2,-1.4097409E-1,-2.1213816E-1,-9.959756E-2,-1.256635E-1,-4.4330847E-2,-1.9810855E-1,1.4564207E-1,1.8599512E-1,3.774546E-1,-7.363862E-2,1.3605855E-2,-4.1160166E-2,8.41193E-3,-1.6640617E-1,1.42308045E-2,1.4919179E-2,1.9274639E-1,2.975747E-1,8.22659E-2,1.10711455E-1,3.0986497E-1,8.076586E-2,-1.7358774E-2,9.928578E-2,-1.528409E-2,-7.6949644E-1,4.1423153E-2,-1.8168513E-1,1.1316518E-1,-1.3791546E-1,9.0610065E-2,2.78464E-1,1.7638223E-1,-9.939716E-2,-4.256427E-1,-7.94822E-2,9.742963E-2,-3.692823E-3,6.9774106E-2,1.304719E-1,4.247553E-2,1.0642167E-1,-1.4414795E-1,3.6001986E-1,1.5946499E-1],"split_indices":[10,50,56,59,59,10,51,56,66,56,0,56,18,66,48,32,59,7,23,37,13,14,66,59,8,34,66,4,38,0,14,59,7,50,66,10,56,67,0,37,47,51,0,51,7,5,7,49,43,64,0,37,0,38,64,8,40,45,56,0,0,10,20,0,0,0,0,0,0,0,0,0,0,0,0,0,0,0,0,0,0,0,0,0,0,0,0,0,0,0,0,0,0,0,0,0,0,0,0,0,0,0,0,0,0,0,0,0,0,0,0,0,0,0,0,0,0,0,0],"split_type":[0,0,0,0,0,0,0,0,0,0,0,0,0,0,0,0,0,0,0,0,0,0,0,0,0,0,0,0,0,0,0,0,0,0,0,0,0,0,0,0,0,0,0,0,0,0,0,